// Auto-generated Direct PyTorch to C Exporter
#include <math.h>

const float w1[128][4] = {
    {-0.226468f, -0.171676f, -0.449597f, 0.283983f},
    {-0.032600f, 0.587515f, -0.381729f, 0.127020f},
    {0.794641f, -0.318555f, -0.315973f, -0.541720f},
    {-0.077438f, 0.613046f, -0.731438f, -0.101755f},
    {-0.031616f, 0.183772f, 0.456729f, -0.445344f},
    {-0.055224f, -0.069253f, -0.416668f, -0.225257f},
    {0.113515f, 0.080479f, -0.519756f, 0.131605f},
    {-0.475798f, -0.191950f, 0.187266f, -0.621914f},
    {-0.466418f, -0.308547f, -0.136352f, -0.038509f},
    {0.959366f, 0.228720f, 0.147085f, 0.369451f},
    {-0.824750f, 0.440843f, 0.285974f, 0.021243f},
    {0.044445f, 0.130785f, 0.508063f, -0.528654f},
    {0.001195f, 0.858950f, -0.449425f, -0.354317f},
    {0.162353f, -0.133119f, -0.033907f, -0.066284f},
    {0.493059f, 0.418967f, 0.482941f, 0.458252f},
    {0.020571f, -0.530572f, -0.280236f, -0.323892f},
    {-0.145321f, -0.185126f, -0.336315f, 0.296464f},
    {0.460030f, -0.439638f, -0.688655f, 0.574169f},
    {-0.613688f, -0.341942f, -0.001387f, -0.608613f},
    {-0.127268f, -0.782111f, 0.048802f, -0.516445f},
    {0.535983f, -0.268839f, 0.611565f, 0.439114f},
    {0.037626f, -0.557622f, -0.279286f, -0.325036f},
    {-0.497925f, 0.502628f, -0.086921f, 0.194469f},
    {0.649506f, -0.845855f, -0.355136f, 0.656064f},
    {0.328393f, 0.176497f, -0.122759f, 0.481404f},
    {-0.378577f, 0.729125f, -0.684712f, 0.092729f},
    {0.204996f, -0.089401f, 0.158405f, 0.383532f},
    {0.112428f, -0.354370f, -0.622004f, -0.055286f},
    {0.163804f, -0.176161f, 0.471793f, -0.444729f},
    {0.866541f, -0.493017f, -0.100430f, -0.526862f},
    {0.181853f, 0.325429f, 0.505620f, 0.557334f},
    {-0.355226f, -0.700792f, 0.542621f, 0.373800f},
    {0.132071f, 0.024593f, 0.355661f, 0.167897f},
    {0.579199f, -0.321442f, 0.271306f, -0.243470f},
    {0.538927f, 0.542494f, 0.524919f, -0.349246f},
    {0.750140f, -0.697409f, 0.572046f, 0.492863f},
    {0.234493f, 0.550027f, -0.378193f, 0.148630f},
    {-0.013036f, -0.680975f, -0.218165f, 0.618104f},
    {-0.346586f, -0.173460f, -0.023380f, 0.195923f},
    {0.801504f, -0.443052f, 0.379151f, -0.251024f},
    {1.105101f, 0.167227f, 0.226875f, 0.205606f},
    {0.488985f, -0.188909f, -0.264747f, -0.013650f},
    {0.948529f, -0.752196f, -0.210889f, -0.011492f},
    {0.401269f, -1.232075f, -0.542903f, -0.389764f},
    {-0.222448f, -0.125451f, -0.410925f, -0.293074f},
    {0.096086f, -0.310460f, 0.762124f, -0.296061f},
    {-0.263354f, 0.916736f, -0.347251f, 0.045119f},
    {-0.655935f, 0.107618f, -0.860555f, 0.154671f},
    {-0.352134f, 0.050761f, 0.562574f, -0.438727f},
    {1.016595f, -0.040638f, 0.868944f, 0.224047f},
    {0.594434f, -0.377275f, 0.076206f, -0.157784f},
    {0.297375f, -0.804205f, -0.752419f, -0.265585f},
    {0.438683f, 0.618036f, -0.370245f, 0.606795f},
    {0.969713f, 0.673870f, 0.222581f, 0.477239f},
    {0.197966f, 0.350956f, 0.130567f, 0.060659f},
    {0.931765f, 0.165831f, -0.079700f, -0.263589f},
    {0.114404f, 0.062983f, 0.373090f, -0.345004f},
    {-0.045092f, -0.653899f, -1.064352f, -0.096657f},
    {1.248377f, 0.360963f, 0.037921f, -0.120267f},
    {1.247682f, -0.293678f, 0.154942f, 0.113351f},
    {0.432467f, 0.618246f, 0.379393f, 0.561460f},
    {0.514709f, -0.561817f, 0.230017f, 0.349680f},
    {-0.067215f, 0.378504f, 0.741733f, 0.612332f},
    {0.027885f, -0.640940f, -0.341287f, -0.394342f},
    {-0.851504f, 0.247041f, -0.415973f, -0.232952f},
    {-0.012140f, -0.653451f, -0.449513f, 0.760065f},
    {-0.320672f, 0.373544f, 0.388434f, -0.459247f},
    {-0.085342f, -0.724926f, -0.321609f, -0.518168f},
    {0.032701f, -0.253857f, 0.200843f, 0.425158f},
    {-0.175943f, -0.360257f, -0.772325f, -0.178090f},
    {-0.105899f, 0.044798f, 0.721986f, 0.506330f},
    {-0.013828f, -0.209880f, 0.306255f, 0.140778f},
    {-0.095276f, -0.279884f, 0.671607f, 0.500962f},
    {-0.412333f, 0.454779f, -0.872201f, 0.727478f},
    {-0.154307f, 0.730046f, -0.483372f, -0.334620f},
    {-0.005618f, 0.796215f, -0.390598f, -0.226348f},
    {0.417948f, -0.252435f, -0.598499f, -0.506716f},
    {0.560556f, 0.266772f, -0.558144f, 0.251921f},
    {0.235884f, -0.916715f, 0.347699f, -0.810333f},
    {-0.305944f, -0.019327f, -0.659932f, -0.093928f},
    {0.845532f, 0.709537f, -0.110766f, -0.039756f},
    {0.289656f, -0.323642f, 0.165077f, 0.020850f},
    {0.335186f, -0.921716f, 0.059873f, -0.538401f},
    {-0.185085f, -0.458999f, 0.311952f, -0.423414f},
    {0.728691f, -0.220090f, 0.981237f, 0.477485f},
    {0.751104f, 0.393108f, 0.223215f, -0.008779f},
    {0.782576f, -0.562590f, 0.160598f, 0.512246f},
    {-0.468802f, -0.810483f, 0.443225f, 0.368585f},
    {-0.490251f, 0.121659f, 0.150230f, 0.131414f},
    {0.072644f, 0.345546f, -0.449458f, -0.552497f},
    {1.225319f, -0.109065f, 0.255965f, -0.199323f},
    {-0.270537f, 0.322398f, -0.612768f, 0.269490f},
    {0.199770f, -0.330201f, -0.533686f, -0.058402f},
    {0.426083f, 0.543328f, 0.153808f, 0.348897f},
    {-0.089209f, -0.240806f, -0.353254f, 0.169304f},
    {0.074037f, -0.155126f, 0.600226f, 0.546891f},
    {-0.108008f, -0.750070f, -0.827802f, -0.180907f},
    {-0.566763f, 1.039579f, 0.132692f, -0.106146f},
    {0.493724f, 0.010927f, 0.169251f, 0.595131f},
    {0.400069f, 0.623017f, 0.642649f, 0.673797f},
    {-0.034432f, 0.737772f, 0.320885f, -0.564842f},
    {-0.238943f, 0.398992f, 0.015994f, -0.445469f},
    {-0.283617f, 0.349469f, 0.527078f, 0.153757f},
    {0.883890f, 0.704129f, 0.075908f, -0.043725f},
    {0.717093f, -0.699536f, 0.164127f, 0.364427f},
    {0.092101f, 0.800169f, -0.538555f, 0.564270f},
    {0.396964f, 0.445065f, 0.351040f, 0.312582f},
    {0.145776f, -0.148072f, 0.224852f, 0.234494f},
    {-0.570791f, -0.047856f, -0.625401f, -0.220744f},
    {-0.570425f, -0.755960f, 0.022364f, -0.505689f},
    {0.395360f, 0.781702f, 0.181453f, 0.244063f},
    {0.081557f, 0.204817f, -0.707972f, 0.157352f},
    {-0.005980f, -0.034699f, 0.517898f, 0.317156f},
    {-0.266517f, 0.424453f, -0.266273f, -0.048390f},
    {0.432672f, 0.224387f, -0.773878f, -0.484525f},
    {-0.310230f, -0.284288f, 0.073173f, 0.115815f},
    {0.612186f, 0.528010f, -0.191751f, -0.346770f},
    {0.741310f, 0.192228f, -0.783760f, 0.312522f},
    {0.448265f, 0.404912f, 0.456388f, 0.365465f},
    {0.154709f, -0.613535f, 0.561154f, 0.611165f},
    {-0.195135f, 0.076287f, -0.992001f, 0.410611f},
    {0.281469f, 0.617330f, -0.516527f, 0.523819f},
    {0.740525f, 0.396860f, 0.008890f, 0.491401f},
    {0.127127f, 0.533913f, 0.102208f, -0.432681f},
    {-0.410263f, 0.172005f, 0.738511f, -0.193822f},
    {0.263648f, 0.592067f, -0.093107f, -0.133919f},
    {0.036522f, 0.699245f, 0.222198f, 0.617423f},
    {-0.221588f, -0.137438f, -0.322421f, -0.543953f},
};

const float b1[128] = {0.080647f, 0.008014f, -0.408904f, 0.413813f, 0.512590f, 0.594919f, 0.636015f, -0.459939f, 0.538499f, 0.350666f, -0.098266f, 0.238865f, -0.453042f, 0.445672f, -0.159787f, 0.410210f, 0.106539f, -0.248253f, -0.821878f, -0.495476f, -0.327501f, 0.419552f, 0.201536f, -0.135749f, 0.328347f, -0.742078f, 0.301276f, 0.782551f, 0.213200f, -0.594154f, 0.661834f, -0.124862f, 0.681167f, 0.015139f, 0.245037f, 0.160349f, 0.334580f, 0.203957f, 0.627490f, -0.219330f, -0.334173f, 0.601570f, 0.012005f, -0.285608f, 0.436025f, -0.596601f, -0.688084f, 0.585462f, -0.546539f, -0.338544f, 0.734149f, -0.565803f, -0.489769f, -0.513829f, 0.447456f, 0.486176f, 0.368556f, 0.221032f, -0.472663f, -0.451837f, 0.093625f, 0.209897f, 0.396627f, 0.498996f, 0.108907f, -0.026659f, 0.552316f, 0.028294f, 0.654486f, 0.786106f, 0.292783f, 0.694294f, -0.050894f, -0.431522f, -0.029781f, -0.262917f, 0.602650f, -0.584794f, -0.260670f, 0.484045f, -0.319465f, 0.726127f, -0.258647f, 0.555018f, 0.110674f, -0.088541f, -0.419689f, 0.444696f, 0.395100f, 0.228304f, 0.478021f, 0.689453f, 0.677927f, 0.049551f, 0.602040f, 0.548957f, 0.126506f, -0.427660f, 0.606981f, -0.230896f, -0.431775f, -0.393948f, 0.217971f, -0.272330f, 0.114907f, 0.436087f, 0.756072f, 0.600422f, -0.819029f, 0.113383f, 0.227553f, 0.653400f, 0.151295f, 0.611399f, -0.220276f, 0.446300f, 0.476307f, -0.148421f, -0.151140f, -0.017216f, -0.549340f, 0.020398f, -0.615509f, 0.338189f, -0.459357f, 0.420599f, -0.785900f, 0.200687f};
const float w2[64][128] = {
    {-0.053545f, 0.305940f, 0.397634f, 0.150541f, 0.154631f, 0.081874f, 0.109010f, 0.059901f, 0.033673f, -0.148449f, -0.079313f, 0.056794f, -0.482756f, 0.193493f, -0.061486f, 0.051073f, 0.007146f, -0.851479f, -0.249359f, -0.498132f, -0.079441f, 0.061315f, -0.051577f, -0.921080f, 0.180666f, -0.238162f, 0.108033f, 0.114931f, -0.093127f, 0.232423f, 0.129628f, 0.182114f, 0.118553f, -0.107529f, 0.234580f, 0.042738f, 0.127574f, 0.191290f, 0.199195f, 0.046231f, 0.036177f, 0.076352f, -0.262913f, 0.037070f, 0.100437f, -0.316521f, -0.198067f, 0.164567f, 0.300833f, -0.286511f, 0.025150f, -0.644338f, -0.187486f, 0.060272f, 0.190552f, -0.088336f, 0.159923f, 0.427411f, -0.388611f, -0.607118f, -0.012900f, -0.061843f, 0.406655f, 0.097632f, 0.098115f, -0.382502f, 0.085355f, -0.420057f, -0.078074f, 0.075301f, 0.356661f, 0.126067f, -0.049526f, -0.052915f, 0.018446f, -0.395143f, 0.344471f, -0.249348f, -0.862318f, 0.266034f, -0.311816f, 0.045970f, -0.001929f, -0.145063f, -0.005602f, 0.106629f, -1.078713f, -0.067903f, 0.089853f, -0.041183f, 0.010763f, 0.074150f, 0.017513f, -0.003909f, 0.126451f, 0.377708f, -0.108420f, -0.255872f, 0.047453f, -0.258784f, -0.066294f, -0.105529f, 0.033058f, -0.109691f, -0.114964f, 0.241353f, 0.256022f, 0.104241f, -0.232984f, 0.039496f, 0.104226f, 0.091769f, 0.309770f, 0.040325f, 0.161009f, 0.064151f, 0.148554f, 0.150245f, -0.012989f, -0.261128f, 0.529145f, 0.003057f, -1.470175f, -0.098166f, 0.162019f, 0.094623f, -1.225883f, -0.217533f},
    {0.037744f, 0.202709f, 0.072428f, 0.265861f, 0.026707f, 0.094659f, -0.142908f, -0.186670f, 0.077398f, -0.176095f, -0.227252f, 0.050925f, -0.469915f, -0.013121f, 0.079020f, 0.100771f, 0.028826f, -0.286720f, -0.011105f, 0.303548f, -0.022884f, -0.053696f, -0.096816f, -0.197527f, 0.134142f, -0.261285f, 0.137906f, 0.067313f, -0.002776f, 0.128146f, 0.084317f, 0.142837f, 0.027171f, 0.060751f, 0.205203f, -0.029438f, 0.160356f, 0.226575f, 0.120294f, 0.257088f, 0.050425f, 0.098953f, -0.236190f, -0.097576f, 0.025034f, -0.379186f, -0.418255f, 0.289114f, 0.187702f, -0.229772f, -0.022210f, -0.460759f, -0.284160f, 0.401676f, 0.085405f, -0.289347f, 0.142776f, 0.169156f, -0.546221f, -0.074640f, 0.031403f, -0.077011f, 0.436419f, 0.051251f, -0.040034f, 0.017203f, 0.078811f, -0.020675f, -0.029455f, 0.098339f, 0.220154f, -0.021598f, -0.172995f, 0.017806f, 0.079087f, -0.338726f, 0.294757f, -0.295250f, -0.408474f, 0.186966f, -0.218454f, 0.064083f, 0.358951f, -0.155884f, 0.044639f, -0.029304f, -0.439998f, -0.076976f, 0.005323f, -0.066297f, 0.055769f, -0.001903f, 0.004301f, -0.034497f, 0.038566f, 0.142151f, -0.081137f, -0.168501f, 0.072093f, -0.025812f, 0.231814f, -0.182504f, -0.135550f, -0.093009f, -0.021610f, 0.150415f, 0.208452f, -0.023440f, -0.106078f, 0.156675f, 0.170420f, 0.015945f, 0.218382f, 0.046528f, 0.046852f, 0.089558f, -0.058121f, -0.171247f, 0.076421f, -0.078672f, 0.262472f, 0.058772f, -0.503434f, -0.163693f, -0.050990f, 0.162030f, -0.807076f, -0.201001f},
    {0.065782f, -0.205928f, -0.315852f, -0.045300f, 0.044762f, 0.095563f, 0.235753f, 0.109676f, -0.088824f, -0.019121f, -0.001314f, 0.253827f, -0.088810f, 0.223389f, 0.081445f, 0.050818f, 0.073096f, 0.041294f, -0.491489f, -0.452275f, -0.308544f, 0.147629f, 0.105613f, -0.314573f, 0.074801f, 0.112028f, -0.040367f, 0.355371f, 0.108066f, -1.127217f, 0.149936f, -0.151886f, 0.232500f, -0.145224f, -0.062834f, -0.238858f, -0.018182f, -0.276106f, -0.073695f, -0.136074f, -0.380194f, 0.182297f, -0.312187f, -1.033051f, -0.065416f, 0.515320f, 0.176267f, 0.147547f, -0.390475f, 0.331852f, 0.358166f, 0.000290f, 0.278189f, -0.626438f, 0.027911f, 0.024302f, 0.030604f, -0.155172f, -0.325709f, -1.655228f, 0.051095f, -0.138850f, 0.055067f, 0.153785f, 0.125940f, -0.423680f, 0.115809f, 0.392249f, 0.112116f, 0.265795f, 0.145694f, 0.170262f, 0.355059f, -0.166029f, -0.311200f, -0.160654f, 0.023610f, 0.475621f, 0.585596f, 0.317375f, -0.346093f, 0.356627f, -0.336286f, 0.203731f, 0.241987f, -0.133349f, -0.196646f, 0.085207f, 0.088718f, 0.163356f, -0.218980f, 0.161077f, 0.261621f, 0.113846f, 0.221621f, 0.010378f, -0.226510f, 0.086387f, -0.056669f, -0.039499f, -0.320560f, -0.152967f, 0.004687f, -0.339451f, -0.158639f, -0.003759f, 0.171846f, 0.213909f, 0.151944f, -0.159960f, -0.116065f, 0.341323f, 0.104286f, 0.161811f, -0.223003f, -0.138306f, 0.076415f, -0.327118f, 0.047257f, -0.265565f, -0.012823f, 0.289237f, 0.119844f, 0.070698f, -0.030416f, -0.012795f, 0.500659f, 0.149851f},
    {0.158427f, -0.164489f, -0.059994f, -0.006244f, -0.022910f, -0.026201f, 0.201214f, -0.010885f, -0.185782f, 0.086257f, 0.164032f, 0.074588f, 0.040299f, -0.060082f, 0.103273f, -0.245794f, 0.064545f, 0.279207f, -0.409811f, -0.744464f, -0.357029f, -0.155928f, -0.026170f, 0.213512f, -0.120335f, 0.154725f, -0.134614f, 0.291520f, -0.095401f, -0.238464f, 0.114913f, -0.116658f, 0.151819f, -0.333556f, -0.157554f, -0.290522f, -0.083273f, -0.179034f, -0.093558f, -0.513216f, -0.467935f, 0.104783f, -0.304288f, -0.554808f, -0.150439f, 0.163551f, -0.170737f, 0.126105f, -0.247682f, 0.134598f, 0.171098f, 0.361941f, 0.074372f, -0.499050f, -0.021782f, 0.302304f, -0.299756f, -0.302217f, -0.118911f, -0.083577f, 0.084899f, -0.194847f, 0.094257f, -0.152424f, 0.045321f, -0.054787f, 0.052419f, 0.604647f, 0.066190f, 0.223462f, 0.051300f, 0.078492f, 0.307281f, -0.110287f, -0.332736f, -0.029845f, 0.060540f, 0.236837f, 0.509214f, 0.050841f, 0.003610f, 0.106305f, -0.464958f, -0.025252f, 0.272955f, -0.140008f, 0.405442f, 0.070592f, 0.049875f, 0.199930f, -0.423142f, 0.017276f, 0.357484f, -0.008472f, 0.040664f, -0.039124f, -0.224825f, 0.015080f, -0.052828f, -0.040772f, -0.221824f, -0.030953f, 0.032115f, 0.019030f, -0.349855f, -0.129800f, 0.095593f, 0.123232f, 0.223084f, -0.182858f, -0.163489f, 0.150285f, 0.128839f, 0.043298f, -0.084537f, -0.207218f, 0.175838f, -0.258012f, 0.200309f, -0.323724f, -0.419670f, 0.027181f, 0.516063f, 0.227893f, 0.091041f, 0.176862f, 0.418075f, 0.075614f},
    {-0.366912f, -0.066386f, 0.300735f, 0.498084f, 0.162578f, 0.192977f, -0.172079f, -0.091062f, -0.159228f, -0.428982f, 0.203728f, 0.035965f, 0.205986f, 0.012982f, -0.128263f, -0.006080f, -0.085713f, 0.114263f, -0.107187f, 0.185257f, 0.258759f, 0.149728f, -0.578139f, 0.284932f, 0.173532f, -0.334975f, 0.339968f, -0.325645f, 0.125685f, 0.365448f, 0.072613f, -0.141046f, -0.178297f, 0.232176f, 0.165044f, 0.163992f, 0.499815f, 0.279840f, 0.042849f, -0.111218f, 0.205234f, -0.069037f, -0.030310f, 0.180742f, 0.209440f, -0.349334f, -0.336656f, -0.125876f, 0.317284f, -0.572599f, -0.059835f, -0.520729f, -0.401352f, 0.625861f, 0.070240f, -0.329050f, 0.188307f, 0.142544f, -0.334978f, 0.359005f, -0.463075f, 0.182081f, 0.411113f, 0.069278f, -0.279915f, 0.233434f, 0.094108f, -0.233078f, 0.036027f, -0.306000f, 0.199947f, -0.041704f, -0.215787f, 0.677851f, 0.272548f, 0.028466f, 0.061634f, 0.415695f, -0.243878f, -0.264699f, -0.343554f, 0.008337f, 0.339542f, 0.020665f, 0.169820f, -0.314084f, -0.198698f, -0.268912f, 0.175092f, -0.019199f, 0.167225f, -0.121966f, -0.091389f, -0.430902f, 0.028065f, -0.012127f, 0.178453f, -0.137390f, 0.199891f, 0.093602f, 0.195345f, 0.496847f, 0.016834f, -0.186001f, 0.179399f, 0.293150f, -0.127625f, -0.040504f, -0.211507f, -0.061731f, -0.752687f, -0.256207f, 0.122224f, -0.441404f, 0.492170f, 0.012187f, -0.203078f, 0.221307f, -0.236140f, 0.192381f, 0.000226f, -0.601638f, 0.581594f, -0.116593f, -0.009748f, -0.152921f, 0.273848f, 0.133467f},
    {-0.014674f, -0.008164f, -0.008806f, -0.011080f, -0.025275f, -0.014358f, -0.015525f, -0.012524f, -0.028839f, -0.038045f, -0.016254f, -0.009652f, -0.000900f, -0.002120f, -0.000323f, -0.016242f, -0.024156f, -0.010982f, -0.008190f, -0.001892f, -0.000000f, -0.009016f, -0.018105f, -0.011450f, -0.005734f, -0.019678f, -0.004035f, -0.023792f, -0.004120f, -0.006435f, 0.006463f, -0.010462f, -0.015380f, -0.002582f, -0.000994f, -0.005613f, -0.019749f, -0.026949f, -0.039022f, -0.000161f, -0.000008f, -0.005068f, -0.011801f, -0.012498f, -0.009684f, -0.000202f, -0.007639f, 0.011431f, -0.007150f, 0.000000f, 0.001186f, -0.009874f, -0.003357f, -0.000314f, -0.008842f, -0.002004f, -0.005088f, -0.042444f, -0.000240f, -0.000001f, -0.012949f, -0.007497f, -0.013044f, -0.016774f, -0.014740f, -0.013975f, 0.006525f, -0.013584f, -0.017525f, -0.003026f, -0.019124f, -0.047558f, -0.006189f, -0.016398f, -0.008553f, -0.006954f, -0.037916f, -0.003322f, -0.005570f, -0.022035f, -0.002345f, -0.031207f, -0.005905f, -0.004908f, -0.000853f, -0.000488f, -0.000022f, -0.013417f, 0.015195f, -0.026156f, -0.021985f, 0.014127f, -0.002950f, -0.004357f, -0.026112f, -0.027877f, -0.016697f, -0.008100f, -0.008888f, -0.000181f, -0.004139f, -0.007151f, -0.013906f, -0.002652f, -0.009148f, -0.041597f, 0.006722f, -0.008371f, -0.009220f, -0.006460f, -0.000968f, 0.007858f, -0.006758f, -0.000853f, -0.012086f, -0.029830f, 0.001777f, -0.012131f, -0.000012f, -0.004551f, -0.013736f, 0.003635f, -0.000114f, -0.026427f, -0.018962f, -0.027770f, 0.000000f, -0.008293f},
    {-0.269551f, -0.241197f, 0.055756f, 0.369237f, 0.346106f, 0.313943f, -0.062680f, -0.718020f, 0.052368f, -0.013296f, 0.003551f, -0.160980f, -0.569051f, 0.160347f, -0.083018f, 0.033876f, -0.113555f, -0.254105f, -0.204203f, 0.267955f, 0.122122f, 0.003068f, -0.427042f, 0.098911f, -0.011461f, -0.876332f, 0.078349f, -0.128177f, 0.037484f, 0.255658f, 0.260391f, -0.206847f, 0.004327f, -0.002191f, 0.291471f, -0.038348f, 0.500827f, 0.057094f, 0.134309f, -0.214557f, 0.058335f, 0.080341f, -0.161523f, 0.171235f, 0.214611f, -0.503862f, -0.701451f, -0.017258f, 0.241523f, -0.274327f, -0.013486f, -0.452072f, -0.690001f, 0.428394f, 0.372061f, -0.488419f, 0.358378f, 0.096400f, -0.844328f, 0.545156f, -0.017013f, -0.080295f, 0.432707f, -0.011972f, -0.920815f, 0.261504f, 0.195983f, -0.084226f, 0.068414f, -0.062888f, 0.139224f, 0.068533f, -0.285340f, 0.709157f, 0.585891f, -0.240731f, 0.066929f, -0.712821f, -0.382078f, -0.137856f, -0.866418f, 0.046810f, 0.111850f, 0.112580f, 0.145417f, -0.465907f, -0.492826f, -0.443268f, 0.333772f, 0.088577f, 0.337526f, -0.089261f, -0.055004f, 0.009491f, 0.072558f, 0.009294f, 0.320815f, -0.362038f, 0.170428f, -0.051256f, 0.026876f, 0.164810f, 0.099489f, -0.392734f, -0.078909f, 0.181183f, 0.035367f, 0.190798f, -1.193100f, -0.052838f, -0.190928f, -0.010824f, 0.151108f, -0.327231f, 0.052287f, -0.029426f, -0.152651f, 0.155166f, -0.093454f, 0.098256f, -0.252469f, -0.344092f, 0.165164f, -0.119688f, -0.343530f, 0.132393f, -0.321397f, -0.103900f},
    {0.059501f, 0.229951f, 0.380677f, -0.202493f, -0.098320f, -0.224157f, -0.027788f, 0.474722f, -0.044437f, 0.018973f, -0.241429f, 0.123043f, 0.048684f, 0.061284f, 0.138699f, 0.110907f, -0.084832f, 0.011038f, -0.320464f, -0.411271f, -0.351494f, 0.075283f, 0.131490f, -0.071155f, 0.308298f, 0.249600f, 0.167752f, 0.242603f, -0.070659f, -0.069794f, 0.082276f, 0.399878f, 0.012250f, 0.062066f, 0.040897f, 0.109771f, -0.073953f, 0.228093f, -0.082473f, 0.275961f, -0.035771f, 0.194829f, 0.087469f, -0.263455f, -0.278870f, -0.276879f, 0.148667f, 0.163138f, -0.144475f, -0.302629f, 0.252212f, 0.440272f, 0.576434f, -0.038775f, -0.101545f, 0.169171f, -0.034165f, -0.133814f, 0.043554f, -0.536482f, 0.360092f, 0.259958f, -0.042876f, 0.190401f, 0.243152f, -0.251498f, 0.168407f, 0.320070f, -0.073777f, 0.109204f, -0.202743f, -0.066398f, 0.269866f, -0.408638f, -0.087737f, -0.086132f, 0.204545f, 0.289003f, 0.143380f, 0.150857f, 0.080445f, 0.094063f, 0.152632f, -0.133103f, -0.192799f, 0.108189f, 0.428062f, 0.254671f, -0.165331f, 0.017642f, -0.211615f, -0.153914f, 0.064046f, 0.142059f, 0.104821f, 0.042234f, -0.319795f, 0.032022f, -0.035254f, -0.049551f, 0.083100f, -0.003839f, -0.114403f, -0.052582f, 0.196057f, 0.035159f, 0.089313f, -0.135085f, -0.450000f, 0.021586f, 0.315492f, -0.061325f, -0.155332f, 0.153811f, -0.210565f, -0.062322f, 0.244920f, -0.092982f, 0.280190f, -0.105660f, 0.254577f, 0.338176f, -0.148738f, 0.075229f, -0.058384f, 0.244900f, 0.212846f, -0.003914f},
    {0.138814f, 0.010241f, -0.056723f, 0.192700f, -0.039975f, 0.031124f, 0.190443f, -0.140215f, -0.224807f, 0.162290f, 0.163335f, 0.092401f, 0.055086f, 0.103869f, 0.038070f, -0.371507f, -0.032836f, 0.108558f, -0.453611f, -0.094536f, -0.241370f, -0.257970f, -0.007910f, 0.037315f, -0.061553f, 0.245547f, -0.130354f, 0.180386f, -0.099014f, -0.481895f, 0.187163f, -0.047162f, 0.126672f, 0.143584f, -0.144707f, -0.365527f, 0.062618f, -0.277682f, -0.017025f, -0.099162f, -0.300335f, 0.198076f, -0.463281f, -1.247817f, -0.042107f, -0.019832f, -0.299587f, 0.034034f, -0.585219f, 0.255539f, 0.364061f, 0.171955f, 0.084573f, -0.540399f, 0.088496f, 0.207238f, -0.168390f, -0.287183f, 0.065370f, -0.393342f, 0.041092f, -0.228710f, 0.103715f, -0.331741f, 0.000295f, -0.128146f, 0.108200f, 0.296701f, 0.020721f, 0.222058f, 0.121505f, 0.113156f, 0.183549f, -0.129285f, -0.242667f, 0.062694f, -0.189515f, 0.229497f, 0.475402f, 0.121369f, 0.045319f, 0.289161f, -0.515620f, -0.103484f, 0.267863f, 0.088037f, 0.094940f, 0.174133f, 0.083944f, 0.077453f, -0.009559f, 0.062790f, 0.333627f, 0.010391f, 0.006581f, -0.056396f, -0.189099f, -0.102698f, -0.112161f, -0.082972f, -0.328580f, -0.255591f, 0.049289f, -0.004080f, -0.305212f, 0.080178f, 0.089077f, 0.190439f, 0.170667f, -0.238418f, -0.024639f, 0.099972f, 0.122263f, 0.010754f, -0.048007f, -0.045793f, 0.021101f, -0.130342f, 0.141667f, -0.262626f, -0.298299f, 0.151381f, 0.322209f, 0.009618f, 0.037030f, 0.081686f, -0.049819f, 0.102299f},
    {0.080855f, 0.027257f, -0.338703f, -0.178843f, 0.184762f, -0.002446f, 0.197064f, 0.346755f, 0.043226f, 0.078275f, 0.127868f, 0.290503f, 0.093300f, 0.176659f, 0.034723f, -0.005889f, 0.023558f, 0.087075f, 0.047461f, -0.562517f, -0.174482f, -0.022927f, 0.025470f, -0.035646f, 0.137752f, 0.150625f, -0.032708f, 0.349216f, -0.071630f, -1.107762f, 0.093397f, 0.188045f, 0.232441f, -0.190557f, -0.052105f, -0.138771f, -0.157287f, 0.019037f, 0.090246f, -0.171303f, -0.367004f, 0.165184f, -0.175993f, -0.435494f, 0.033012f, 0.274075f, 0.047404f, 0.167670f, -0.033650f, 0.062700f, 0.309180f, 0.300879f, 0.085893f, -0.665698f, 0.028021f, 0.156222f, 0.053372f, -0.024873f, -0.250412f, -1.204866f, 0.014501f, -0.023679f, -0.297911f, -0.033526f, 0.207792f, -0.016706f, 0.215647f, 0.266679f, 0.133326f, 0.276382f, -0.012573f, 0.199929f, 0.289390f, -0.410198f, -0.074898f, 0.160880f, -0.004880f, -0.020306f, 0.324511f, 0.204558f, -0.141744f, 0.214540f, -0.424651f, 0.094867f, 0.033927f, 0.024202f, 0.203218f, 0.307802f, -0.037393f, 0.100240f, -0.297014f, 0.130911f, 0.248607f, -0.040823f, 0.214207f, -0.009335f, -0.375225f, 0.081553f, 0.005165f, -0.174309f, -0.017329f, 0.150734f, -0.054002f, -0.071848f, -0.018264f, -0.205968f, 0.086650f, 0.106069f, 0.001600f, 0.021117f, 0.041464f, 0.077921f, 0.027630f, 0.251034f, -0.424708f, 0.045055f, 0.186464f, -0.342441f, 0.103437f, -0.092858f, 0.175626f, 0.046604f, -0.191259f, 0.238993f, 0.088545f, 0.162010f, 0.046199f, 0.245563f},
    {-0.173350f, 0.427583f, 0.079638f, 0.505906f, 0.256712f, 0.148977f, -0.151329f, -0.193316f, -0.038707f, -0.331358f, 0.395910f, 0.036304f, 0.075688f, 0.004196f, -0.119064f, 0.150595f, 0.011193f, -0.055946f, -0.244456f, 0.045803f, 0.166007f, 0.155175f, -0.755606f, 0.119549f, 0.025603f, -1.162311f, 0.117741f, -0.100123f, 0.080005f, 0.170850f, -0.029802f, -0.269534f, -0.112652f, 0.211843f, 0.108382f, 0.195894f, 0.497792f, 0.224531f, 0.087146f, -0.072435f, 0.384941f, -0.162353f, -0.038932f, 0.081843f, 0.234819f, -0.263307f, -0.588326f, 0.093261f, 0.220638f, -0.438848f, -0.014279f, -0.562709f, -0.366434f, 0.787002f, 0.240942f, -0.373094f, 0.188845f, 0.280288f, -0.499472f, 0.271738f, -0.311653f, -0.013851f, 0.300257f, 0.114973f, -0.178190f, 0.215104f, 0.072691f, -0.166283f, 0.021013f, -0.206890f, 0.149400f, -0.060284f, -0.165228f, 0.673079f, 0.316468f, 0.009997f, 0.139959f, 0.125274f, -0.443197f, -0.195235f, -0.430952f, 0.005426f, 0.057814f, 0.098614f, 0.229499f, -0.165557f, -0.419342f, -0.316927f, 0.009316f, -0.119696f, 0.160490f, -0.082017f, -0.213439f, -0.309822f, 0.074002f, 0.058141f, 0.184016f, -0.094203f, 0.212630f, 0.052216f, 0.179533f, 0.380066f, -0.013983f, -0.219579f, -0.006702f, 0.299958f, -0.162023f, -0.069766f, -0.463925f, 0.166872f, -0.588954f, -0.242780f, 0.233202f, -0.331049f, 0.497710f, 0.061313f, -0.310602f, 0.008937f, -0.191240f, 0.106138f, 0.044842f, -0.748781f, 0.604480f, -0.134202f, 0.045849f, -0.072225f, -0.020232f, 0.093301f},
    {-0.375658f, 0.039637f, -0.084679f, 0.225830f, 0.288659f, 0.235641f, -0.248172f, -0.115664f, 0.150564f, -0.309577f, 0.083147f, 0.036905f, -0.599242f, 0.090004f, -0.327284f, 0.073768f, -0.164506f, -0.215737f, -0.348126f, -0.060403f, -0.011385f, 0.075112f, -0.047786f, -0.144070f, 0.041385f, -3.559635f, 0.169545f, -0.108376f, -0.096806f, 0.004206f, 0.291874f, 0.043955f, 0.100452f, 0.090925f, 0.219347f, 0.002514f, 0.070166f, 0.349298f, 0.253473f, 0.157328f, 0.464594f, 0.150350f, -0.141238f, 0.039547f, 0.248919f, -0.315995f, -2.862074f, 0.422978f, 0.330927f, -0.618773f, 0.057596f, -0.239140f, -1.042786f, 0.664361f, 0.277052f, -0.585933f, 0.155539f, 0.237600f, -1.207352f, 0.409211f, -0.305136f, 0.037488f, 0.355362f, 0.147724f, -0.256161f, -0.103754f, 0.229672f, -0.168258f, 0.057280f, -0.021530f, 0.106206f, 0.196953f, -0.293374f, -0.244655f, 0.243992f, -0.954729f, 0.281477f, 0.205690f, -0.392028f, 0.090289f, -1.199131f, 0.110625f, 0.145097f, 0.059902f, 0.130151f, -0.110529f, -0.284407f, -0.156287f, 0.079673f, -0.050732f, 0.163966f, -0.263271f, -0.172111f, -0.385846f, 0.133031f, 0.013089f, 0.168723f, -0.532409f, 0.242503f, -0.573499f, 0.172320f, 0.101096f, -0.036972f, -0.658041f, 0.006337f, 0.294786f, 0.186251f, 0.188911f, -0.379319f, 0.161821f, -0.176577f, -0.127584f, 0.184788f, -0.047174f, 0.183691f, 0.107971f, -0.126914f, 0.171607f, -0.218078f, -0.105467f, -0.348814f, -0.365326f, -0.076698f, -0.223729f, -0.064660f, 0.272716f, -0.778774f, -0.130926f},
    {-0.002216f, -0.002966f, -0.001001f, -0.012989f, -0.016103f, -0.016234f, -0.016907f, -0.005315f, -0.006999f, -0.016431f, -0.006811f, -0.009012f, -0.001730f, -0.013017f, -0.003764f, -0.013969f, -0.002449f, -0.004736f, -0.004912f, -0.002682f, -0.001707f, -0.014219f, -0.003364f, -0.003955f, -0.008239f, 0.000141f, -0.005074f, -0.021124f, -0.009422f, -0.001122f, -0.008597f, -0.001333f, -0.015911f, -0.007529f, -0.014800f, -0.006729f, -0.012112f, -0.004011f, -0.008468f, -0.006104f, -0.006917f, -0.017979f, -0.013930f, -0.006017f, -0.013410f, -0.002563f, -0.000296f, -0.005721f, -0.004725f, -0.006208f, -0.020655f, -0.001736f, 0.002311f, -0.003471f, -0.016155f, -0.018359f, -0.012783f, -0.011132f, -0.003625f, -0.006485f, -0.006158f, -0.006541f, -0.006236f, -0.016334f, -0.006401f, -0.000694f, -0.013745f, -0.007361f, -0.008787f, -0.017876f, -0.004435f, -0.013676f, -0.000133f, -0.000275f, -0.006502f, -0.002631f, -0.019169f, 0.000172f, -0.006809f, -0.008963f, -0.004410f, -0.017422f, -0.004647f, -0.014596f, -0.005676f, -0.007641f, -0.001967f, -0.004116f, -0.005935f, -0.007022f, -0.021736f, -0.008976f, -0.019818f, -0.006163f, -0.011191f, -0.006406f, -0.007167f, -0.006410f, -0.010278f, -0.002449f, -0.004192f, -0.001741f, -0.009442f, -0.006173f, -0.006877f, -0.009236f, -0.018382f, -0.010112f, -0.001095f, -0.010397f, -0.014122f, -0.017175f, -0.002743f, -0.012770f, -0.000871f, -0.006665f, -0.016488f, -0.008927f, -0.003342f, -0.001018f, -0.000764f, -0.003479f, 0.000572f, -0.009742f, -0.007876f, -0.012806f, 0.001227f, -0.009046f},
    {-0.162219f, 0.245104f, 0.353851f, -0.106047f, -0.044256f, -0.174247f, -0.047594f, 0.374367f, 0.048320f, 0.166566f, -0.253517f, 0.069791f, 0.007722f, 0.159181f, 0.172335f, 0.057357f, -0.194878f, -0.005444f, -0.560499f, -0.612575f, -0.346101f, -0.004176f, 0.247862f, -0.120025f, 0.319459f, 0.040627f, 0.103571f, 0.112203f, -0.081298f, -0.032222f, 0.028537f, 0.316329f, -0.096664f, -0.022111f, -0.005492f, 0.100218f, -0.057972f, 0.136174f, -0.081779f, 0.289011f, 0.054824f, 0.222637f, 0.058740f, -0.113585f, -0.174143f, -0.201144f, 0.010061f, 0.059004f, 0.059208f, -0.335047f, 0.254683f, 0.293693f, 0.566712f, 0.047345f, 0.109522f, 0.048051f, -0.000373f, -0.041892f, 0.089030f, -0.430993f, 0.286180f, 0.136916f, -0.029422f, 0.020245f, 0.136901f, -0.230625f, 0.169170f, 0.292541f, -0.011296f, 0.183909f, -0.208771f, -0.054524f, 0.113348f, -0.248905f, -0.200083f, -0.057322f, 0.116498f, 0.227676f, -0.141921f, 0.122348f, -0.104799f, 0.097501f, 0.100772f, -0.161837f, -0.183980f, 0.261357f, 0.409675f, 0.049682f, -0.184695f, -0.003663f, -0.135718f, -0.076715f, 0.023963f, 0.146696f, 0.102982f, 0.059944f, -0.334782f, 0.087163f, 0.007443f, 0.136537f, 0.219451f, -0.022796f, -0.049291f, -0.042873f, 0.209131f, 0.006563f, 0.127138f, -0.090795f, -0.729215f, -0.109918f, 0.416089f, -0.031763f, -0.030709f, 0.144806f, -0.064360f, 0.031294f, 0.301960f, -0.045302f, 0.378102f, -0.225844f, 0.143766f, 0.332557f, -0.056260f, 0.150801f, -0.052091f, 0.199956f, 0.168664f, -0.004884f},
    {0.060076f, -0.084859f, -0.440901f, -0.093027f, -0.050414f, -0.118070f, 0.300586f, -0.050099f, -0.077884f, 0.134384f, 0.084052f, 0.161157f, 0.144765f, 0.203590f, 0.092563f, -0.122115f, 0.122284f, 0.026471f, -0.317204f, -0.882338f, -0.278883f, -0.071233f, -0.007250f, -0.065959f, 0.093965f, 0.073868f, 0.029109f, 0.457959f, -0.178828f, -0.976852f, 0.215808f, -0.190732f, 0.109855f, -0.189103f, -0.071202f, -0.089048f, -0.120553f, -0.054849f, -0.033389f, -0.055144f, -0.367114f, 0.175401f, -0.163531f, -0.039237f, -0.007801f, 0.019369f, 0.149660f, 0.178709f, -0.533123f, 0.285556f, 0.231271f, 0.240760f, 0.174662f, -0.628469f, 0.081744f, 0.233980f, -0.103714f, 0.047706f, -0.424110f, -0.855793f, 0.018727f, -0.118697f, -0.047066f, 0.040083f, 0.089149f, -0.019282f, 0.035629f, 0.293110f, 0.301717f, 0.297782f, 0.100959f, 0.278338f, 0.175796f, -0.316491f, -0.307301f, 0.139888f, -0.007628f, 0.000294f, 0.385360f, 0.148460f, -0.037485f, 0.225811f, -0.533812f, 0.009403f, 0.279100f, -0.101937f, 0.129123f, 0.195228f, -0.026424f, 0.037045f, -0.223075f, 0.068221f, 0.373199f, -0.009828f, 0.240722f, 0.040610f, -0.028221f, 0.170382f, 0.003131f, -0.084819f, -0.141631f, -0.086750f, -0.010607f, 0.012821f, -0.136281f, -0.141518f, -0.005591f, 0.249170f, 0.174861f, -0.346384f, 0.098945f, 0.117623f, 0.230859f, 0.129260f, -0.557920f, 0.029670f, 0.061627f, -0.396178f, 0.139926f, -0.090927f, -0.108278f, 0.050046f, 0.143609f, 0.160849f, -0.179749f, 0.098789f, 0.052057f, 0.002473f},
    {0.026859f, 0.166071f, -0.173761f, 0.169479f, 0.054198f, 0.174599f, -0.056832f, -0.164530f, 0.142036f, 0.093904f, -0.025936f, -0.075502f, -0.625269f, 0.022934f, -0.161273f, -0.032507f, 0.014842f, -0.349781f, 0.012769f, 0.392232f, -0.024744f, -0.046270f, -0.051402f, -0.088727f, 0.156208f, -0.116980f, 0.051399f, 0.024879f, -0.028069f, 0.057279f, 0.221605f, 0.084766f, 0.020811f, -0.058649f, 0.260582f, -0.085079f, 0.400298f, 0.062471f, 0.162324f, 0.189420f, 0.064459f, -0.037420f, -0.024388f, 0.076479f, 0.163259f, -0.384283f, -0.160068f, 0.222556f, 0.198840f, -0.600750f, 0.026967f, -0.348181f, -0.187794f, 0.390081f, 0.391639f, -0.299372f, 0.116416f, 0.186413f, -1.316586f, 0.193040f, 0.068174f, 0.036743f, 0.366945f, -0.064759f, -0.127768f, 0.011952f, 0.194060f, -0.157198f, -0.126918f, 0.066474f, 0.277751f, 0.088015f, -0.245907f, 0.095260f, 0.114558f, -0.355288f, 0.220610f, -0.166637f, -0.422705f, 0.095351f, -0.749505f, 0.082757f, 0.267242f, -0.084885f, -0.044103f, -0.292596f, -0.309640f, -0.284868f, 0.192958f, 0.042752f, 0.134886f, 0.026563f, -0.011190f, 0.065586f, 0.050283f, 0.018767f, 0.035538f, -0.131835f, 0.175650f, -0.188333f, 0.079454f, -0.213460f, 0.029133f, -0.378199f, -0.026986f, 0.498892f, 0.253225f, 0.130778f, -0.086541f, 0.175819f, -0.003738f, 0.065286f, 0.034768f, -0.019457f, -0.042719f, -0.027614f, 0.090526f, 0.034279f, -0.048865f, -0.092839f, 0.050187f, 0.126164f, -0.193443f, -0.156856f, -0.062124f, 0.186412f, -0.668776f, -0.050312f},
    {0.170224f, -0.094493f, -0.202258f, 0.000313f, -0.149749f, -0.148762f, 0.310504f, -0.036041f, -0.384344f, 0.180429f, 0.758157f, 0.014323f, -0.027691f, 0.092201f, 0.062142f, -0.469723f, 0.038703f, 0.031531f, -1.611650f, -0.724298f, -0.329017f, -0.424287f, 0.123178f, 0.054663f, -0.165685f, 0.333495f, -0.094765f, 0.308147f, -0.114893f, -0.271038f, 0.175950f, -0.239129f, 0.279663f, 0.174016f, -0.175712f, -0.294649f, 0.066267f, -0.324455f, -0.066748f, 0.035291f, -0.409500f, 0.197882f, -0.251089f, -0.401850f, -0.196850f, -0.031974f, -0.141691f, 0.144455f, -0.618091f, 0.501137f, 0.298106f, 0.192855f, -0.127580f, -0.658596f, 0.176694f, 0.507618f, -0.284263f, -0.317402f, 0.234264f, -0.311410f, 0.085080f, -0.370467f, 0.087542f, -0.468736f, -0.368714f, -0.025650f, -0.202256f, 0.253313f, 0.013035f, 0.136138f, 0.063760f, 0.235653f, 0.063591f, -0.115956f, -0.277478f, 0.063364f, -0.161692f, -0.016479f, 0.336639f, 0.113946f, -0.066109f, 0.380787f, -0.432649f, -0.070150f, 0.314780f, 0.256486f, 0.244955f, 0.002394f, 0.004374f, 0.131791f, 0.014678f, 0.117235f, 0.414874f, 0.049459f, 0.100776f, -0.088560f, 0.228840f, 0.377658f, -0.037000f, -0.159373f, -0.372553f, -0.308697f, 0.300704f, 0.213185f, -0.345075f, -0.111988f, 0.126937f, 0.282762f, 1.302813f, -1.002446f, 0.083753f, 0.184654f, 0.010207f, -0.008619f, -0.030695f, -0.125579f, 0.100957f, -0.033444f, 0.104658f, -0.246891f, -0.611231f, -0.061124f, 0.253760f, 0.118713f, 0.040909f, 0.052513f, 0.118362f, -0.007161f},
    {-0.000107f, -0.000174f, -0.000000f, -0.000826f, -0.002577f, -0.000482f, -0.001589f, 0.000244f, -0.000113f, -0.003061f, -0.002010f, -0.002178f, -0.000476f, -0.001337f, -0.002867f, -0.000092f, -0.000486f, -0.002452f, 0.000000f, 0.000001f, -0.002851f, -0.000097f, -0.000466f, -0.002890f, -0.002617f, -0.000000f, -0.002784f, -0.000906f, -0.001785f, 0.000295f, -0.003190f, -0.002512f, -0.003064f, -0.000689f, -0.002509f, -0.003238f, -0.001792f, -0.002416f, -0.002268f, -0.000586f, -0.002490f, -0.001715f, -0.002007f, -0.000032f, -0.000314f, -0.001797f, -0.000011f, -0.000411f, -0.000995f, -0.002988f, -0.002773f, -0.000005f, -0.002082f, -0.002647f, -0.002667f, -0.001683f, -0.002087f, -0.000420f, -0.000180f, -0.001957f, -0.002955f, -0.002985f, -0.003127f, -0.000173f, -0.000361f, -0.002371f, -0.002727f, -0.000005f, -0.003218f, -0.000798f, -0.003094f, -0.003041f, -0.002896f, -0.000304f, -0.000485f, -0.000340f, -0.000365f, -0.000408f, 0.000800f, -0.000440f, -0.000231f, -0.002959f, 0.000167f, -0.001834f, -0.003193f, -0.002107f, -0.002495f, -0.003111f, -0.002177f, -0.000002f, -0.002871f, -0.001040f, -0.000938f, -0.002636f, -0.000818f, -0.003241f, -0.000279f, -0.001051f, -0.003200f, -0.003017f, -0.000522f, 0.000033f, -0.002786f, -0.001167f, -0.003000f, -0.002515f, -0.003212f, -0.002990f, -0.000011f, -0.000085f, -0.002724f, -0.001976f, -0.002811f, -0.000977f, -0.000289f, -0.001886f, -0.000311f, -0.002143f, -0.002802f, -0.002926f, -0.000001f, -0.002169f, -0.002393f, -0.001407f, -0.002420f, -0.001507f, -0.002166f, -0.000033f},
    {0.254850f, -0.248865f, -0.295654f, -0.009674f, -0.094813f, 0.042387f, 0.036479f, -0.240231f, -0.232984f, 0.091587f, 1.070170f, 0.041740f, -0.039138f, 0.074482f, -0.129835f, 0.074306f, 0.225517f, 0.193188f, -0.958770f, 0.483423f, -0.316828f, 0.149033f, 0.060974f, 0.072228f, -0.084389f, 0.397014f, -0.065119f, 0.099390f, -0.009204f, 0.170952f, 0.100882f, 0.133717f, 0.189402f, -0.007123f, -0.233677f, -0.359283f, 0.131738f, -0.090533f, 0.019008f, -0.158187f, -1.082292f, 0.076663f, -0.354343f, -0.511375f, -0.095144f, -0.183209f, 0.234627f, -0.244018f, -0.647924f, 0.260239f, 0.131176f, -0.532788f, 0.143015f, -0.768686f, -0.034611f, 0.363828f, -0.091118f, -0.039436f, 0.600838f, -0.718886f, 0.107092f, -0.342494f, 0.060254f, 0.097833f, -0.957946f, 0.329334f, -0.314918f, 0.526326f, 0.057392f, 0.032289f, 0.003339f, 0.135457f, 0.130909f, -0.146511f, -0.172846f, -0.044335f, 0.092848f, 0.451810f, 0.211634f, -0.307112f, 0.330022f, 0.258387f, -0.037284f, 0.192582f, 0.126620f, 0.153156f, 0.018180f, 0.218362f, 0.126067f, 0.111487f, -0.073859f, 0.028509f, 0.217925f, 0.101326f, 0.020095f, -0.151972f, 0.063549f, 0.139869f, -0.088737f, 0.003601f, -0.130343f, -0.204562f, 0.154929f, 0.214860f, -0.392902f, -0.217710f, 0.090503f, 0.134661f, 1.770988f, -0.740895f, -0.106282f, 0.093154f, 0.007128f, -0.101234f, -0.088675f, -0.152720f, 0.329582f, 0.018457f, -0.201881f, -0.044763f, -0.681112f, -0.097591f, 0.139915f, 0.136801f, 0.036879f, 0.099919f, 0.356313f, 0.120048f},
    {0.004612f, 0.159436f, 0.267120f, 0.462449f, 0.024299f, 0.118234f, 0.110738f, 0.140459f, 0.074909f, 0.122935f, -0.016065f, 0.079371f, -0.037730f, 0.022112f, -0.320838f, -0.074243f, 0.089056f, 0.145274f, 0.212405f, 0.498285f, 0.771940f, -0.110051f, 0.159585f, 0.244537f, 0.402317f, 0.115950f, -0.057777f, -0.220011f, -0.041000f, 0.502666f, -0.126617f, -0.415905f, 0.050569f, 0.133091f, 0.106331f, 0.056758f, 0.499884f, -0.113862f, 0.031302f, -0.022595f, 0.421106f, -0.049718f, 0.053926f, -0.122375f, 0.057481f, -0.244488f, 0.222075f, 0.009551f, 0.143011f, -0.562885f, -0.126079f, -0.769915f, 0.579062f, 0.759151f, 0.208710f, 0.192230f, 0.033298f, -0.148998f, 0.254723f, 0.554750f, -0.355997f, 0.065034f, 0.327247f, -0.077116f, 0.146976f, -0.035998f, 0.084519f, -0.526774f, -0.191272f, -0.221339f, 0.153455f, -0.155353f, -0.823078f, 0.411143f, 0.174195f, -0.151976f, -0.041954f, 0.222550f, -0.121926f, -0.175386f, 0.191535f, -0.147214f, 0.798247f, -0.108322f, -0.035994f, 0.014524f, 0.075049f, -0.382098f, 0.085437f, 0.189283f, 0.142154f, 0.058794f, 0.013094f, -0.120163f, -0.065005f, -0.095999f, -0.217392f, 0.112713f, 0.094178f, -0.091241f, 0.020797f, 0.081749f, 0.066221f, 0.245038f, 0.251976f, 0.418332f, 0.029710f, -0.048679f, 0.184338f, 0.154713f, -0.293227f, 0.125045f, 0.039391f, 0.109527f, 0.404388f, -0.044100f, 0.119810f, 0.678144f, -0.557116f, 0.253774f, -0.038184f, 0.281898f, 0.539708f, 0.014182f, 0.137922f, 0.004209f, 0.374958f, -0.005840f},
    {-0.000064f, -0.000206f, 0.001536f, -0.002982f, -0.007200f, -0.001102f, -0.003344f, -0.006866f, 0.000890f, -0.004035f, -0.010121f, -0.007206f, -0.001069f, -0.000798f, -0.005394f, -0.004342f, -0.000368f, -0.002169f, -0.004963f, -0.000901f, -0.004217f, -0.002892f, -0.005310f, -0.003110f, -0.006612f, -0.000000f, -0.004462f, -0.001403f, -0.010962f, 0.001976f, -0.011724f, -0.002937f, -0.001983f, 0.001156f, -0.004881f, -0.011150f, 0.000291f, -0.003656f, -0.004935f, -0.003014f, -0.001842f, -0.010970f, -0.003743f, -0.000000f, -0.003432f, -0.004831f, 0.000476f, -0.000013f, -0.005121f, -0.004502f, 0.009205f, -0.000000f, -0.001997f, -0.003522f, -0.003787f, -0.000666f, -0.004490f, 0.000393f, 0.001907f, 0.000521f, -0.005317f, -0.005256f, -0.007695f, -0.006253f, -0.006262f, -0.002056f, -0.007830f, -0.000522f, 0.000680f, -0.000869f, -0.005581f, -0.010665f, -0.003975f, -0.000000f, -0.001989f, -0.000771f, -0.009473f, -0.000140f, -0.001964f, -0.000001f, 0.002044f, -0.022711f, -0.001066f, 0.010874f, 0.003925f, -0.001491f, -0.002781f, -0.001959f, -0.008749f, -0.000698f, 0.007786f, -0.001673f, -0.000407f, -0.004324f, 0.000951f, -0.011629f, 0.000245f, -0.004605f, -0.008933f, -0.005957f, -0.002339f, -0.001792f, -0.007459f, 0.000328f, 0.002938f, -0.004512f, -0.000289f, -0.012314f, -0.000000f, -0.006781f, -0.003692f, -0.001777f, -0.004002f, -0.006794f, -0.000057f, -0.003253f, -0.001412f, -0.002477f, -0.005027f, -0.007865f, -0.000000f, -0.002496f, -0.003405f, -0.002193f, -0.006674f, -0.001809f, -0.004579f, -0.004830f},
    {0.154551f, -0.171459f, -0.471012f, 0.011910f, -0.004675f, 0.097629f, 0.254637f, -0.044184f, -0.160980f, 0.084017f, 0.181193f, 0.134250f, 0.257050f, 0.280082f, 0.124364f, -0.120579f, -0.036874f, 0.039092f, -0.584028f, -1.220255f, -0.375622f, -0.103551f, -0.006035f, -0.039031f, -0.046875f, 0.018962f, -0.010093f, 0.338457f, -0.150431f, -1.583168f, 0.173548f, -0.040704f, 0.208474f, 0.029216f, -0.200309f, -0.329172f, -0.105561f, -0.218382f, 0.011164f, -0.101647f, -0.465888f, 0.267628f, -0.450554f, -0.722200f, -0.000808f, -0.033149f, -0.067478f, 0.198933f, -0.620622f, 0.316026f, 0.262781f, -0.226277f, 0.022990f, -0.674475f, 0.080363f, 0.180343f, -0.195100f, -0.305389f, -0.142089f, -0.704177f, -0.079815f, -0.156845f, 0.127021f, -0.179415f, -0.067553f, -0.036004f, 0.007616f, 0.449580f, 0.237697f, 0.188739f, 0.235344f, 0.286268f, 0.322879f, -0.166190f, -0.259312f, 0.189400f, 0.081197f, 0.415143f, 0.584024f, 0.138726f, -0.109248f, 0.317222f, -0.662206f, -0.030616f, 0.321898f, 0.054886f, 0.160891f, 0.133476f, 0.142122f, 0.113435f, -0.110034f, 0.061007f, 0.412009f, 0.039238f, 0.038901f, 0.092422f, -0.312928f, 0.000715f, -0.029188f, -0.169576f, -0.442834f, -0.146923f, 0.004066f, -0.117704f, -0.224280f, -0.151925f, 0.046682f, 0.310810f, 0.191503f, -0.222271f, -0.077490f, 0.197070f, 0.201133f, 0.135785f, 0.009708f, -0.050449f, 0.072283f, -0.288338f, 0.005876f, -0.237534f, -0.368726f, 0.043165f, 0.372572f, 0.017416f, -0.203381f, 0.089137f, 0.013657f, 0.112251f},
    {0.130130f, -0.174672f, -1.159381f, -0.218381f, 0.233934f, -0.041814f, 0.218851f, -0.051120f, -0.181497f, 0.062508f, 0.043290f, 0.126919f, 0.346516f, 0.183758f, -0.086454f, -0.257500f, -0.070080f, 0.096112f, -0.576878f, -2.234789f, -0.281249f, -0.078663f, -0.004902f, 0.073362f, 0.112817f, 0.024526f, 0.123969f, 0.407736f, -0.032509f, -1.923423f, 0.111674f, -0.097922f, 0.292644f, -0.069538f, -0.065715f, -0.072680f, -0.205142f, 0.122887f, 0.112761f, -0.240486f, -0.096713f, 0.296144f, -0.177083f, -0.470966f, -0.109942f, 0.065098f, -0.185336f, 0.075705f, -0.511044f, 0.212592f, 0.319381f, -0.076422f, 0.210224f, -0.553851f, 0.190546f, 0.108335f, 0.064242f, -0.138260f, 0.027477f, -0.503443f, 0.055335f, -0.025947f, -0.075876f, -0.135988f, 0.003716f, 0.172977f, 0.108519f, 0.080938f, 0.302471f, 0.181587f, -0.022165f, 0.227277f, 0.081591f, -0.222544f, -0.326636f, 0.230252f, 0.025180f, 0.249311f, 0.095876f, 0.075078f, 0.086993f, 0.285059f, -0.913425f, -0.112074f, 0.194865f, -0.003140f, 0.362320f, 0.147153f, -0.026063f, 0.011379f, -0.244843f, -0.010272f, 0.313333f, -0.009493f, 0.232504f, 0.138627f, -0.274274f, -0.088810f, 0.294391f, -0.267848f, -0.395288f, -0.021234f, -0.082806f, -0.084541f, -0.054731f, -0.004430f, 0.112135f, 0.261319f, 0.062066f, -0.476365f, -0.066096f, 0.195171f, 0.062953f, 0.219441f, -0.743427f, 0.002656f, 0.163476f, -0.106700f, -0.116669f, -0.177566f, -0.135227f, 0.041750f, 0.026004f, 0.077754f, -0.095780f, 0.111916f, 0.019143f, 0.104231f},
    {-0.426642f, 0.151806f, 0.048007f, 0.062410f, 0.041639f, -0.053791f, -0.132983f, 0.049235f, -0.125123f, -0.303706f, -0.047820f, 0.059455f, 0.106417f, -0.099005f, 0.068583f, 0.153752f, -0.086529f, 0.080450f, -0.299778f, 0.067375f, 0.264623f, 0.103058f, -0.200867f, 0.071762f, -0.476960f, 0.196857f, 0.094759f, -0.079402f, 0.040378f, -0.074948f, -0.128841f, -0.079537f, -0.047702f, 0.108563f, 0.065022f, -0.001979f, -0.145759f, -0.006968f, -0.216211f, 0.200102f, 0.059567f, -0.488722f, -0.047131f, -0.163195f, 0.114026f, 0.060559f, 0.352740f, -0.265411f, 0.051254f, 0.087994f, -0.093934f, -0.092905f, 0.260671f, 0.174676f, -0.016108f, -0.038195f, 0.042717f, -0.093843f, -0.098891f, 0.210820f, -0.004649f, -0.047421f, -0.082723f, 0.133546f, -0.094352f, 0.006201f, 0.021343f, 0.241632f, -0.197172f, -0.064960f, -0.021083f, -0.068445f, 0.131843f, 0.015353f, 0.015356f, 0.080586f, -0.023298f, -0.095347f, 0.132500f, 0.117518f, 0.039670f, -0.034946f, 0.243401f, 0.005010f, 0.026287f, 0.009601f, 0.100217f, -0.092496f, -0.105242f, 0.068660f, 0.038440f, -0.172651f, -0.116986f, 0.034883f, -0.023082f, -0.064680f, 0.018270f, 0.071960f, -0.340475f, 0.230595f, 0.100224f, 0.141862f, -0.031997f, 0.074959f, 0.261825f, -0.021399f, -0.034967f, -0.085026f, 0.031478f, 0.017134f, -0.052133f, -0.188457f, 0.023114f, -0.043076f, 0.258023f, -0.090960f, 0.005253f, -0.171164f, 0.048161f, 0.015156f, -0.201804f, 0.158156f, 0.193329f, 0.024882f, 0.043503f, -0.003390f, -0.786003f, 0.115300f},
    {-0.060982f, 0.199256f, -0.015933f, 0.178186f, 0.236632f, 0.106810f, 0.107231f, -0.012888f, 0.094575f, 0.071219f, 0.060803f, -0.070824f, -0.667444f, 0.204389f, -0.099579f, -0.059228f, 0.085767f, -0.268941f, -0.107879f, 0.244053f, -0.158244f, -0.024609f, -0.002476f, -0.144626f, 0.137716f, 0.056587f, 0.145335f, 0.083920f, -0.146389f, 0.012875f, 0.270248f, 0.088408f, 0.019099f, 0.110514f, 0.206664f, 0.001713f, 0.305411f, 0.130816f, 0.127962f, 0.282067f, 0.182047f, 0.118454f, -0.108716f, 0.018384f, 0.000685f, -0.434709f, -0.124574f, 0.347805f, 0.238290f, -0.426045f, 0.167911f, -0.396349f, -0.074879f, 0.408472f, 0.359018f, -0.438631f, 0.121107f, 0.231812f, -1.497735f, 0.220852f, 0.183579f, 0.028339f, 0.387249f, 0.078878f, 0.001540f, -0.073723f, 0.135310f, -0.186196f, -0.086975f, 0.102831f, 0.118422f, 0.007998f, -0.294338f, 0.168927f, 0.040586f, -0.454083f, 0.184213f, -0.082789f, -0.301522f, 0.071375f, -0.806206f, 0.074567f, 0.117716f, -0.043691f, -0.093084f, -0.339483f, -0.286118f, -0.182820f, 0.120741f, 0.042799f, 0.103679f, 0.168463f, -0.002582f, 0.049989f, 0.068449f, 0.098080f, 0.077804f, -0.125217f, 0.121769f, -0.131168f, -0.022747f, -0.382372f, 0.012961f, -0.431326f, 0.067161f, 0.415960f, 0.252285f, 0.016603f, -0.035767f, 0.095236f, 0.060842f, 0.010213f, 0.189451f, 0.062314f, -0.209952f, 0.034093f, -0.058803f, 0.104529f, -0.083829f, -0.083638f, -0.003357f, 0.273096f, -0.399564f, -0.082168f, 0.073254f, 0.216005f, -0.903840f, -0.095625f},
    {0.201011f, -0.076410f, -0.171235f, 0.012757f, 0.182119f, 0.069080f, 0.243279f, 0.049584f, -0.202576f, -0.034355f, -0.193668f, 0.159224f, 0.020361f, 0.293755f, 0.133368f, 0.003723f, 0.009458f, -0.035444f, -0.820933f, -0.939827f, -0.206802f, 0.036297f, 0.029833f, -0.247322f, 0.054628f, -0.187446f, 0.005765f, 0.403730f, 0.065975f, -1.083544f, 0.202527f, -0.001638f, 0.185175f, -0.193467f, -0.023462f, -0.187014f, -0.140356f, -0.146982f, -0.036027f, -0.077082f, -0.225920f, 0.329022f, -0.434110f, -1.074475f, -0.119991f, 0.207511f, -0.256513f, 0.119149f, -0.469090f, 0.249739f, 0.312278f, 0.159228f, 0.551130f, -0.471027f, 0.055195f, 0.198699f, 0.113964f, -0.096385f, -0.217678f, -1.800803f, 0.290611f, -0.071363f, 0.111122f, 0.016886f, -0.043136f, -0.303311f, 0.154175f, 0.434418f, 0.150772f, 0.427776f, 0.105971f, 0.142717f, 0.279739f, -0.350510f, -0.278720f, 0.032728f, 0.279603f, 0.457154f, 0.378051f, 0.277436f, -0.274979f, 0.222683f, -0.345934f, 0.148182f, 0.142833f, -0.038051f, -0.021850f, 0.030693f, -0.068691f, 0.163211f, -0.200779f, 0.091306f, 0.258029f, 0.197582f, 0.101483f, -0.010604f, -0.486829f, -0.121795f, 0.079524f, -0.030869f, -0.124182f, -0.126726f, -0.161184f, -0.205967f, -0.175389f, -0.068790f, 0.203269f, 0.176947f, -0.296690f, -0.175795f, 0.120099f, 0.277940f, 0.118163f, 0.072243f, -0.025299f, -0.167036f, -0.001942f, -0.495883f, 0.218117f, -0.104587f, 0.196725f, 0.253037f, 0.135800f, 0.183607f, -0.176830f, 0.044693f, 0.434440f, 0.203942f},
    {0.144413f, -0.061888f, -0.916064f, -0.061167f, -0.001400f, -0.033909f, 0.187341f, -0.037265f, -0.085658f, -0.019274f, 0.154424f, 0.180226f, 0.084855f, 0.043677f, 0.009036f, -0.197202f, 0.090216f, 0.546788f, -0.484653f, -0.626312f, -0.411947f, -0.062931f, 0.028434f, 0.507919f, -0.100142f, 0.132424f, -0.130485f, 0.317430f, -0.025117f, -0.287455f, 0.235571f, -0.024819f, 0.169119f, -0.475127f, 0.047760f, -0.450655f, -0.003097f, 0.049441f, -0.082373f, -0.413648f, -0.980476f, 0.007500f, -0.884191f, -0.672630f, -0.121998f, 0.219758f, -0.080580f, 0.067610f, -0.310623f, 0.076817f, 0.057519f, 0.399538f, 0.065176f, -0.647154f, -0.089054f, 0.135195f, -0.233237f, -0.196874f, -0.216445f, -2.187556f, 0.040652f, -0.365440f, 0.185006f, -0.209854f, 0.006673f, 0.325573f, 0.158204f, 0.478303f, 0.118343f, 0.298838f, 0.004175f, 0.125327f, 0.284755f, -0.042711f, -0.292877f, -0.016531f, -0.137425f, 0.283687f, 0.490663f, 0.111544f, -0.093004f, 0.207793f, -1.126044f, 0.013698f, 0.323588f, 0.018229f, 0.238405f, 0.077355f, 0.097642f, 0.067291f, -0.558195f, 0.165816f, 0.312446f, 0.061296f, 0.187726f, 0.093197f, -0.255352f, 0.009931f, 0.006787f, -0.113063f, -0.109787f, 0.059433f, 0.121366f, 0.134105f, -0.376459f, -0.034870f, 0.050908f, 0.116973f, 0.086054f, -0.291066f, -0.029519f, 0.257062f, 0.031138f, 0.108414f, -0.505603f, -0.191158f, 0.157631f, -0.360549f, 0.007838f, -0.466659f, -0.192285f, 0.094249f, -0.197925f, 0.310577f, 0.005320f, 0.086633f, 0.317649f, 0.059593f},
    {-0.000000f, -0.000000f, -0.000076f, -0.000673f, 0.000614f, 0.000027f, -0.000120f, 0.000018f, -0.000009f, -0.000066f, -0.000008f, 0.000046f, 0.000014f, -0.000005f, -0.000014f, -0.000252f, -0.000000f, -0.000001f, 0.000000f, -0.000000f, -0.000000f, -0.000564f, -0.000000f, -0.000001f, -0.000000f, -0.000000f, -0.000000f, -0.000321f, -0.001909f, 0.000004f, -0.000101f, -0.000000f, -0.000340f, 0.000029f, -0.001259f, -0.000088f, -0.000023f, -0.000000f, -0.000001f, 0.000018f, -0.000003f, -0.000004f, -0.000064f, -0.000224f, -0.000128f, -0.000005f, -0.000000f, -0.000011f, 0.000049f, -0.000241f, -0.000025f, -0.000039f, -0.000000f, -0.000001f, -0.000203f, -0.000616f, -0.001541f, 0.000185f, 0.000005f, -0.000000f, -0.000026f, -0.000001f, -0.000249f, 0.000060f, -0.000003f, -0.000000f, -0.000072f, 0.000075f, -0.000010f, 0.000268f, -0.000088f, -0.000062f, -0.000001f, -0.000000f, -0.000122f, -0.000020f, -0.000416f, -0.000000f, 0.000649f, -0.000012f, -0.000011f, 0.000105f, -0.000001f, 0.000818f, -0.001298f, -0.000024f, -0.000000f, -0.000023f, -0.000002f, 0.000861f, 0.001092f, -0.000010f, -0.000353f, -0.000001f, -0.000007f, -0.000033f, 0.000125f, -0.000045f, -0.000013f, -0.000011f, 0.000153f, 0.000124f, -0.000110f, -0.000052f, -0.000001f, -0.000001f, -0.000898f, -0.000060f, -0.000000f, -0.000139f, -0.000131f, -0.000111f, -0.000008f, -0.000070f, 0.000039f, -0.000001f, -0.002323f, -0.000048f, -0.000005f, -0.000000f, -0.000000f, -0.000000f, -0.000000f, 0.000035f, -0.000077f, 0.000073f, -0.000000f, -0.000307f},
    {-0.011175f, 0.202671f, -0.170231f, 0.113587f, 0.119137f, 0.099098f, 0.012902f, 0.155890f, 0.142580f, -0.038993f, 0.021635f, -0.010787f, -0.629500f, 0.052908f, -0.143993f, 0.045627f, 0.033131f, -0.456001f, -0.068984f, 0.357657f, -0.104040f, -0.002153f, 0.105311f, -0.364387f, 0.255344f, -0.126088f, 0.193431f, 0.036596f, -0.064575f, -0.094822f, 0.113335f, 0.156679f, 0.085072f, 0.026792f, 0.208378f, -0.007109f, 0.216775f, 0.141412f, 0.088758f, -0.020397f, -0.001460f, 0.145880f, -0.239037f, -0.017286f, 0.051477f, -0.333175f, -0.416229f, 0.172436f, 0.298082f, -0.695727f, 0.047703f, -0.394488f, -0.141996f, 0.333793f, 0.258770f, -0.267966f, 0.115686f, 0.150329f, -1.239224f, -0.279535f, 0.071941f, 0.070613f, 0.250245f, 0.002616f, -0.091109f, -0.098650f, 0.146474f, -0.126877f, -0.080631f, 0.090347f, 0.236459f, 0.044661f, -0.099396f, 0.040695f, 0.055134f, -0.387936f, 0.243502f, -0.098951f, -0.167334f, 0.192325f, -0.625056f, 0.158615f, 0.357504f, -0.089983f, -0.098003f, -0.060248f, -0.506318f, -0.155295f, 0.090724f, 0.136580f, 0.145018f, 0.069606f, 0.021789f, -0.017695f, 0.155077f, 0.163160f, -0.011171f, -0.342315f, 0.139300f, -0.307429f, -0.232784f, -0.290904f, -0.123974f, -0.404815f, -0.088269f, 0.501021f, 0.232705f, 0.072096f, -0.106534f, 0.157299f, 0.036384f, 0.010499f, 0.193527f, 0.103159f, 0.025032f, 0.033450f, 0.116076f, 0.162068f, -0.151632f, 0.011166f, 0.006069f, 0.349031f, -0.280766f, -0.086550f, 0.051124f, 0.191886f, -0.910085f, -0.121622f},
    {-0.469089f, 0.328972f, -0.038633f, 0.408030f, 0.236481f, 0.068513f, -0.122357f, -0.315634f, 0.065631f, -0.216181f, -0.734995f, -0.097665f, -0.158299f, 0.219328f, -0.087047f, 0.100693f, -0.225958f, -0.364891f, -0.477544f, -0.028898f, 0.136461f, 0.076792f, -0.289039f, -0.143820f, -0.067751f, -0.580771f, 0.068334f, 0.076019f, -0.099387f, -0.024885f, 0.178437f, 0.029386f, -0.007088f, 0.048835f, 0.116598f, 0.122161f, 0.282543f, 0.136966f, 0.203125f, 0.070469f, 0.083241f, 0.120136f, -0.133297f, -0.069750f, 0.175658f, -0.335289f, 0.108444f, 0.100704f, 0.376723f, -0.458048f, 0.025056f, -0.214535f, -0.806740f, 0.356763f, 0.243814f, -0.194018f, 0.060649f, 0.369572f, -0.238762f, 0.251440f, -0.173362f, 0.143662f, 0.164124f, 0.010392f, -0.085304f, 0.006389f, 0.086518f, -0.158757f, -0.012027f, 0.105485f, 0.273713f, 0.039087f, -0.100564f, -0.193041f, 0.190277f, -0.164499f, 0.235370f, -0.480423f, -0.542778f, 0.042339f, -0.088382f, 0.140164f, -0.016903f, -0.169565f, 0.170804f, 0.006339f, -0.142148f, -0.131915f, -0.125678f, 0.132189f, 0.098715f, -0.095002f, -0.146029f, -0.329394f, 0.051231f, 0.154101f, 0.218919f, -0.504514f, 0.105118f, -0.161928f, 0.270533f, 0.206477f, -0.110204f, -0.204836f, 0.167662f, 0.214025f, 0.115428f, 0.064347f, -2.470378f, -0.037436f, -0.060320f, -0.084474f, 0.157688f, -0.118269f, 0.424893f, 0.150944f, 0.111288f, 0.248880f, -0.211377f, -0.044015f, -0.523023f, -0.006757f, -1.066269f, -0.139315f, 0.144106f, 0.261229f, -1.191080f, -0.224921f},
    {-0.002006f, 0.503762f, 0.181068f, 0.237351f, 0.139127f, 0.091500f, -0.139437f, 0.139632f, 0.152887f, -0.172593f, -0.276331f, 0.056994f, -0.229067f, 0.021429f, -0.166417f, 0.059620f, -0.050735f, -0.267885f, 0.005763f, -0.002695f, 0.011152f, -0.106858f, -0.079188f, -0.317848f, 0.124621f, 0.082999f, 0.170018f, 0.084418f, 0.089043f, -0.078381f, 0.039417f, 0.300454f, -0.002003f, 0.272340f, 0.137530f, 0.020650f, 0.148688f, 0.327967f, 0.120910f, 0.402904f, -0.093139f, 0.168414f, -0.146296f, 0.025007f, 0.082479f, -0.036883f, 0.036034f, 0.280009f, 0.207285f, -0.322326f, 0.101883f, -0.399897f, -0.078058f, 0.106387f, 0.180466f, -0.165527f, 0.184407f, 0.233926f, -0.703399f, -0.033894f, 0.113309f, 0.022792f, 0.313624f, -0.017148f, 0.162963f, -0.106666f, 0.100425f, -0.296069f, -0.082830f, 0.189854f, 0.215318f, -0.077529f, -0.206569f, 0.002717f, -0.032162f, -0.341217f, 0.298275f, -0.056020f, -0.527145f, 0.139605f, -0.127523f, 0.012285f, 0.289645f, -0.151152f, 0.126520f, -0.033234f, -0.234329f, -0.113831f, -0.044974f, -0.000495f, 0.032468f, -0.022026f, -0.051478f, -0.118389f, 0.050954f, 0.136911f, -0.326915f, -0.150906f, 0.069816f, -0.206347f, 0.184293f, 0.010884f, -0.241442f, -0.097131f, 0.076568f, 0.136313f, 0.159794f, -0.088614f, -0.145190f, 0.173779f, 0.182889f, -0.007751f, 0.043987f, 0.006284f, -0.139664f, -0.005288f, -0.050102f, -0.125697f, 0.014318f, -0.192456f, 0.437643f, -0.069899f, -1.483943f, -0.084847f, 0.009479f, 0.066870f, -1.811994f, -0.291039f},
    {0.062279f, 0.167812f, 0.326193f, -0.156779f, -0.097068f, -0.166666f, 0.015302f, 0.434094f, 0.104888f, 0.110891f, -0.152499f, 0.170209f, 0.024951f, 0.260086f, -0.141792f, 0.124156f, -0.113589f, 0.152235f, -0.217041f, -0.280444f, -0.303907f, 0.134500f, 0.124606f, -0.017985f, 0.269624f, 0.040184f, 0.030698f, 0.224932f, 0.005412f, -0.185031f, 0.052286f, 0.343411f, 0.049308f, 0.045536f, -0.126067f, 0.122134f, -0.157694f, 0.129599f, 0.067113f, 0.259153f, -0.087476f, 0.318965f, 0.133782f, -0.048906f, -0.098759f, 0.020421f, 0.055061f, 0.029347f, 0.042195f, -0.147639f, 0.355128f, 0.548381f, 0.473893f, -0.419181f, 0.012303f, 0.169026f, -0.087948f, -0.061646f, -0.088478f, -0.381732f, 0.300981f, 0.205807f, -0.328172f, 0.248480f, 0.138643f, -0.184870f, 0.108301f, 0.439439f, 0.071254f, 0.140961f, -0.111474f, 0.130068f, 0.374826f, -0.421622f, -0.102736f, 0.087441f, 0.141795f, 0.187807f, 0.299454f, 0.194281f, -0.075390f, 0.189048f, 0.111158f, 0.181335f, -0.088145f, -0.068118f, 0.450975f, 0.277557f, -0.078613f, 0.187099f, -0.169757f, -0.126469f, 0.078197f, 0.178252f, 0.140756f, 0.003426f, -0.082614f, 0.183465f, 0.059562f, -0.234101f, -0.052670f, 0.017901f, -0.105988f, -0.076675f, 0.209748f, -0.031280f, -0.000537f, -0.010247f, -0.469148f, 0.157388f, 0.245454f, 0.012550f, -0.012952f, 0.282518f, -0.229217f, 0.021798f, 0.214392f, -0.131213f, 0.053802f, 0.053966f, 0.042885f, 0.199165f, -0.173430f, 0.177234f, 0.093566f, 0.172305f, -0.026729f, 0.194828f},
    {-0.185220f, 0.125043f, 0.100857f, 0.293624f, 0.138749f, 0.191830f, -0.139004f, -0.356080f, 0.252167f, -0.405132f, 0.038654f, 0.081766f, -0.252786f, -0.016878f, -0.159388f, 0.016646f, 0.103438f, -0.080934f, -0.458273f, -0.095627f, 0.031709f, -0.031755f, -0.451205f, -0.064484f, 0.013918f, -1.146325f, 0.194829f, -0.081633f, -0.014627f, 0.216647f, 0.137292f, 0.021454f, -0.108914f, 0.034383f, 0.113327f, 0.115279f, 0.051578f, 0.339385f, 0.291919f, 0.143915f, 0.394242f, 0.039449f, -0.250545f, 0.005099f, 0.168408f, -0.466257f, -0.378272f, 0.289677f, 0.401677f, -0.304698f, 0.001551f, -0.375066f, -1.435389f, 0.371024f, 0.162689f, -0.338109f, 0.099194f, 0.471055f, 0.101112f, 0.508290f, -0.210117f, 0.045018f, 0.175952f, 0.069677f, -0.261877f, 0.124176f, 0.166809f, -0.189612f, 0.148586f, -0.042685f, 0.305512f, 0.106662f, -0.202451f, 0.179746f, 0.239188f, -0.274050f, 0.138119f, -0.796640f, -0.601679f, -0.041691f, -0.302530f, 0.057465f, 0.037756f, -0.055626f, 0.115140f, -0.076515f, -0.345553f, -0.189749f, -0.009181f, 0.021397f, 0.117955f, -0.247819f, -0.132717f, -0.363106f, 0.093453f, 0.131741f, 0.456200f, -0.283164f, 0.147637f, -0.293256f, 0.311386f, 0.199235f, -0.044564f, -0.066152f, -0.011080f, 0.027122f, -0.064401f, 0.148123f, -2.708325f, 0.009023f, -0.185563f, -0.175754f, 0.248740f, -0.113928f, 0.222466f, 0.148488f, -0.047328f, -0.163286f, -0.279521f, -0.044648f, -0.362423f, -0.530708f, 0.027786f, -0.002830f, -0.006678f, 0.085819f, -0.935148f, -0.189412f},
    {-0.000633f, -0.000000f, -0.000000f, -0.000112f, -0.000005f, -0.001543f, 0.001493f, -0.000000f, 0.002054f, -0.001909f, -0.000000f, 0.000000f, 0.000000f, 0.000145f, 0.000376f, -0.004223f, 0.000194f, -0.000298f, -0.000000f, 0.000000f, -0.000076f, 0.003155f, -0.000024f, -0.004761f, -0.000808f, 0.000000f, 0.000652f, 0.003907f, -0.000000f, 0.000000f, 0.006854f, -0.000784f, 0.001809f, -0.000000f, -0.000000f, -0.006522f, 0.000138f, -0.001163f, 0.001025f, -0.000000f, -0.000003f, -0.000447f, -0.000158f, -0.000323f, -0.000151f, 0.000000f, -0.000000f, -0.001570f, -0.000000f, -0.000133f, -0.001918f, -0.000100f, -0.000003f, -0.000054f, 0.000052f, 0.000000f, -0.000000f, -0.015247f, -0.000000f, -0.000000f, -0.003550f, 0.002483f, -0.001187f, -0.004727f, 0.000000f, 0.000351f, -0.000001f, -0.000001f, -0.010183f, 0.004698f, -0.005787f, 0.003983f, -0.000237f, -0.000505f, 0.000000f, -0.000000f, -0.004060f, 0.000000f, 0.000000f, 0.000218f, 0.000000f, 0.001738f, -0.000000f, -0.000016f, 0.002449f, -0.000000f, -0.000744f, -0.004179f, -0.000258f, -0.000057f, -0.000378f, -0.002724f, 0.000950f, -0.000111f, 0.000396f, 0.002615f, -0.008818f, -0.000000f, -0.005215f, 0.000133f, 0.000000f, 0.000000f, 0.000151f, -0.000000f, 0.001957f, 0.000566f, -0.004141f, 0.001442f, -0.000000f, -0.000015f, 0.000034f, 0.002339f, -0.001400f, -0.000027f, 0.000000f, -0.001696f, 0.000001f, -0.000697f, -0.000045f, -0.001959f, -0.000713f, -0.000176f, -0.000011f, 0.000000f, 0.000000f, -0.000140f, -0.000063f, -0.000000f},
    {-0.000000f, -0.000018f, -0.000000f, -0.000216f, 0.000000f, -0.000128f, -0.000126f, 0.000000f, -0.000058f, -0.000000f, 0.000000f, 0.000000f, -0.000028f, -0.000001f, 0.000000f, -0.000174f, -0.000000f, -0.000000f, -0.000000f, 0.000000f, -0.000000f, -0.000550f, -0.000000f, -0.000000f, -0.000000f, -0.000013f, 0.000000f, 0.000006f, -0.000007f, 0.000000f, 0.000001f, -0.000000f, 0.000000f, 0.000000f, -0.000000f, -0.000002f, -0.000082f, -0.000023f, -0.000067f, 0.000000f, 0.000000f, 0.000040f, 0.000004f, -0.000000f, -0.000004f, -0.000000f, -0.000001f, -0.000131f, 0.000000f, 0.000000f, -0.000218f, -0.000000f, -0.000003f, -0.000000f, -0.000000f, -0.000006f, -0.000000f, -0.000191f, -0.000000f, 0.000000f, -0.000000f, -0.000029f, 0.000000f, 0.000787f, -0.000000f, 0.000000f, -0.000000f, -0.000000f, 0.000034f, -0.000038f, -0.000000f, 0.000002f, -0.000000f, -0.000044f, -0.000067f, -0.000023f, -0.000343f, -0.000001f, 0.000000f, -0.000049f, -0.000002f, -0.000033f, 0.000000f, 0.000047f, -0.000014f, -0.000000f, 0.000000f, -0.000000f, -0.000000f, -0.000048f, -0.000271f, -0.000300f, -0.000079f, -0.000000f, -0.000014f, -0.000000f, 0.000097f, -0.000000f, -0.000323f, 0.000000f, 0.000000f, -0.000000f, 0.000000f, -0.000000f, -0.000005f, -0.000327f, -0.000001f, 0.000000f, -0.000000f, -0.000000f, -0.000001f, -0.000343f, 0.000000f, -0.000040f, -0.000069f, -0.000008f, -0.000069f, -0.000093f, 0.000000f, -0.000000f, -0.000009f, -0.000082f, -0.000000f, -0.000001f, 0.000000f, -0.000045f, 0.000000f, -0.000000f},
    {-0.000000f, -0.000000f, -0.000001f, -0.000058f, -0.000187f, -0.000410f, 0.000126f, -0.000232f, 0.000961f, -0.001332f, -0.000169f, -0.000250f, -0.000000f, -0.000414f, -0.000487f, 0.001442f, -0.000028f, -0.000159f, -0.000091f, -0.000006f, -0.001390f, 0.000702f, -0.000000f, -0.001910f, -0.000805f, -0.000000f, -0.001203f, -0.001422f, -0.001623f, 0.000000f, -0.004352f, -0.001245f, -0.002403f, -0.000207f, -0.000024f, -0.000851f, 0.000004f, -0.004144f, -0.001702f, -0.000529f, -0.000276f, 0.001239f, -0.000401f, -0.000001f, -0.000002f, -0.000029f, -0.000000f, -0.000067f, -0.000204f, -0.001386f, -0.004080f, 0.000000f, 0.000000f, -0.000014f, -0.000080f, -0.000103f, -0.000078f, -0.002150f, -0.000000f, -0.000504f, -0.000772f, -0.000942f, -0.002024f, -0.005555f, -0.000035f, -0.000860f, -0.000978f, -0.000001f, 0.000789f, -0.001114f, -0.001584f, -0.000657f, -0.001354f, 0.000000f, -0.000000f, 0.000000f, -0.002249f, -0.000000f, -0.000063f, -0.000000f, -0.000000f, 0.000164f, -0.000028f, 0.000793f, -0.003217f, -0.000001f, -0.001315f, -0.002858f, -0.000259f, -0.000006f, -0.003172f, -0.000454f, -0.000056f, -0.000070f, -0.000116f, -0.003636f, 0.000443f, -0.000010f, -0.002342f, -0.000601f, -0.000021f, -0.000002f, -0.000216f, 0.000000f, 0.003290f, -0.000012f, -0.001160f, -0.002504f, 0.000000f, -0.000760f, -0.000004f, -0.000168f, -0.000694f, -0.000001f, -0.000000f, -0.000965f, -0.000001f, 0.000000f, -0.000241f, -0.002637f, -0.000000f, -0.000000f, -0.000000f, -0.000005f, -0.000194f, -0.000064f, 0.000000f, -0.000008f},
    {0.236198f, -0.111443f, -0.854712f, 0.003030f, -0.019620f, -0.031062f, 0.278101f, -0.077803f, -0.184971f, -0.002028f, 0.212848f, 0.256626f, -0.024070f, 0.010695f, 0.103057f, -0.015422f, 0.023075f, 0.243588f, -0.468643f, -0.294945f, -0.349606f, -0.032614f, 0.091215f, 0.340150f, -0.086873f, 0.102701f, -0.073360f, 0.307976f, -0.062491f, -0.959333f, 0.090359f, 0.048489f, 0.058943f, -0.389132f, -0.038877f, -0.429732f, -0.047141f, 0.042950f, -0.133433f, -0.479830f, -0.688856f, -0.107721f, -1.260768f, -1.171701f, -0.105466f, 0.160093f, -0.268418f, 0.101389f, -0.374010f, 0.143626f, 0.105569f, -0.677107f, 0.200688f, -0.500750f, -0.021280f, 0.214671f, -0.213347f, -0.345322f, -0.136335f, -0.655282f, 0.085078f, -0.346582f, 0.100700f, 0.003061f, -0.083495f, 0.362747f, 0.032472f, 0.781740f, 0.151267f, 0.277039f, 0.039922f, 0.099305f, 0.223393f, -0.177959f, -0.309484f, 0.013103f, -0.099818f, 0.250620f, 0.591094f, 0.138451f, 0.123926f, 0.180075f, -0.671584f, 0.005570f, 0.263327f, 0.076191f, 0.169341f, 0.173366f, 0.098093f, 0.194969f, -0.450473f, 0.117289f, 0.393322f, 0.066602f, -0.028296f, 0.067851f, -0.194340f, -0.073193f, -0.081095f, -0.033767f, -0.155960f, -0.106261f, -0.000008f, 0.178288f, -0.546272f, -0.052182f, -0.003446f, 0.224313f, 0.155496f, -0.194582f, -0.107076f, 0.279672f, 0.051659f, 0.038862f, -0.257433f, -0.141079f, 0.074817f, -0.245336f, 0.140423f, -0.316945f, -0.553913f, 0.072343f, 0.481833f, 0.228493f, -0.060582f, 0.101248f, 0.430584f, 0.202454f},
    {-0.214046f, 0.431537f, 0.108983f, 0.192610f, 0.216244f, 0.151297f, -0.000087f, -0.057455f, 0.029359f, -0.204397f, -0.172345f, 0.170799f, -0.940414f, 0.106052f, -0.182986f, 0.003711f, -0.171272f, -0.035644f, -0.364991f, -0.024985f, 0.200526f, 0.004005f, -0.363519f, -0.054021f, 0.104131f, -0.403408f, 0.135753f, -0.074218f, 0.197813f, -0.083936f, 0.238877f, -0.005732f, 0.130424f, 0.258313f, 0.276510f, 0.091129f, 0.089058f, 0.215031f, 0.074178f, 0.444385f, 0.604592f, 0.028420f, -0.196505f, 0.077382f, 0.121930f, 0.114075f, -2.539781f, 0.325816f, 0.205384f, -0.369949f, 0.088535f, -0.306192f, -0.183878f, 0.578968f, 0.291096f, -0.637327f, 0.180727f, 0.180121f, -1.599940f, 0.342071f, -0.246453f, 0.154432f, 0.254213f, 0.025916f, -0.092861f, 0.035505f, 0.201589f, -0.203905f, -0.118463f, 0.094981f, 0.180193f, 0.133351f, -0.274100f, -0.170224f, 0.244710f, -1.045779f, 0.154608f, 0.577076f, -0.266208f, 0.079895f, -1.464177f, 0.080675f, 0.189956f, 0.228892f, 0.050927f, -0.154962f, -0.116730f, -0.314740f, -0.017606f, 0.011635f, 0.019753f, -0.086466f, -0.114900f, -0.506235f, -0.011515f, 0.095521f, -0.053637f, -0.658645f, 0.233619f, -0.747020f, 0.086878f, 0.076649f, -0.260225f, -0.986326f, 0.050770f, 0.176652f, 0.279795f, 0.144951f, 0.398103f, 0.134910f, -0.352534f, 0.011163f, 0.035847f, -0.119908f, 0.088482f, 0.040664f, -0.100853f, 0.096066f, -0.259215f, 0.099315f, -0.104684f, -0.239741f, 0.319861f, -0.015023f, -0.065082f, 0.267912f, -1.077963f, 0.072013f},
    {-0.038939f, 0.359201f, 0.552842f, 0.245843f, 0.083214f, 0.013634f, -0.169782f, -0.033860f, 0.055327f, -0.097449f, -0.249327f, -0.079730f, -0.123997f, 0.116539f, -0.031580f, 0.034639f, -0.113039f, -0.272882f, -0.002766f, -0.312191f, -0.046721f, -0.052245f, 0.011504f, -0.360578f, 0.160625f, -0.026194f, 0.106858f, -0.056211f, -0.132689f, 0.496380f, 0.189901f, 0.240697f, -0.067792f, 0.166097f, 0.135328f, 0.218477f, -0.030599f, 0.302321f, 0.106122f, 0.216380f, -0.128705f, 0.075988f, 0.035861f, -0.071715f, 0.057410f, -0.376901f, 0.140261f, 0.121888f, 0.229304f, -0.400679f, -0.054264f, -0.570643f, 0.033883f, 0.213427f, 0.023348f, -0.068402f, 0.117506f, 0.179136f, -0.714449f, -0.225408f, 0.216917f, 0.154079f, 0.323114f, -0.017442f, 0.112837f, -0.132563f, 0.125413f, -0.138278f, 0.036098f, 0.144271f, 0.218460f, 0.036847f, 0.035448f, 0.069775f, 0.184570f, -0.296708f, 0.372058f, -1.005896f, -0.426281f, 0.134162f, -0.361606f, -0.029746f, 0.256589f, -0.157598f, 0.101685f, -0.071725f, -0.234763f, 0.006144f, 0.118320f, -0.029512f, -0.002500f, -0.020979f, -0.146904f, -0.034360f, 0.113913f, 0.284573f, -0.468035f, -0.067672f, 0.092607f, 0.001827f, 0.147375f, -0.012793f, -0.215210f, -0.297773f, 0.018831f, 0.180861f, 0.035312f, 0.028050f, -0.166760f, 0.036894f, 0.197211f, -0.039772f, 0.161800f, 0.140440f, 0.177689f, 0.132286f, 0.029436f, -0.457419f, 0.010928f, -0.056698f, 0.230971f, 0.000791f, -0.704426f, 0.051287f, -0.012317f, 0.106686f, -0.536450f, -0.172522f},
    {-0.000000f, -0.000000f, -0.000000f, 0.000000f, -0.000000f, -0.000000f, -0.000000f, -0.000000f, -0.000000f, -0.000000f, -0.000000f, -0.000000f, 0.000000f, -0.000000f, 0.000000f, 0.000000f, -0.000000f, 0.000000f, -0.000000f, 0.000000f, 0.000000f, -0.000000f, -0.000000f, -0.000000f, -0.000000f, 0.000000f, 0.000000f, 0.000000f, 0.000000f, 0.000000f, 0.000000f, 0.000000f, -0.000000f, -0.000000f, -0.000000f, -0.000000f, -0.000000f, -0.000000f, 0.000000f, -0.000000f, -0.000000f, -0.000000f, 0.000000f, -0.000000f, -0.000000f, 0.000000f, -0.000000f, -0.000000f, 0.000000f, -0.000000f, 0.000000f, -0.000000f, 0.000000f, -0.000000f, -0.000000f, -0.000000f, -0.000000f, -0.000000f, 0.000000f, 0.000000f, -0.000000f, 0.000000f, 0.000000f, -0.000000f, -0.000000f, -0.000000f, -0.000000f, -0.000000f, -0.000000f, -0.000000f, 0.000000f, -0.000000f, -0.000000f, -0.000000f, 0.000000f, -0.000000f, 0.000000f, -0.000000f, -0.000000f, -0.000000f, -0.000000f, -0.000000f, -0.000000f, -0.000000f, -0.000000f, -0.000000f, 0.000000f, 0.000000f, 0.000000f, 0.000000f, 0.000000f, -0.000000f, 0.000000f, 0.000000f, 0.000000f, -0.000000f, 0.000000f, 0.000000f, -0.000000f, 0.000000f, -0.000000f, -0.000000f, -0.000000f, -0.000000f, -0.000000f, -0.000000f, -0.000000f, 0.000000f, 0.000000f, -0.000000f, 0.000000f, -0.000000f, 0.000000f, 0.000000f, -0.000000f, -0.000000f, -0.000000f, -0.000000f, -0.000000f, -0.000000f, -0.000000f, -0.000000f, 0.000000f, -0.000000f, -0.000000f, -0.000000f, 0.000000f, -0.000000f},
    {-0.007993f, 0.277707f, 0.420445f, -0.116004f, -0.096611f, -0.222390f, -0.132684f, 0.393592f, 0.009469f, 0.020518f, -0.128788f, -0.021716f, -0.081855f, 0.066396f, 0.100089f, 0.042948f, -0.019442f, -0.037053f, -0.383264f, -0.551543f, -0.219263f, 0.161674f, 0.229704f, -0.111773f, 0.272106f, 0.238992f, 0.173983f, 0.244462f, -0.050343f, -0.146891f, 0.092662f, 0.432073f, 0.031847f, -0.029685f, 0.023613f, 0.134070f, -0.061636f, 0.204983f, -0.028174f, 0.192917f, 0.021539f, 0.205505f, 0.083438f, -0.138216f, -0.176043f, -0.127805f, 0.217122f, 0.126338f, 0.012016f, -0.164307f, 0.165674f, 0.351367f, 0.489352f, -0.033911f, 0.029791f, 0.140551f, -0.083368f, -0.146149f, 0.178101f, -0.516673f, 0.222519f, 0.113170f, -0.144401f, 0.172519f, 0.162399f, -0.101695f, 0.111810f, 0.384099f, -0.108461f, 0.090374f, -0.118520f, -0.088808f, 0.208562f, -0.287909f, -0.194673f, -0.019299f, 0.219739f, 0.222835f, 0.098169f, 0.083848f, 0.056108f, 0.197110f, 0.116529f, -0.120342f, -0.129388f, 0.205132f, 0.401653f, 0.226712f, -0.164758f, 0.169582f, -0.104655f, -0.112431f, 0.026195f, 0.143364f, 0.110139f, -0.023841f, -0.256089f, 0.135586f, 0.059591f, 0.120698f, 0.031523f, -0.052967f, -0.195633f, -0.187836f, 0.107627f, -0.023993f, 0.074713f, -0.164808f, -0.367795f, 0.042327f, 0.356531f, -0.084000f, -0.212637f, 0.178807f, -0.216153f, -0.021678f, 0.258710f, -0.099332f, 0.287449f, -0.105615f, 0.214978f, 0.239607f, -0.015191f, 0.018765f, 0.035823f, 0.276333f, 0.224510f, -0.038947f},
    {-0.223023f, 0.305033f, 0.008951f, 0.081832f, 0.214313f, 0.045580f, -0.187767f, -0.222313f, 0.133072f, -0.217842f, -0.455019f, 0.096174f, -0.181973f, -0.047518f, 0.056659f, 0.219644f, -0.259884f, -0.130408f, -0.132628f, 0.109877f, 0.012747f, 0.057620f, -0.113010f, -0.042898f, 0.087013f, -0.905847f, 0.211457f, 0.027822f, -0.125769f, -0.151289f, 0.236697f, 0.148961f, -0.039598f, -0.039053f, 0.314665f, 0.166905f, 0.130396f, 0.276234f, 0.171685f, 0.028924f, 0.076601f, 0.111575f, 0.034421f, 0.172729f, 0.067726f, -0.253906f, 0.433018f, 0.152640f, 0.213957f, -0.386550f, 0.031705f, -0.032664f, -0.920801f, 0.305036f, 0.293340f, -0.266366f, 0.025919f, 0.308536f, -0.432979f, -0.081672f, 0.021529f, 0.050564f, 0.342009f, 0.202416f, 0.068831f, 0.099788f, 0.103421f, -0.136118f, 0.022073f, 0.077680f, 0.373977f, -0.028855f, -0.097826f, -0.418839f, 0.036721f, -0.104006f, 0.121324f, -0.482972f, -0.564453f, 0.042486f, -0.025483f, -0.006300f, 0.019610f, -0.363772f, 0.065246f, 0.144717f, 0.022772f, -0.115129f, 0.006264f, 0.066813f, 0.056095f, -0.305842f, -0.215374f, -0.120219f, 0.116768f, 0.185244f, 0.181927f, -0.187717f, 0.084856f, -0.028460f, 0.301740f, 0.249218f, -0.167373f, 0.048207f, 0.078235f, 0.162930f, 0.104748f, -0.060870f, -1.253743f, 0.095705f, 0.116134f, -0.105473f, 0.292293f, -0.096865f, 0.135346f, 0.061351f, 0.138862f, -0.095045f, -0.007744f, -0.076512f, -0.217682f, -0.126961f, -0.953741f, 0.008153f, -0.073866f, 0.280560f, -0.631929f, -0.358065f},
    {-0.013333f, 0.012014f, -0.041504f, 0.100425f, -0.062040f, -0.120391f, 0.166967f, 0.156340f, -0.307395f, 0.122037f, 0.407549f, 0.197610f, 0.180032f, 0.160347f, 0.022265f, -0.250564f, -0.068886f, 0.258836f, -0.897945f, -0.375138f, -0.209684f, -0.055625f, 0.005270f, 0.235529f, 0.015718f, 0.256282f, -0.080885f, 0.296589f, -0.062086f, -0.507590f, 0.170151f, -0.108478f, 0.099006f, -0.039684f, -0.165527f, -0.144376f, -0.021237f, -0.302633f, -0.288345f, -0.004788f, -0.092165f, 0.148497f, -0.162877f, -0.491392f, -0.123400f, 0.056089f, -0.072986f, -0.027369f, -0.522465f, 0.252755f, 0.223830f, 0.492207f, 0.131374f, -0.519681f, 0.086803f, 0.206462f, -0.117118f, -0.504792f, -0.171293f, -0.160336f, 0.021973f, -0.192708f, 0.048527f, -0.079139f, 0.025654f, -0.227610f, 0.068022f, 0.542102f, 0.101580f, 0.242636f, 0.109421f, 0.166296f, 0.248292f, -0.265098f, -0.214021f, 0.014948f, -0.179691f, 0.345803f, 0.431209f, 0.175867f, -0.195574f, 0.220057f, -0.290952f, 0.010142f, 0.224105f, -0.122359f, 0.270624f, 0.106043f, 0.019492f, 0.036529f, -0.212593f, 0.046417f, 0.349962f, 0.083462f, 0.012025f, -0.083789f, -0.290570f, 0.149422f, -0.058891f, -0.116380f, -0.363371f, -0.033402f, -0.076120f, -0.153253f, -0.245866f, 0.010660f, 0.005346f, 0.194795f, 0.549670f, -0.441745f, -0.156475f, 0.170693f, 0.111822f, 0.016695f, 0.048228f, -0.184104f, 0.032067f, -0.146672f, 0.046555f, -0.351147f, -0.255264f, 0.039228f, 0.243022f, 0.147071f, -0.124168f, -0.011676f, 0.172112f, 0.286129f},
    {0.000000f, -0.000006f, 0.000000f, -0.000045f, 0.000000f, -0.000000f, -0.000000f, 0.000000f, -0.000001f, -0.000002f, -0.000000f, -0.000000f, -0.000017f, -0.000000f, -0.000000f, -0.000001f, 0.000000f, -0.000000f, -0.000000f, 0.000000f, -0.000000f, -0.000002f, -0.000001f, 0.000000f, -0.000000f, -0.000000f, -0.000000f, 0.000000f, -0.000000f, -0.000000f, -0.000023f, 0.000000f, 0.000000f, -0.000000f, -0.000024f, -0.000000f, -0.000021f, -0.000000f, 0.000000f, 0.000000f, -0.000000f, -0.000000f, 0.000000f, 0.000000f, -0.000000f, -0.000000f, -0.000008f, -0.000000f, -0.000000f, -0.000000f, -0.000003f, -0.000000f, -0.000003f, -0.000008f, -0.000003f, -0.000001f, 0.000000f, 0.000000f, -0.000000f, -0.000000f, -0.000021f, 0.000001f, -0.000001f, -0.000037f, -0.000000f, -0.000000f, -0.000001f, -0.000000f, -0.000000f, 0.000000f, -0.000000f, -0.000000f, -0.000000f, -0.000000f, -0.000019f, -0.000019f, -0.000001f, -0.000000f, 0.000000f, -0.000000f, -0.000018f, -0.000001f, 0.000000f, -0.000011f, 0.000000f, -0.000000f, 0.000000f, -0.000000f, -0.000000f, -0.000000f, -0.000012f, -0.000006f, -0.000000f, -0.000005f, 0.000000f, -0.000000f, 0.000000f, -0.000027f, 0.000010f, -0.000005f, -0.000004f, -0.000000f, -0.000000f, -0.000021f, 0.000002f, -0.000164f, -0.000027f, 0.000000f, 0.000000f, 0.000000f, -0.000081f, -0.000002f, -0.000000f, -0.000013f, -0.000000f, 0.000000f, -0.000036f, -0.000000f, -0.000000f, -0.000000f, -0.000000f, -0.000021f, -0.000000f, -0.000010f, -0.000000f, -0.000032f, -0.000000f, -0.000000f},
    {-0.216525f, 0.363084f, 0.302581f, 0.417472f, 0.324433f, 0.078496f, 0.119397f, -0.048259f, 0.040827f, 0.009560f, 0.140395f, -0.230255f, -0.074502f, -0.003681f, -0.001535f, 0.087160f, 0.000031f, -0.221310f, 0.326312f, 0.579479f, -0.046695f, -0.027441f, -0.231545f, -0.070707f, 0.129417f, -1.076666f, 0.076395f, 0.031088f, 0.072492f, 0.355269f, 0.257252f, -0.006782f, -0.141599f, 0.059078f, 0.265003f, -0.021830f, 0.435155f, 0.053380f, 0.054038f, 0.292212f, 0.333258f, -0.109962f, -0.037624f, 0.073177f, 0.189804f, 0.241459f, -1.397939f, 0.423494f, 0.482336f, -0.265486f, -0.092097f, -0.548892f, -0.448465f, 0.600551f, 0.245583f, -0.812283f, 0.179199f, 0.000330f, -0.020568f, 0.473337f, -0.082425f, -0.100461f, 0.288409f, 0.078580f, -0.496626f, -0.030428f, -0.003457f, -0.078692f, -0.007122f, 0.105437f, 0.139749f, 0.080239f, -0.079032f, 0.170679f, 0.077714f, 0.002163f, 0.009382f, -0.515951f, -0.231646f, 0.194218f, -0.237140f, 0.067507f, 0.179485f, 0.019672f, 0.128158f, -0.313557f, -0.399936f, -0.194828f, 0.004462f, -0.170330f, 0.064557f, 0.057431f, -0.087908f, -0.090583f, 0.096844f, -0.016730f, 0.030777f, -1.004445f, 0.098250f, -0.014914f, -0.012410f, -0.084283f, -0.444713f, -0.441082f, -0.058192f, 0.444696f, -0.003894f, 0.138729f, -0.114479f, 0.414471f, -0.347058f, 0.123842f, 0.156931f, -0.441928f, 0.063141f, 0.072578f, -0.508577f, -0.169221f, 0.043309f, 0.032018f, -0.310086f, -0.294469f, 0.066453f, -0.437649f, -0.297916f, -0.057150f, -0.322412f, -0.094271f},
    {-0.166028f, 0.437242f, 0.660095f, -0.074798f, -0.030362f, -0.199019f, -0.069892f, 0.256215f, 0.006089f, 0.172083f, -0.274686f, -0.000693f, -0.079945f, 0.074668f, 0.220774f, 0.129975f, -0.100461f, -0.058269f, -0.667176f, -0.533614f, -0.316658f, 0.008763f, 0.365118f, -0.143752f, 0.274329f, 0.067250f, 0.236976f, 0.090794f, -0.250740f, 0.221599f, 0.087574f, 0.387525f, -0.097988f, 0.102650f, 0.196380f, 0.173920f, -0.117744f, 0.206698f, -0.133103f, 0.271342f, 0.055400f, 0.221414f, 0.105981f, -0.233176f, -0.180352f, -0.406674f, 0.072786f, 0.132877f, 0.057489f, -0.319928f, 0.183104f, 0.147090f, 0.492945f, 0.313682f, 0.137117f, 0.160152f, -0.089795f, 0.003845f, 0.054261f, -0.509750f, 0.408245f, 0.264477f, 0.051944f, 0.140787f, 0.207715f, -0.272954f, 0.215433f, 0.208278f, -0.198147f, 0.054187f, -0.065607f, -0.096219f, 0.014463f, -0.279917f, -0.074334f, -0.110678f, 0.213128f, -0.055267f, -0.253297f, 0.034512f, -0.050762f, 0.173882f, 0.309049f, -0.165446f, -0.205364f, 0.342500f, 0.328394f, -0.048039f, -0.199334f, 0.076619f, -0.126877f, -0.171773f, -0.028613f, 0.327290f, 0.120049f, 0.061200f, -0.368378f, 0.112382f, -0.036084f, 0.094605f, 0.244959f, 0.071667f, -0.249251f, -0.049528f, 0.143708f, 0.201372f, 0.316306f, -0.021922f, -1.063481f, 0.083527f, 0.399005f, -0.123996f, -0.057987f, 0.204919f, 0.008383f, 0.009330f, 0.320805f, -0.143686f, 0.296190f, -0.100889f, 0.058853f, 0.345429f, -0.215452f, 0.158311f, 0.015326f, 0.375890f, 0.314271f, -0.118785f},
    {-0.004740f, -0.002577f, -0.001077f, -0.004382f, -0.012322f, -0.020416f, 0.000459f, -0.003448f, -0.027247f, 0.002746f, -0.013043f, -0.009422f, -0.001014f, -0.005939f, -0.002166f, -0.010462f, 0.002278f, -0.000391f, -0.001987f, -0.001796f, 0.000703f, -0.003710f, -0.009948f, -0.000272f, 0.010423f, -0.001005f, 0.000251f, -0.008660f, -0.009399f, -0.002829f, -0.021312f, -0.003285f, -0.006869f, -0.005865f, -0.013084f, -0.012765f, -0.002919f, 0.020751f, 0.000950f, -0.005477f, -0.003292f, -0.002724f, -0.008317f, -0.010868f, -0.018403f, -0.003391f, -0.000783f, -0.018967f, -0.005441f, -0.004819f, -0.014880f, -0.005811f, -0.002671f, -0.004524f, -0.007010f, -0.005657f, -0.011120f, -0.010133f, -0.004035f, -0.001996f, -0.007780f, -0.010132f, -0.001723f, -0.001720f, -0.013761f, -0.002195f, -0.027091f, -0.006996f, 0.011435f, 0.000163f, 0.007110f, -0.012376f, 0.005874f, -0.004875f, -0.004551f, -0.001720f, 0.003666f, -0.000096f, -0.008273f, 0.000373f, -0.004159f, -0.019750f, -0.007391f, -0.005960f, -0.020807f, -0.005190f, 0.000963f, 0.010141f, 0.000753f, -0.004728f, -0.023003f, -0.028235f, -0.016978f, -0.007189f, -0.005932f, -0.008407f, -0.013052f, -0.010802f, -0.001184f, -0.003347f, -0.007364f, -0.002132f, -0.016968f, -0.005076f, -0.005491f, 0.004500f, -0.009980f, -0.008551f, -0.001966f, -0.025226f, -0.008456f, -0.014799f, 0.002997f, -0.007838f, 0.000932f, -0.025504f, -0.007112f, -0.002992f, -0.006375f, 0.008445f, -0.000992f, -0.000548f, -0.000101f, -0.010058f, -0.009998f, -0.010156f, -0.001006f, -0.002479f},
    {-0.048805f, 0.030886f, 0.202953f, 0.192010f, -0.122920f, -0.162177f, 0.106994f, 0.257258f, -0.138149f, 0.112510f, 0.263001f, 0.019675f, 0.089657f, 0.052508f, 0.061644f, -0.268959f, -0.131376f, 0.210518f, -0.507266f, -0.075512f, -0.264697f, -0.126977f, 0.157224f, 0.125604f, 0.010962f, 0.207917f, -0.194907f, 0.196500f, -0.108070f, -0.195134f, 0.219729f, -0.071534f, 0.116228f, 0.085445f, -0.009315f, -0.291571f, 0.076452f, -0.171892f, -0.141192f, 0.039820f, 0.119154f, 0.285858f, -0.046652f, -0.628924f, -0.128963f, -0.114428f, -0.026373f, 0.108548f, -0.504124f, 0.265913f, 0.291769f, 0.311396f, 0.086127f, -0.367447f, 0.049577f, 0.255069f, -0.083411f, -0.504720f, 0.010990f, 0.116651f, 0.130398f, -0.220465f, 0.049614f, -0.161700f, 0.039399f, -0.136281f, 0.117319f, 0.243817f, 0.016877f, 0.089903f, 0.110661f, 0.083798f, 0.187481f, -0.123496f, -0.256309f, 0.072912f, -0.167453f, 0.260105f, 0.303705f, 0.063269f, -0.067401f, 0.305377f, -0.431461f, 0.038487f, 0.245453f, 0.071697f, 0.264024f, -0.031969f, 0.013809f, 0.105429f, -0.091019f, 0.063085f, 0.317547f, 0.167577f, -0.002407f, -0.099061f, -0.442868f, 0.028889f, -0.081583f, -0.137390f, -0.359377f, -0.161242f, -0.106339f, -0.187836f, -0.190609f, 0.051906f, 0.109643f, 0.174110f, 0.275905f, -0.382492f, -0.062367f, 0.224266f, 0.077131f, 0.008280f, 0.084489f, -0.111599f, 0.114783f, -0.280001f, 0.137112f, -0.467118f, -0.062917f, 0.106767f, 0.364784f, 0.134424f, -0.183263f, 0.167695f, 0.045138f, 0.016367f},
    {0.183559f, -0.131438f, -0.441009f, 0.165212f, -0.024229f, 0.069937f, 0.252958f, -0.383222f, -0.057379f, 0.155778f, 0.175672f, -0.063818f, -0.010331f, 0.157342f, 0.176201f, -0.231290f, 0.161354f, -0.007755f, -0.314728f, -0.172825f, -0.195491f, -0.028935f, 0.153060f, 0.014863f, -0.231447f, 0.243525f, -0.135568f, 0.358671f, -0.024942f, -0.351923f, 0.202202f, -0.374018f, 0.176527f, 0.249493f, -0.242261f, -0.424821f, 0.011165f, -0.298577f, -0.045280f, -0.030155f, -0.605635f, 0.169928f, -0.488717f, -0.691154f, 0.107040f, -0.250353f, -0.222281f, 0.143051f, -0.855958f, 0.707049f, 0.179486f, -0.550978f, -0.222208f, -0.635940f, 0.115150f, 0.561202f, -0.290211f, -0.204509f, 0.601906f, -0.518115f, 0.016870f, -0.421683f, 0.072798f, -0.095920f, -0.044159f, 0.143622f, -0.201510f, 0.316776f, 0.129641f, 0.116996f, 0.107324f, 0.262281f, -0.151939f, -0.081440f, -0.061212f, 0.126992f, 0.016499f, -0.177400f, 0.411893f, 0.027635f, 0.297457f, 0.334898f, -0.159309f, -0.027415f, 0.407324f, 0.381545f, 0.135081f, -0.044070f, -0.020463f, 0.216165f, 0.169741f, 0.267489f, 0.350600f, 0.027840f, -0.064342f, -0.021772f, 0.058647f, -0.041637f, 0.024129f, -0.031726f, -0.293965f, -0.289653f, 0.186886f, 0.304734f, -0.430306f, -0.156219f, 0.141715f, 0.290086f, 0.501710f, -0.351348f, -0.115211f, 0.263737f, 0.056689f, 0.111268f, -0.083252f, -0.010447f, 0.174885f, -0.283980f, 0.062662f, -0.160070f, -0.643420f, -0.095745f, 0.517609f, 0.095838f, -0.375278f, 0.179396f, 0.119813f, 0.140345f},
    {-0.000000f, 0.000000f, -0.000000f, -0.000000f, -0.000000f, -0.000000f, -0.000000f, -0.000000f, 0.000000f, -0.000000f, -0.000000f, -0.000000f, 0.000000f, -0.000000f, -0.000000f, -0.000000f, -0.000000f, -0.000000f, -0.000000f, 0.000000f, 0.000000f, -0.000000f, -0.000000f, -0.000000f, -0.000000f, -0.000000f, -0.000000f, -0.000000f, -0.000000f, 0.000000f, -0.000000f, -0.000000f, -0.000000f, -0.000000f, -0.000000f, -0.000000f, -0.000000f, -0.000000f, 0.000000f, 0.000000f, 0.000000f, -0.000000f, -0.000000f, -0.000000f, 0.000000f, -0.000000f, -0.000000f, -0.000000f, -0.000000f, -0.000000f, -0.000000f, -0.000000f, -0.000000f, -0.000000f, 0.000000f, 0.000000f, -0.000000f, -0.000000f, 0.000000f, -0.000000f, -0.000000f, -0.000000f, -0.000000f, -0.000000f, -0.000000f, -0.000000f, -0.000000f, -0.000000f, -0.000000f, 0.000000f, -0.000000f, -0.000000f, -0.000000f, -0.000000f, -0.000000f, -0.000000f, -0.000000f, -0.000000f, 0.000000f, 0.000000f, -0.000000f, -0.000000f, 0.000000f, -0.000000f, -0.000000f, -0.000000f, -0.000000f, 0.000000f, -0.000000f, -0.000000f, 0.000000f, -0.000000f, -0.000000f, -0.000000f, -0.000000f, -0.000000f, -0.000000f, -0.000000f, -0.000000f, -0.000000f, -0.000000f, 0.000000f, -0.000000f, 0.000000f, -0.000000f, -0.000000f, -0.000000f, -0.000000f, -0.000000f, -0.000000f, -0.000000f, -0.000000f, -0.000000f, -0.000000f, -0.000000f, -0.000000f, -0.000000f, -0.000000f, -0.000000f, -0.000000f, -0.000000f, -0.000000f, -0.000000f, 0.000000f, -0.000000f, -0.000000f, 0.000000f, -0.000000f},
    {-0.251505f, 0.093560f, -0.033036f, 0.194845f, 0.113855f, 0.192987f, -0.138515f, -0.346441f, 0.295037f, -0.331653f, -0.200427f, -0.054498f, -0.380320f, -0.000236f, -0.143907f, 0.049686f, 0.034214f, -0.176481f, -0.373648f, -0.106429f, 0.089948f, 0.111763f, -0.613440f, -0.201690f, 0.064778f, -1.321343f, 0.192591f, -0.051463f, -0.012126f, 0.104678f, 0.113129f, 0.029248f, -0.123284f, 0.112654f, 0.202458f, 0.208701f, 0.051140f, 0.354662f, 0.266179f, 0.014271f, 0.452668f, -0.044489f, -0.176863f, -0.024702f, 0.132340f, -0.368535f, -0.420420f, 0.213916f, 0.387036f, -0.163820f, 0.054115f, -0.276612f, -1.068098f, 0.507329f, 0.159169f, -0.315516f, 0.133592f, 0.275323f, 0.190228f, 0.476246f, -0.244125f, 0.162580f, 0.222521f, 0.132788f, 0.136800f, 0.088950f, 0.190113f, -0.205684f, 0.178822f, 0.109896f, 0.182295f, 0.047207f, -0.232482f, -0.058022f, 0.153515f, -0.441400f, 0.086554f, -1.146169f, -0.659982f, 0.099759f, -0.072126f, 0.028764f, 0.004802f, -0.065884f, 0.146495f, 0.176860f, -0.265637f, -0.094100f, -0.098804f, 0.086244f, 0.131631f, -0.078352f, -0.180427f, -0.223983f, 0.091183f, 0.070799f, 0.349465f, -0.346510f, 0.279492f, -0.258919f, 0.213172f, 0.229691f, -0.241574f, 0.153225f, 0.085139f, 0.054334f, -0.063274f, 0.072605f, -0.968910f, 0.000036f, -0.036484f, -0.045295f, 0.117120f, -0.128672f, 0.196029f, 0.158537f, 0.035253f, -0.195453f, -0.212842f, -0.015757f, -0.524052f, -0.478316f, -0.240899f, -0.051644f, -0.153492f, 0.252724f, -0.967387f, -0.232776f},
    {-0.298379f, -0.079139f, -0.005952f, 0.320422f, 0.250461f, 0.250242f, -0.069785f, -0.351300f, 0.013153f, -0.042740f, 0.133078f, -0.108559f, -0.614107f, 0.130247f, -0.316673f, 0.002210f, 0.036156f, 0.020777f, 0.285597f, 0.479011f, -0.061581f, -0.027630f, -0.212194f, 0.129864f, 0.093005f, -0.900611f, 0.019932f, -0.125044f, 0.051928f, 0.225759f, 0.220684f, -0.045249f, -0.017250f, 0.056952f, 0.221598f, 0.014172f, 0.414436f, 0.117698f, 0.131427f, -0.208407f, -0.025200f, 0.079725f, 0.035023f, 0.178768f, 0.072367f, -0.352765f, -0.553387f, -0.168803f, 0.176500f, -0.568330f, 0.018975f, -0.429891f, -0.436964f, 0.346471f, 0.343908f, -0.349241f, 0.292238f, 0.075271f, -1.239367f, 0.480761f, 0.005535f, -0.070840f, 0.236357f, 0.046456f, -0.746575f, 0.260948f, 0.090674f, -0.181206f, 0.014209f, -0.265194f, 0.176084f, -0.012906f, -0.348695f, 0.526865f, 0.427960f, -0.207489f, 0.238860f, -0.011817f, -0.538055f, -0.255817f, -0.748510f, 0.086913f, 0.176474f, -0.036506f, 0.094739f, -0.314620f, -0.489401f, -0.412517f, 0.358677f, 0.013064f, 0.264203f, -0.145502f, -0.085394f, -0.007452f, 0.038917f, 0.084482f, 0.215421f, -0.067427f, 0.142876f, -0.145703f, 0.103763f, 0.070659f, 0.073551f, -0.292591f, 0.051742f, 0.326278f, 0.113874f, 0.144617f, 0.125780f, 0.230158f, -0.217219f, -0.179911f, 0.117366f, -0.170994f, 0.330157f, 0.011991f, -0.037525f, 0.163952f, -0.242024f, 0.085745f, -0.042995f, -0.097137f, 0.162737f, -0.096468f, -0.141969f, 0.061077f, -0.072725f, -0.205523f},
    {-0.000000f, -0.000653f, 0.000026f, -0.000324f, -0.004277f, 0.000086f, 0.000335f, -0.000001f, -0.001958f, -0.003735f, -0.002143f, -0.003258f, -0.000496f, -0.000486f, -0.004467f, -0.001359f, 0.000004f, 0.000000f, 0.000000f, 0.000000f, -0.001790f, 0.002494f, -0.001710f, 0.000013f, -0.001433f, -0.000000f, -0.001040f, 0.001486f, -0.000252f, -0.000000f, -0.001398f, -0.000000f, -0.000763f, -0.000109f, -0.004043f, -0.001365f, -0.002051f, -0.002171f, 0.000640f, 0.000076f, -0.002926f, -0.002789f, -0.000096f, -0.000002f, -0.000032f, -0.000345f, -0.000793f, 0.000302f, -0.000595f, -0.004331f, -0.002619f, -0.000000f, -0.000962f, -0.004460f, -0.003882f, -0.002707f, -0.002535f, -0.002485f, -0.002707f, -0.000000f, -0.004985f, -0.001204f, -0.005401f, 0.002316f, 0.000000f, 0.000031f, -0.005752f, -0.000001f, -0.004749f, 0.001745f, -0.005426f, -0.001999f, -0.001706f, -0.000000f, -0.000297f, -0.001065f, -0.000908f, 0.000000f, -0.000001f, -0.000000f, -0.003461f, 0.001062f, 0.000095f, -0.005321f, -0.012497f, -0.003719f, 0.000000f, -0.000175f, -0.001061f, 0.000021f, 0.003863f, -0.000442f, 0.001590f, -0.004051f, -0.002714f, -0.002450f, 0.000476f, -0.003989f, 0.002939f, -0.005133f, -0.003775f, -0.000134f, -0.004043f, -0.004144f, -0.002608f, -0.003324f, -0.001790f, -0.003502f, -0.000000f, 0.000058f, -0.004818f, -0.000270f, -0.003101f, -0.001275f, 0.000000f, 0.000698f, -0.004001f, 0.000004f, -0.004274f, -0.000044f, 0.000000f, -0.001011f, -0.002093f, -0.004248f, -0.002758f, -0.003860f, -0.003441f, -0.000001f},
    {-0.017047f, -0.001443f, -0.005896f, 0.005896f, 0.019906f, 0.009164f, 0.010877f, -0.036302f, -0.051829f, 0.048674f, -0.028479f, 0.005980f, 0.017464f, 0.025329f, -0.012387f, -0.002021f, -0.000812f, 0.004076f, -0.108954f, -0.026302f, 0.022820f, -0.001513f, -0.041710f, -0.006662f, 0.014061f, -0.048676f, 0.026286f, 0.000748f, 0.021356f, 0.017714f, 0.018375f, -0.051037f, 0.031793f, 0.029850f, 0.023284f, 0.027788f, 0.002215f, -0.020175f, 0.000804f, 0.037475f, -0.014329f, 0.007688f, -0.002657f, -0.028613f, -0.017073f, -0.014737f, 0.016407f, -0.049051f, 0.001750f, 0.039389f, 0.024329f, -0.033663f, -0.001079f, -0.006757f, 0.043537f, 0.031941f, 0.018879f, -0.000314f, -0.022064f, 0.052958f, 0.010772f, 0.014657f, 0.001569f, -0.002413f, -0.076699f, -0.029357f, 0.007074f, -0.065990f, 0.005357f, -0.009958f, -0.003409f, 0.015133f, -0.011989f, -0.022717f, -0.001982f, 0.017271f, -0.004701f, 0.020159f, -0.000998f, -0.020430f, 0.001117f, 0.020630f, 0.002994f, 0.013174f, 0.025603f, 0.002597f, 0.042830f, -0.012960f, 0.008753f, 0.001530f, 0.040610f, -0.007645f, 0.006226f, 0.008419f, -0.013307f, 0.002296f, -0.007243f, 0.002029f, 0.038522f, -0.024816f, 0.024215f, 0.013758f, 0.017747f, 0.042800f, 0.023364f, -0.000540f, 0.056606f, 0.026873f, -0.028631f, -0.072931f, 0.026123f, 0.012155f, -0.002471f, 0.002978f, -0.047319f, -0.022745f, 0.026527f, 0.023575f, -0.019655f, 0.004143f, -0.052475f, 0.014106f, 0.002023f, 0.007236f, 0.010488f, 0.008490f, -0.041404f, -0.053592f},
    {-0.145060f, 0.138927f, 0.248015f, 0.259698f, 0.206982f, 0.166750f, 0.013892f, -0.228379f, 0.017046f, -0.085226f, -0.461150f, 0.082269f, -0.311825f, 0.109321f, -0.083141f, 0.033162f, -0.127541f, -0.132425f, -0.157687f, 0.104412f, 0.130497f, -0.065950f, -0.283747f, -0.046445f, 0.054298f, -0.632621f, 0.130010f, -0.083062f, -0.119384f, 0.492444f, 0.161403f, -0.074764f, 0.000841f, 0.015105f, 0.103876f, 0.159389f, 0.328403f, 0.228226f, 0.063006f, 0.113138f, 0.134055f, 0.151779f, -0.073296f, -0.007966f, 0.049856f, -0.315208f, -0.059867f, 0.186218f, 0.257045f, -0.447529f, -0.000473f, -0.759998f, -0.344501f, 0.260629f, 0.094546f, -0.186849f, 0.094829f, 0.119832f, -0.649036f, 0.176731f, -0.195238f, 0.042308f, 0.346925f, 0.047407f, -0.292888f, 0.010359f, 0.114947f, -0.294032f, 0.045647f, -0.031481f, 0.265787f, 0.088358f, -0.106400f, -0.042505f, 0.116392f, -0.200682f, 0.269203f, -0.453807f, -0.439359f, 0.028471f, -0.363240f, 0.146578f, 0.254010f, -0.133739f, -0.114298f, -0.106280f, -0.135451f, -0.166294f, -0.044340f, 0.059280f, 0.082109f, 0.035463f, -0.080967f, -0.129577f, 0.031311f, 0.129461f, -0.178594f, -0.241061f, 0.177496f, -0.196527f, 0.143500f, 0.039930f, -0.253184f, -0.163259f, 0.077381f, 0.254008f, 0.114159f, -0.033872f, -2.073035f, -0.033553f, -0.034662f, -0.057436f, 0.228006f, 0.009870f, 0.247829f, -0.063124f, 0.081336f, 0.071377f, -0.111482f, -0.035585f, -0.112315f, 0.047645f, -0.462851f, -0.041235f, -0.085562f, 0.227856f, -0.816491f, -0.152906f},
    {0.091286f, -0.256777f, -0.315830f, 0.046211f, -0.078098f, 0.103036f, 0.186656f, -0.049408f, -0.122831f, -0.030121f, 0.081646f, 0.065840f, 0.025769f, 0.080900f, 0.170996f, -0.110638f, 0.130526f, -0.235448f, -0.665865f, -0.952244f, -0.669555f, -0.025445f, -0.029141f, -0.001323f, -0.013531f, 0.088366f, -0.037101f, 0.438385f, -0.211875f, -0.727224f, 0.237385f, -0.126481f, 0.251487f, -0.232374f, -0.222868f, -0.381859f, -0.113418f, -0.007101f, -0.021652f, -0.456881f, -0.503212f, 0.187810f, -0.275791f, -0.528662f, -0.021066f, 0.102428f, -0.166895f, 0.073025f, -0.318119f, 0.309341f, 0.215694f, 0.197170f, 0.003069f, -0.503214f, 0.054518f, 0.132316f, -0.181235f, -0.031200f, -0.063842f, -1.444119f, 0.205494f, -0.194838f, 0.120102f, 0.054421f, -0.099118f, -0.091793f, -0.056484f, 0.519120f, 0.205978f, 0.288566f, 0.196211f, 0.132796f, 0.049043f, -0.266060f, -0.391319f, 0.018939f, 0.091355f, 0.203342f, 0.413818f, 0.172636f, -0.092551f, 0.204801f, -0.610817f, -0.002817f, 0.219791f, 0.023084f, -0.080909f, 0.094715f, 0.001972f, 0.100576f, -0.273464f, 0.055207f, 0.395200f, 0.150683f, 0.255869f, 0.105161f, -0.081396f, 0.092187f, 0.056301f, 0.031704f, -0.050082f, -0.014343f, 0.000210f, -0.044183f, -0.358923f, -0.121973f, 0.053916f, 0.172521f, 0.114183f, -0.290968f, 0.014367f, 0.290393f, 0.088218f, 0.158369f, -0.258324f, -0.042400f, 0.202105f, -0.500571f, 0.215449f, -0.406561f, -0.556499f, -0.023542f, 0.334098f, 0.115659f, -0.122428f, 0.077934f, 0.521454f, 0.137354f},
    {0.046202f, 0.379744f, 0.236901f, 0.035360f, 0.059719f, 0.085005f, -0.013345f, 0.041047f, 0.020722f, -0.051343f, -0.234196f, -0.003673f, -0.327750f, 0.079864f, -0.021925f, 0.045620f, -0.004730f, -0.132189f, -0.076045f, 0.189407f, -0.086380f, -0.060058f, 0.073754f, -0.238894f, 0.059057f, -0.216420f, 0.063169f, -0.042962f, -0.040149f, 0.085121f, 0.183115f, 0.184533f, -0.125940f, -0.070192f, 0.225013f, 0.098174f, 0.013605f, 0.263368f, 0.015400f, 0.133982f, 0.057724f, 0.003120f, -0.044084f, -0.001135f, 0.035130f, -0.491332f, -0.171807f, 0.275118f, 0.153654f, -0.280847f, 0.055688f, -0.304818f, -0.009514f, 0.129939f, 0.171723f, -0.152724f, 0.020597f, 0.239585f, -0.509860f, -0.388686f, 0.105836f, 0.038844f, 0.361348f, 0.054342f, 0.042397f, -0.060730f, 0.210098f, -0.010342f, -0.008969f, 0.155412f, 0.112938f, 0.005736f, -0.100134f, 0.013277f, -0.018688f, -0.254275f, 0.284373f, -0.502413f, -0.422008f, 0.097549f, -0.231291f, -0.081568f, 0.301270f, -0.151001f, -0.004318f, -0.020940f, -0.178666f, -0.149494f, 0.033039f, -0.099793f, 0.090323f, -0.079432f, -0.017234f, -0.039254f, 0.035258f, 0.243102f, -0.090131f, -0.068578f, -0.011819f, -0.009147f, 0.175019f, 0.064819f, -0.142133f, -0.144442f, -0.026464f, 0.234489f, 0.242572f, -0.053469f, -0.154863f, 0.097679f, 0.218919f, -0.099856f, 0.029429f, -0.016537f, -0.044766f, 0.046027f, 0.027624f, -0.260698f, 0.108478f, -0.212765f, 0.120487f, 0.058822f, -0.610506f, -0.101390f, 0.073852f, 0.079170f, -0.578523f, -0.083175f},
    {-0.000000f, -0.000000f, -0.000001f, -0.000034f, -0.004471f, -0.000050f, -0.000000f, -0.001092f, -0.000518f, -0.000004f, -0.000591f, -0.003653f, -0.001361f, -0.000017f, -0.000226f, -0.000017f, -0.000000f, -0.000000f, 0.000561f, 0.000031f, -0.000352f, -0.000017f, -0.000040f, -0.000247f, -0.000042f, 0.000000f, -0.000214f, -0.000000f, -0.002777f, -0.000000f, -0.002057f, -0.000821f, -0.003155f, -0.000075f, -0.003785f, -0.000941f, -0.000021f, -0.000674f, -0.000706f, -0.000032f, -0.000000f, -0.000001f, -0.000000f, -0.000000f, -0.000148f, -0.000888f, 0.000006f, -0.000001f, -0.001608f, -0.000776f, -0.000762f, 0.000000f, -0.000000f, -0.000000f, -0.000601f, -0.001730f, -0.002736f, -0.000000f, -0.000052f, -0.000000f, -0.000406f, -0.000608f, -0.002852f, -0.000061f, -0.000595f, -0.000368f, -0.002358f, -0.000042f, -0.001236f, -0.000002f, -0.002733f, -0.002241f, -0.000667f, -0.000000f, -0.000824f, 0.000313f, -0.000182f, 0.000000f, -0.001931f, -0.000000f, -0.000197f, -0.001152f, 0.000000f, -0.003373f, -0.003001f, -0.000292f, -0.000241f, -0.002492f, -0.001073f, 0.000968f, -0.002014f, -0.000000f, -0.000000f, -0.000003f, -0.000003f, -0.003319f, -0.000000f, -0.000404f, -0.000850f, -0.001000f, -0.002319f, -0.000896f, -0.002016f, -0.000455f, -0.000664f, -0.000000f, -0.002322f, -0.001119f, -0.000000f, -0.000536f, -0.000799f, -0.000000f, -0.001233f, -0.000871f, -0.000118f, -0.000838f, -0.007094f, 0.000000f, -0.000069f, -0.001386f, 0.000000f, 0.000000f, -0.000000f, -0.000910f, -0.001332f, -0.002485f, -0.000000f, -0.000915f},
    {0.000000f, -0.000015f, -0.000701f, 0.000459f, 0.011383f, -0.001425f, -0.000076f, -0.007069f, -0.001116f, -0.000031f, 0.001817f, 0.009853f, -0.003499f, -0.000036f, -0.000001f, -0.000282f, 0.000000f, 0.000000f, -0.007650f, -0.000465f, 0.000000f, -0.000001f, -0.000742f, 0.000000f, -0.000001f, 0.000017f, -0.000000f, -0.000105f, -0.013462f, -0.000111f, -0.001006f, -0.000082f, -0.002664f, -0.000088f, -0.026142f, 0.000000f, -0.000322f, 0.000000f, -0.000270f, 0.000014f, -0.000001f, -0.000273f, -0.000008f, -0.000006f, -0.003508f, -0.001756f, 0.000029f, -0.000063f, -0.007702f, 0.000058f, -0.001847f, -0.000001f, 0.000001f, -0.000009f, -0.003233f, -0.001303f, -0.002593f, -0.000128f, -0.000264f, 0.000000f, -0.000073f, -0.000000f, -0.000908f, 0.000348f, -0.008003f, 0.000000f, 0.004947f, -0.001072f, -0.000000f, -0.000124f, 0.000021f, -0.000393f, -0.000000f, 0.000012f, -0.000617f, -0.000446f, -0.002011f, -0.000000f, -0.000911f, -0.000016f, -0.000095f, -0.000109f, -0.000016f, 0.000710f, -0.000216f, 0.000002f, 0.000000f, -0.001341f, -0.001528f, -0.001686f, -0.007090f, -0.000057f, -0.000109f, -0.000013f, -0.000000f, -0.000020f, -0.000018f, 0.007137f, -0.000002f, -0.000010f, -0.012902f, -0.001807f, -0.006465f, 0.000152f, 0.000000f, -0.000208f, -0.003974f, -0.000002f, 0.000000f, -0.012340f, -0.000300f, -0.000069f, -0.000003f, -0.009020f, -0.001471f, 0.000043f, 0.003835f, -0.000031f, -0.000004f, -0.000000f, 0.000000f, -0.000015f, -0.000000f, 0.002512f, 0.003127f, 0.003890f, -0.000000f, -0.006165f},
    {-0.048926f, 0.456659f, 0.196441f, 0.025837f, 0.131719f, -0.054504f, -0.004558f, 0.104851f, 0.088087f, -0.079618f, -0.220246f, 0.080713f, -0.223083f, 0.123057f, -0.164896f, 0.136196f, -0.108590f, -0.357954f, 0.023964f, -0.127881f, -0.232711f, 0.050313f, 0.101184f, -0.412487f, 0.318665f, -0.231241f, 0.142947f, 0.019743f, -0.067555f, -0.014067f, 0.135140f, 0.036577f, -0.013997f, 0.009701f, 0.332540f, 0.094919f, 0.237877f, 0.182832f, 0.105048f, 0.210245f, -0.216491f, 0.094958f, -0.052076f, 0.212887f, -0.004983f, -0.472849f, -0.153571f, 0.256574f, 0.123228f, -0.637557f, -0.006985f, -0.268712f, -0.189225f, 0.314737f, 0.131855f, -0.108068f, 0.188187f, 0.233156f, -0.717889f, -0.333984f, -0.011312f, 0.120886f, 0.285051f, 0.009912f, 0.095764f, -0.144791f, 0.107952f, -0.301528f, -0.004281f, 0.076300f, 0.186211f, 0.076468f, -0.315268f, -0.023432f, -0.009069f, -0.252045f, 0.194762f, -0.258143f, -0.545821f, 0.179448f, -0.256000f, 0.099259f, 0.471337f, -0.149464f, -0.038262f, 0.154073f, -0.311870f, -0.025632f, -0.019175f, -0.113473f, 0.015399f, 0.012825f, -0.055492f, 0.037116f, -0.019835f, 0.196625f, -0.158663f, -0.181589f, 0.123710f, -0.205485f, 0.117660f, 0.004177f, -0.089807f, -0.095141f, 0.037744f, 0.267353f, 0.169680f, -0.092533f, -0.160057f, 0.032247f, 0.247218f, -0.050351f, 0.044165f, -0.071385f, -0.095536f, 0.044302f, 0.001935f, -0.117234f, -0.002717f, -0.047018f, 0.383587f, -0.003397f, -1.135887f, -0.035415f, 0.130213f, 0.059694f, -0.935394f, -0.220040f},
    {-0.452815f, 0.314049f, 0.094833f, 0.316447f, 0.260747f, 0.171972f, -0.193442f, -0.181643f, 0.039178f, -0.292152f, 0.144768f, -0.008974f, -0.173105f, 0.134269f, -0.367917f, 0.136095f, -0.146487f, -0.327812f, -0.299202f, -0.158561f, 0.039070f, 0.084445f, -0.501667f, 0.140818f, -0.042074f, -0.905532f, 0.119786f, -0.165524f, -0.038836f, 0.100213f, 0.240334f, 0.049128f, -0.084116f, 0.170133f, 0.122629f, 0.050169f, 0.387531f, 0.221564f, 0.133122f, 0.086144f, 0.322552f, 0.203678f, -0.023056f, 0.086708f, 0.155738f, -0.285756f, -1.039326f, 0.166299f, 0.299937f, -0.537729f, 0.195673f, -0.291524f, -1.326792f, 0.509127f, 0.307346f, -0.475067f, 0.213314f, 0.310486f, -0.821224f, 0.365113f, -0.245096f, 0.114127f, 0.214294f, 0.106033f, -0.454773f, 0.135780f, 0.018791f, -0.105327f, 0.129943f, -0.094603f, 0.259321f, 0.041613f, -0.321417f, -0.191339f, 0.378961f, -0.047031f, 0.196357f, -0.893885f, -0.431300f, -0.262530f, -0.555806f, 0.060669f, -0.038483f, -0.048929f, 0.111704f, -0.151918f, 0.036720f, -0.108225f, 0.090544f, 0.113910f, 0.274697f, -0.346753f, -0.097804f, -0.436779f, 0.068503f, 0.180210f, 0.303806f, -0.262798f, 0.218993f, -0.570897f, 0.062466f, 0.070030f, 0.076639f, -0.267977f, 0.043931f, 0.236056f, -0.124070f, 0.085579f, -2.326217f, -0.149451f, -0.320332f, -0.200801f, 0.112889f, 0.000048f, 0.116874f, 0.191151f, -0.061130f, 0.226197f, -0.260500f, 0.048276f, -1.012186f, -0.570485f, 0.333097f, -0.003953f, 0.000979f, 0.314296f, -0.815035f, -0.157344f},
