// This file is computer-generated by onnx2c 
// Command Line: onnx2c bot_brain_Warbird_sim.onnx

// onnx2c
// Git Branch: master
// Git Commit: e6308a7

// ONNX Model
// Produced By: pytorch, version 2.10.0+cpu
// ONNX IR version: 18

#include <float.h>
#include <math.h>
#include <stdbool.h>
#include <stdint.h>
#include <string.h>
#include <stdlib.h>

#define MAX(X,Y) ( X > Y ? X : Y)
#define MIN(X,Y) ( X < Y ? X : Y)
#define CLIP(X,L) ( MAX(MIN(X,L), -L) )

#if __STDC_VERSION__ < 199901L
#define FUNC_PREFIX
#else
#define FUNC_PREFIX static inline
#endif

static const float tensor_network_0_weight[128][7] = 
{
  {-0.00000000000000000000f, 0.00000000000000000000f, -0.00000000000000000000f, -0.00000000000000000000f, -0.00000000000000000000f, -0.00000000000000000000f, -0.00000000000000000000f},
  {-0.00000000000000000000f, -0.00000000000000000000f, 0.00000000000000000000f, -0.00000000000000000000f, -0.00000000000000000000f, -0.00000000000000000000f, -0.00000000000000000000f},
  {0.00198272219859063625f, 0.01100167445838451385f, -0.16513076424598693848f, 0.07783941924571990967f, -0.01241176389157772064f, -0.01447030622512102127f, -0.01083295140415430069f},
  {-0.07865487039089202881f, 0.02582427673041820526f, -0.07285424321889877319f, -0.05682476609945297241f, 0.02458624169230461121f, -0.00041853691800497472f, 0.06415302306413650513f},
  {-0.00000000000000000000f, -0.00000000000000000000f, -0.00000000000000000000f, -0.00000000000000000000f, -0.00000000000000000000f, 0.00000000000000000000f, -0.00000000000000000000f},
  {0.07497047632932662964f, -0.00485776178538799286f, 0.00064073363319039345f, -0.02767108939588069916f, 0.01005678251385688782f, 0.09061931073665618896f, -0.06901298463344573975f},
  {-0.00411676801741123199f, 0.00663480535149574280f, -0.07450342178344726562f, -0.50206357240676879883f, -0.00890578329563140869f, -0.00625056913122534752f, 0.00252136355265974998f},
  {0.00000000000000000000f, -0.00000000000000000000f, -0.00000000000000000000f, 0.00000000000000000000f, 0.00000000000000000000f, -0.00000000000000000000f, -0.00000000000000000000f},
  {-0.00249275355599820614f, 0.05635303631424903870f, -0.04560772702097892761f, -0.02661694027483463287f, 0.08345749229192733765f, 0.05052453652024269104f, -0.02581164054572582245f},
  {-0.00656843557953834534f, 0.03267123177647590637f, -0.09141213446855545044f, 0.07714498788118362427f, 0.00798056554049253464f, -0.01896830834448337555f, -0.00391260581091046333f},
  {0.07807888835668563843f, -0.08525998145341873169f, -0.03785971179604530334f, -0.01733694970607757568f, 0.00507585657760500908f, 0.01509173028171062469f, -0.03508085757493972778f},
  {0.00000000000000000000f, 0.00000000000000000000f, -0.00000000000000000000f, 0.00000000000000000000f, -0.00000000000000000000f, 0.00000000000000000000f, 0.00000000000000000000f},
  {-0.00001186036570288707f, 0.00001166303445643280f, -0.00000799763802206144f, -0.00000221961204260879f, -0.00000191139292837761f, -0.00002762015719781630f, 0.00000847951196192298f},
  {0.01354993786662817001f, -0.04210345074534416199f, -0.00863443035632371902f, -0.13642323017120361328f, -0.00002572885750851128f, 0.02518416382372379303f, -0.01455517765134572983f},
  {0.00641539599746465683f, -0.04528648406267166138f, 0.05372601002454757690f, -0.12407870590686798096f, -0.05825769156217575073f, -0.05063032358884811401f, 0.00224433699622750282f},
  {0.02825793623924255371f, 0.01205162424594163895f, 0.74969202280044555664f, -0.36407923698425292969f, -0.00316088693216443062f, 0.00025586245465092361f, 0.03096520714461803436f},
  {0.01723821461200714111f, -0.03172791749238967896f, -0.02693121135234832764f, 0.01958318240940570831f, -0.00513200275599956512f, 0.00001908225385705009f, -0.00012012782099191099f},
  {-0.00000000000014430628f, 0.00000000000021465588f, 0.00000000000006291785f, 0.00000000000002206043f, 0.00000000000007070070f, 0.00000000000001250693f, 0.00000000000006567292f},
  {0.07515043765306472778f, -0.07344353944063186646f, -0.04345646873116493225f, -0.08238744735717773438f, -0.04740205779671669006f, -0.04791742190718650818f, -0.02884040400385856628f},
  {-0.00000000000000000000f, 0.00000000000000000000f, -0.00000000000000000000f, -0.00000000000000000000f, 0.00000000000000000000f, 0.00000000000000000000f, 0.00000000000000000000f},
  {-0.00000000000000000000f, -0.00000000000000000000f, 0.00000000000000000000f, -0.00000000000000000000f, -0.00000000000000000000f, -0.00000000000000000000f, 0.00000000000000000000f},
  {0.03534578904509544373f, -0.02870517969131469727f, -0.00520560564473271370f, 0.11129032820463180542f, -0.03939509019255638123f, -0.01020383462309837341f, -0.01442562229931354523f},
  {0.00000000000000000000f, -0.00000000000000000000f, -0.00000000000000000000f, -0.00000000000000000000f, -0.00000000000000000000f, -0.00000000000000000000f, -0.00000000000000000000f},
  {-0.02262560650706291199f, -0.00864383298903703690f, -0.46475481986999511719f, 0.53185582160949707031f, -0.00252269511111080647f, 0.00162880204152315855f, -0.02803620509803295135f},
  {-0.00856086891144514084f, 0.01300365291535854340f, 0.00641945982351899147f, 0.02172252908349037170f, 0.00641402788460254669f, -0.00172123545780777931f, 0.00390366441570222378f},
  {-0.00000000000000000000f, -0.00000000000000000000f, 0.00000000000000000000f, 0.00000000000000000000f, 0.00000000000000000000f, 0.00000000000000000000f, -0.00000000000000000000f},
  {0.00194269372150301933f, 0.00223585264757275581f, -0.00247547891922295094f, 0.00486662192270159721f, -0.01140172127634286880f, 0.01337867602705955505f, -0.00251498003490269184f},
  {-0.00000000000000000000f, 0.00000000000000000000f, -0.00000000000000000000f, -0.00000000000000000000f, -0.00000000000000000000f, -0.00000000000000000000f, -0.00000000000000000000f},
  {0.08784314244985580444f, -0.10415684431791305542f, 0.13177943229675292969f, 0.07574623823165893555f, -0.02350127510726451874f, 0.01349033508449792862f, -0.03598028793931007385f},
  {-0.00000000000000000000f, -0.00000000000000000000f, -0.00000000000000000000f, 0.00000000000000000000f, -0.00000000000000000000f, -0.00000000000000000000f, 0.00000000000000000000f},
  {-0.00000000000000000000f, 0.00000000000000000000f, -0.00000000000000000000f, -0.00000000000000000000f, -0.00000000000000000000f, 0.00000000000000000000f, 0.00000000000000000000f},
  {0.00000000000000000000f, 0.00000000000000000000f, 0.00000000000000000000f, 0.00000000000000000000f, -0.00000000000000000000f, 0.00000000000000000000f, 0.00000000000000000000f},
  {-0.00000000000000000000f, 0.00000000000000000000f, -0.00000000000000000000f, -0.00000000000000000000f, -0.00000000000000000000f, -0.00000000000000000000f, 0.00000000000000000000f},
  {-0.02338348515331745148f, 0.06975372135639190674f, -0.03990099206566810608f, -0.02988724224269390106f, 0.01802814565598964691f, 0.06247347965836524963f, -0.00559463491663336754f},
  {-0.00000000000000000000f, 0.00000000000000000000f, 0.00000000000000000000f, 0.00000000000000000000f, -0.00000000000000000000f, -0.00000000000000000000f, 0.00000000000000000000f},
  {0.00000000000000000000f, 0.00000000000000000000f, -0.00000000000000000000f, -0.00000000000000000000f, -0.00000000000000000000f, -0.00000000000000000000f, 0.00000000000000000000f},
  {0.00871633086353540421f, -0.01207706518471240997f, -0.03195840865373611450f, 0.23342479765415191650f, -0.00202072714455425739f, 0.01968756131827831268f, 0.02043636888265609741f},
  {-0.01116585265845060349f, 0.02620835974812507629f, 0.02098763361573219299f, 0.01183068752288818359f, 0.06934097409248352051f, -0.00370834628120064735f, -0.00397483166307210922f},
  {-0.00000000000000000000f, -0.00000000000000000000f, -0.00000000000000000000f, -0.00000000000000000000f, -0.00000000000000000000f, -0.00000000000000000000f, -0.00000000000000000000f},
  {0.00000000000000000000f, 0.00000000000000000000f, 0.00000000000000000000f, 0.00000000000000000000f, -0.00000000000000000000f, -0.00000000000000000000f, 0.00000000000000000000f},
  {-0.00000000000000000000f, -0.00000000000000000000f, -0.00000000000000000000f, 0.00000000000000000000f, -0.00000000000000000000f, -0.00000000000000000000f, -0.00000000000000000000f},
  {-0.01563826203346252441f, -0.01004878245294094086f, 0.04138332977890968323f, -0.54984229803085327148f, -0.00263357558287680149f, -0.00290038320235908031f, -0.02717395685613155365f},
  {0.08938615024089813232f, -0.05712885409593582153f, -0.12332430481910705566f, -0.11146450787782669067f, 0.05556567758321762085f, 0.03442983329296112061f, -0.05910943821072578430f},
  {0.13806234300136566162f, -0.05016804113984107971f, -0.08551403135061264038f, 0.03424281626939773560f, 0.01227616518735885620f, -0.04412826150655746460f, -0.08984439074993133545f},
  {0.00000000000000000000f, 0.00000000000000000000f, -0.00000000000000000000f, -0.00000000000000000000f, -0.00000000000000000000f, -0.00000000000000000000f, 0.00000000000000000000f},
  {-0.00000000000000000000f, 0.00000000000000000000f, -0.00000000000000000000f, 0.00000000000000000000f, 0.00000000000000000000f, 0.00000000000000000000f, -0.00000000000000000000f},
  {-0.00197102851234376431f, -0.02765706740319728851f, 0.00039220519829541445f, 0.00170091318432241678f, -0.01487983670085668564f, -0.02216514945030212402f, 0.01353082619607448578f},
  {-0.00408849678933620453f, 0.08515124022960662842f, -0.00337456376291811466f, -0.01686009392142295837f, 0.02816993743181228638f, -0.03071843087673187256f, -0.03182962536811828613f},
  {-0.01257470902055501938f, 0.00328836939297616482f, -0.20452876389026641846f, -0.03943288326263427734f, 0.00955510325729846954f, -0.00017979704716708511f, -0.01139561086893081665f},
  {-0.00000000000000000000f, 0.00000000000000000000f, -0.00000000000000000000f, 0.00000000000000000000f, -0.00000000000000000000f, -0.00000000000000000000f, -0.00000000000000000000f},
  {-0.00000000000000000000f, 0.00000000000000000000f, -0.00000000000000000000f, 0.00000000000000000000f, 0.00000000000000000000f, -0.00000000000000000000f, -0.00000000000000000000f},
  {-0.00000000000000000000f, -0.00000000000000000000f, 0.00000000000000000000f, 0.00000000000000000000f, -0.00000000000000000000f, -0.00000000000000000000f, -0.00000000000000000000f},
  {-0.04151066392660140991f, 0.03712505102157592773f, 0.13762107491493225098f, 0.01609212532639503479f, -0.00877054594457149506f, -0.04245234280824661255f, 0.03408390283584594727f},
  {0.00000000000000000000f, -0.00000000000000000000f, 0.00000000000000000000f, -0.00000000000000000000f, 0.00000000000000000000f, -0.00000000000000000000f, -0.00000000000000000000f},
  {0.00000000000000000000f, -0.00000000000000000000f, 0.00000000000000000000f, -0.00000000000000000000f, -0.00000000000000000000f, -0.00000000000000000000f, -0.00000000000000000000f},
  {0.00000000000000000000f, 0.00000000000000000000f, -0.00000000000000000000f, -0.00000000000000000000f, 0.00000000000000000000f, -0.00000000000000000000f, 0.00000000000000000000f},
  {0.00000000000000000000f, 0.00000000000000000000f, 0.00000000000000000000f, -0.00000000000000000000f, -0.00000000000000000000f, 0.00000000000000000000f, 0.00000000000000000000f},
  {0.08144931495189666748f, -0.04031180217862129211f, 0.02559748850762844086f, 0.00447041681036353111f, 0.03939488530158996582f, 0.03897251933813095093f, -0.05656193196773529053f},
  {0.00251827295869588852f, 0.02812607400119304657f, 0.00951274298131465912f, -0.07876072078943252563f, 0.03143724054098129272f, -0.11491452157497406006f, -0.01825151033699512482f},
  {0.00000000000000000000f, 0.00000000000000000000f, 0.00000000000000000000f, -0.00000000000000000000f, -0.00000000000000000000f, -0.00000000000000000000f, 0.00000000000000000000f},
  {0.00165041279979050159f, 0.02273739501833915710f, -0.01788591407239437103f, -0.01468084100633859634f, -0.10127454996109008789f, -0.12526796758174896240f, -0.01831671223044395447f},
  {0.00000000000000000000f, 0.00000000000000000000f, -0.00000000000000000000f, -0.00000000000000000000f, -0.00000000000000000000f, -0.00000000000000000000f, 0.00000000000000000000f},
  {-0.00000000000000000000f, -0.00000000000000000000f, -0.00000000000000000000f, -0.00000000000000000000f, -0.00000000000000000000f, -0.00000000000000000000f, -0.00000000000000000000f},
  {0.00000000000000000000f, 0.00000000000000000000f, 0.00000000000000000000f, 0.00000000000000000000f, 0.00000000000000000000f, -0.00000000000000000000f, 0.00000000000000000000f},
  {-0.00000000000000000000f, 0.00000000000000000000f, -0.00000000000000000000f, 0.00000000000000000000f, 0.00000000000000000000f, -0.00000000000000000000f, 0.00000000000000000000f},
  {-0.01461842190474271774f, 0.01678361371159553528f, -0.04302972182631492615f, -0.02091373875737190247f, 0.00655185477808117867f, -0.00351168774068355560f, 0.01092518493533134460f},
  {0.00000000000000000000f, 0.00000000000000000000f, -0.00000000000000000000f, 0.00000000000000000000f, 0.00000000000000000000f, -0.00000000000000000000f, 0.00000000000000000000f},
  {-0.04064228385686874390f, -0.00446254899725317955f, 0.64961421489715576172f, -0.06667906790971755981f, -0.00683700386434793472f, -0.00275594647973775864f, -0.03005063347518444061f},
  {0.00325416121631860733f, -0.00870759971439838409f, -0.73692142963409423828f, 0.25555375218391418457f, -0.00057414913317188621f, -0.00127789436373859644f, -0.00990711897611618042f},
  {0.01367953605949878693f, 0.00574017129838466644f, -0.74377638101577758789f, 0.03732450678944587708f, 0.00338504416868090630f, 0.00173633592203259468f, 0.02107675559818744659f},
  {-0.00000000000000000000f, 0.00000000000000000000f, -0.00000000000000000000f, 0.00000000000000000000f, -0.00000000000000000000f, -0.00000000000000000000f, -0.00000000000000000000f},
  {-0.00000000000000000000f, -0.00000000000000000000f, 0.00000000000000000000f, 0.00000000000000000000f, -0.00000000000000000000f, -0.00000000000000000000f, -0.00000000000000000000f},
  {0.00000000000000000000f, 0.00000000000000000000f, -0.00000000000000000000f, 0.00000000000000000000f, -0.00000000000000000000f, 0.00000000000000000000f, -0.00000000000000000000f},
  {0.00000000000000000000f, -0.00000000000000000000f, -0.00000000000000000000f, 0.00000000000000000000f, -0.00000000000000000000f, 0.00000000000000000000f, 0.00000000000000000000f},
  {0.04313448071479797363f, 0.01097651943564414978f, -0.00053711817599833012f, -0.00883546471595764160f, -0.09341532737016677856f, -0.12767498195171356201f, -0.03621269762516021729f},
  {0.06650210916996002197f, -0.06949006021022796631f, -0.01443902496248483658f, 0.01204065512865781784f, 0.01683683134615421295f, -0.01686018891632556915f, -0.02467883750796318054f},
  {0.00700085191056132317f, 0.00270405504852533340f, -0.00693129422143101692f, 0.02274585328996181488f, -0.02577359043061733246f, 0.03574406728148460388f, -0.00632684398442506790f},
  {0.02362986840307712555f, 0.00741590512916445732f, -0.61223918199539184570f, 0.43473067879676818848f, 0.00436200387775897980f, -0.00466708187013864517f, 0.01970197632908821106f},
  {-0.05221662670373916626f, 0.06539834290742874146f, 0.07699760049581527710f, 0.04274528473615646362f, 0.01379758678376674652f, 0.12092455476522445679f, 0.02705945633351802826f},
  {-0.00000000000000000000f, -0.00000000000000000000f, 0.00000000000000000000f, -0.00000000000000000000f, 0.00000000000000000000f, 0.00000000000000000000f, -0.00000000000000000000f},
  {0.01247069053351879120f, 0.05013595521450042725f, 0.02295541763305664062f, -0.02905743382871150970f, 0.00113556138239800930f, 0.03496741876006126404f, -0.03025572374463081360f},
  {-0.00819862261414527893f, -0.00100048189051449299f, -0.14929378032684326172f, -0.43498480319976806641f, -0.00582073675468564034f, -0.00057198316790163517f, -0.01119095273315906525f},
  {0.02595449611544609070f, -0.00387849309481680393f, -0.04719070345163345337f, 0.02492278814315795898f, -0.01822697557508945465f, 0.02111924067139625549f, -0.02076727338135242462f},
  {-0.00000000000000000000f, 0.00000000000000000000f, -0.00000000000000000000f, 0.00000000000000000000f, 0.00000000000000000000f, -0.00000000000000000000f, -0.00000000000000000000f},
  {0.00000000000000000000f, -0.00000000000000000000f, -0.00000000000000000000f, -0.00000000000000000000f, 0.00000000000000000000f, -0.00000000000000000000f, 0.00000000000000000000f},
  {0.00000000000000000000f, 0.00000000000000000000f, 0.00000000000000000000f, 0.00000000000000000000f, -0.00000000000000000000f, 0.00000000000000000000f, 0.00000000000000000000f},
  {-0.00021656959143001586f, -0.00185912614688277245f, 0.38039609789848327637f, 0.40369057655334472656f, -0.00005439290907816030f, -0.00382206379435956478f, -0.00387522182427346706f},
  {0.00000000000000000000f, 0.00000000000000000000f, -0.00000000000000000000f, -0.00000000000000000000f, -0.00000000000000000000f, -0.00000000000000000000f, 0.00000000000000000000f},
  {-0.02209169045090675354f, 0.04404401779174804688f, -0.02731878124177455902f, 0.00145535334013402462f, 0.03853466361761093140f, -0.02059163711965084076f, 0.00246615172363817692f},
  {-0.00000000000000000000f, -0.00000000000000000000f, 0.00000000000000000000f, -0.00000000000000000000f, 0.00000000000000000000f, -0.00000000000000000000f, -0.00000000000000000000f},
  {-0.00000000000000000000f, -0.00000000000000000000f, 0.00000000000000000000f, -0.00000000000000000000f, -0.00000000000000000000f, -0.00000000000000000000f, 0.00000000000000000000f},
  {-0.00617321254685521126f, 0.00121838238555938005f, -0.22818481922149658203f, 0.59389203786849975586f, 0.00385131035000085831f, -0.00452286191284656525f, -0.00208717840723693371f},
  {0.08214570581912994385f, -0.00434717303141951561f, 0.07539032399654388428f, -0.00321137160062789917f, 0.00457115797325968742f, -0.00083376793190836906f, -0.07421048730611801147f},
  {-0.00000000000000000000f, -0.00000000000000000000f, -0.00000000000000000000f, 0.00000000000000000000f, -0.00000000000000000000f, -0.00000000000000000000f, -0.00000000000000000000f},
  {-0.05704282596707344055f, 0.04901287704706192017f, -0.01793798804283142090f, 0.10169491171836853027f, 0.04663978144526481628f, -0.03977833315730094910f, 0.02825140766799449921f},
  {-0.02491003274917602539f, -0.00525347981601953506f, 0.44538968801498413086f, -0.41025489568710327148f, -0.00209401175379753113f, -0.00000202767500923073f, -0.02224240265786647797f},
  {-0.08489025384187698364f, 0.01903675496578216553f, -0.03879982233047485352f, -0.04218225926160812378f, 0.04584092646837234497f, 0.07156214118003845215f, 0.07265726476907730103f},
  {-0.03303204476833343506f, -0.00197481107898056507f, 0.12925499677658081055f, -0.50766038894653320312f, 0.00425947783514857292f, -0.00447318609803915024f, -0.02945202775299549103f},
  {0.00000000000000000000f, -0.00000000000000000000f, -0.00000000000000000000f, -0.00000000000000000000f, 0.00000000000000000000f, -0.00000000000000000000f, -0.00000000000000000000f},
  {-0.03197847306728363037f, -0.03323435783386230469f, 0.00658802175894379616f, 0.03423863276839256287f, -0.08342108875513076782f, -0.05194158852100372314f, 0.04706395789980888367f},
  {-0.05560945346951484680f, 0.08385752886533737183f, 0.03109221719205379486f, -0.01004807930439710617f, -0.01713132672011852264f, 0.02039339020848274231f, 0.02859102748334407806f},
  {0.00000000000000000000f, -0.00000000000000000000f, 0.00000000000000000000f, 0.00000000000000000000f, -0.00000000000000000000f, -0.00000000000000000000f, 0.00000000000000000000f},
  {-0.01766529120504856110f, -0.06991606950759887695f, -0.00345559348352253437f, -0.03682348132133483887f, -0.00315025495365262032f, 0.05227656662464141846f, 0.04344411566853523254f},
  {-0.00000000000000000000f, 0.00000000000000000000f, -0.00000000000000000000f, 0.00000000000000000000f, -0.00000000000000000000f, -0.00000000000000000000f, 0.00000000000000000000f},
  {-0.11874566227197647095f, 0.02288680523633956909f, 0.05062090232968330383f, -0.01418944261968135834f, -0.04505515843629837036f, -0.03837922215461730957f, 0.10061293095350265503f},
  {0.00000000000000000000f, 0.00000000000000000000f, -0.00000000000000000000f, -0.00000000000000000000f, -0.00000000000000000000f, -0.00000000000000000000f, 0.00000000000000000000f},
  {0.00708642415702342987f, -0.02964841946959495544f, -0.26553699374198913574f, 0.07311313599348068237f, -0.01429834868758916855f, 0.00658051110804080963f, -0.01672888919711112976f},
  {-0.00890757795423269272f, -0.00432901224121451378f, -0.57699573040008544922f, -0.33505254983901977539f, 0.00250545190647244453f, -0.00313270045444369316f, -0.01264020614326000214f},
  {0.04993597045540809631f, -0.04067136347293853760f, 0.03963488712906837463f, -0.09151191264390945435f, 0.01048713177442550659f, -0.01416303776204586029f, -0.02292976155877113342f},
  {-0.00000000000000000000f, 0.00000000000000000000f, -0.00000000000000000000f, -0.00000000000000000000f, -0.00000000000000000000f, -0.00000000000000000000f, 0.00000000000000000000f},
  {-0.01644838228821754456f, -0.02589789964258670807f, -0.02148498408496379852f, 0.01590556278824806213f, -0.04192261770367622375f, -0.02483685687184333801f, 0.02539709955453872681f},
  {0.00481560081243515015f, -0.00145240873098373413f, 0.14431343972682952881f, -0.13133804500102996826f, -0.00193951593246310949f, -0.00777252204716205597f, -0.00270520895719528198f},
  {-0.04672574996948242188f, 0.09963408112525939941f, -0.04366059228777885437f, 0.01359779201447963715f, 0.03048163652420043945f, -0.05031161382794380188f, 0.00912618450820446014f},
  {-0.00000000000000000000f, -0.00000000000000000000f, 0.00000000000000000000f, -0.00000000000000000000f, 0.00000000000000000000f, -0.00000000000000000000f, 0.00000000000000000000f},
  {-0.00984131544828414917f, -0.01464738696813583374f, -0.65243029594421386719f, -0.09567936509847640991f, -0.00089910998940467834f, -0.00180329463910311460f, -0.01993698067963123322f},
  {0.00788985658437013626f, 0.00852854456752538681f, 0.13091163337230682373f, 0.22401189804077148438f, -0.00247948360629379749f, 0.00322198751382529736f, 0.01202897541224956512f},
  {-0.02059552259743213654f, 0.00596475508064031601f, 0.33425685763359069824f, -0.55941641330718994141f, -0.00524307088926434517f, 0.00219853338785469532f, -0.01338632032275199890f},
  {-0.00000000000000000000f, -0.00000000000000000000f, -0.00000000000000000000f, 0.00000000000000000000f, -0.00000000000000000000f, 0.00000000000000000000f, -0.00000000000000000000f},
  {-0.00000000000000000000f, -0.00000000000000000000f, -0.00000000000000000000f, -0.00000000000000000000f, -0.00000000000000000000f, -0.00000000000000000000f, -0.00000000000000000000f},
  {-0.02892410010099411011f, 0.03548028692603111267f, -0.03015604987740516663f, -0.22436663508415222168f, 0.00541534414514899254f, 0.05251392722129821777f, 0.02005037479102611542f},
  {-0.00000000000000000000f, 0.00000000000000000000f, -0.00000000000000000000f, -0.00000000000000000000f, 0.00000000000000000000f, 0.00000000000000000000f, 0.00000000000000000000f},
  {0.02640231139957904816f, -0.00048276240704581141f, 0.55636245012283325195f, 0.10074937343597412109f, -0.00066709157545119524f, 0.00272468407638370991f, 0.02110260538756847382f},
  {-0.00000000000000000000f, -0.00000000000000000000f, -0.00000000000000000000f, -0.00000000000000000000f, -0.00000000000000000000f, -0.00000000000000000000f, -0.00000000000000000000f},
  {-0.00000000000000000000f, -0.00000000000000000000f, -0.00000000000000000000f, -0.00000000000000000000f, -0.00000000000000000000f, -0.00000000000000000000f, -0.00000000000000000000f},
  {-0.03506603837013244629f, -0.01111324504017829895f, 0.77520984411239624023f, -0.18851520121097564697f, 0.00054532370995730162f, -0.00079099868889898062f, -0.03949514031410217285f},
  {0.02139383554458618164f, -0.00859732832759618759f, 0.01497586071491241455f, -0.05666104331612586975f, -0.00993551220744848251f, 0.01522349845618009567f, -0.01321403123438358307f},
  {0.05097231641411781311f, -0.04512644931674003601f, 0.07186164706945419312f, 0.11567205190658569336f, 0.05602553486824035645f, 0.04889628291130065918f, -0.03143470361828804016f},
  {0.01993935555219650269f, -0.02505463920533657074f, 0.09946747869253158569f, 0.07048952579498291016f, 0.00029699865262955427f, -0.10890311002731323242f, -0.02379190362989902496f}
};
static const float tensor_network_0_bias[128] = 
{-0.00000000000000000000f, -0.00000000000000000000f, 0.13395562767982482910f, -0.02709402330219745636f, -0.00000000000000000000f, 0.00940522272139787674f, 0.07186541706323623657f, -0.00000000000000000000f, -0.06734683364629745483f, -0.09098863601684570312f, 0.01125407032668590546f, -0.00000000000000000000f, -0.00005543482620851137f, 0.06131801009178161621f, 0.02302456647157669067f, 0.02515928447246551514f, -0.02206489630043506622f, -0.00000000000096014581f, -0.04380251467227935791f, -0.00000000000000000000f, -0.00000000000000000000f, -0.11235964298248291016f, -0.00000000000000000000f, 0.08866718411445617676f, -0.01720976643264293671f, -0.00000000000000000000f, -0.01069025229662656784f, -0.00000000000000000000f, -0.06266146898269653320f, -0.00000000000000000000f, -0.00000000000000000000f, -0.00000000000000000000f, -0.00000000000000000000f, -0.04545406624674797058f, -0.00000000000000000000f, -0.00000000000000000000f, -0.17935729026794433594f, -0.07468409836292266846f, -0.00000000000000000000f, -0.00000000000000000000f, -0.00000000000000000000f, -0.05005445703864097595f, 0.00838352553546428680f, -0.07877330482006072998f, -0.00000000000000000000f, -0.00000000000000000000f, -0.01165965292602777481f, -0.04407262057065963745f, 0.16089655458927154541f, -0.00000000000000000000f, -0.00000000000000000000f, -0.00000000000000000000f, -0.11349277198314666748f, -0.00000000000000000000f, -0.00000000000000000000f, -0.00000000000000000000f, -0.00000000000000000000f, -0.08662099391222000122f, -0.05479226633906364441f, -0.00000000000000000000f, -0.07472578436136245728f, -0.00000000000000000000f, -0.00000000000000000000f, -0.00000000000000000000f, -0.00000000000000000000f, -0.04527432471513748169f, -0.00000000000000000000f, -0.08429751545190811157f, 0.09904626011848449707f, -0.00747845321893692017f, -0.00000000000000000000f, -0.00000000000000000000f, -0.00000000000000000000f, -0.00000000000000000000f, 0.07818019390106201172f, 0.19729211926460266113f, -0.02016278542578220367f, 0.08257487416267395020f, -0.04965543746948242188f, -0.00000000000000000000f, -0.06178117915987968445f, -0.02499959990382194519f, -0.02351738512516021729f, -0.00000000000000000000f, -0.00000000000000000000f, -0.00000000000000000000f, -0.03012270480394363403f, -0.00000000000000000000f, 0.11252440512180328369f, -0.00000000000000000000f, -0.00000000000000000000f, 0.06471524387598037720f, 0.01553515903651714325f, -0.00000000000000000000f, 0.04754242300987243652f, 0.03170253708958625793f, 0.11159753799438476562f, 0.07924122363328933716f, -0.00000000000000000000f, -0.03977097570896148682f, 0.25984269380569458008f, -0.00000000000000000000f, -0.04565120860934257507f, -0.00000000000000000000f, -0.01250510662794113159f, -0.00000000000000000000f, 0.12146386504173278809f, 0.04803009331226348877f, 0.16514818370342254639f, -0.00000000000000000000f, 0.14282752573490142822f, -0.09232880920171737671f, -0.02449510805308818817f, -0.00000000000000000000f, 0.10040029138326644897f, 0.00150260608643293381f, 0.04539718851447105408f, -0.00000000000000000000f, -0.00000000000000000000f, 0.03751635923981666565f, -0.00000000000000000000f, 0.00226237764582037926f, -0.00000000000000000000f, -0.00000000000000000000f, 0.01577234826982021332f, -0.03921004757285118103f, -0.10655093193054199219f, -0.05627741292119026184f};
static const float tensor_network_2_bias[64] = 
{0.11221498996019363403f, 0.09791920334100723267f, 0.13534334301948547363f, 0.10579271614551544189f, 0.07281312346458435059f, -0.00000000000000000000f, 0.13534584641456604004f, 0.07319339364767074585f, 0.12436501681804656982f, 0.12275865674018859863f, 0.07799590378999710083f, 0.05108778923749923706f, 0.08970246464014053345f, -0.00000000000000000000f, 0.15376216173171997070f, -0.00000000000000000000f, 0.13679893314838409424f, -0.00000000000000000000f, -0.00000000000000000000f, -0.00000000000000000000f, 0.09603410214185714722f, 0.07319997251033782959f, -0.00000000000000000000f, -0.00000000000000000000f, -0.00000000000000000000f, 0.15449680387973785400f, 0.03311485424637794495f, 0.21808272600173950195f, -0.00000000000000000000f, -0.00000000000000000000f, -0.00000000000000000000f, 0.20626147091388702393f, -0.00000000000000000000f, 0.10477051138877868652f, 0.22696770727634429932f, 0.17572887241840362549f, -0.00000000000000000000f, -0.00000000000000000000f, 0.09398548305034637451f, 0.12098708003759384155f, -0.00000000000000000000f, -0.11238677799701690674f, -0.15913827717304229736f, 0.13872416317462921143f, 0.22671081125736236572f, 0.26525440812110900879f, -0.00000000000000000000f, -0.00000000000000000000f, -0.00000000000000000000f, -0.00000000000000000000f, 0.17136663198471069336f, 0.11888790130615234375f, 0.10300514101982116699f, -0.00000000000000000000f, -0.00000000000000000000f, -0.00000000000000000000f, 0.23029667139053344727f, 0.13397105038166046143f, -0.00000000000000000000f, 0.12937016785144805908f, -0.00000000000000000000f, -0.00000000000000000000f, 0.17692887783050537109f, -0.00000000000000000000f};
static const float tensor_network_4_weight[2][64] = 
{
  {-0.22399459779262542725f, 0.18934436142444610596f, 0.31437474489212036133f, -0.80061793327331542969f, 0.23070499300956726074f, 0.00000000000000000000f, 0.05689811334013938904f, -0.39059561491012573242f, 0.28217014670372009277f, 0.33487242460250854492f, 0.17884157598018646240f, 0.49778047204017639160f, -0.45076346397399902344f, -0.00000000000000000000f, -0.19665986299514770508f, -0.00000000000000000000f, -0.01372484676539897919f, -0.00000000000000000000f, 0.00000000000000000000f, -0.00000000000000000000f, 0.25098833441734313965f, -0.49432572722434997559f, -0.00000000000000000000f, 0.00000000000000000000f, 0.00000000000000000000f, -0.09315840154886245728f, -0.06605017185211181641f, -0.22852315008640289307f, 0.00000000000000000000f, -0.00000000000000000000f, -0.00000000000000000000f, -0.08935349434614181519f, -0.00000000000000000000f, 0.37255856394767761230f, -0.21701590716838836670f, -0.05300529673695564270f, 0.00000000000000000000f, -0.00000000000000000000f, -0.29683130979537963867f, -0.07235781848430633545f, -0.00000000000000000000f, 0.27010449767112731934f, 0.33385315537452697754f, -0.69969886541366577148f, -0.19986984133720397949f, -0.18904943764209747314f, -0.00000000000000000000f, 0.00000000000000000000f, 0.00000000000000000000f, 0.00000000000000000000f, -0.02507824078202247620f, -0.35267692804336547852f, 0.18264307081699371338f, -0.00000000000000000000f, -0.00000000000000000000f, 0.00000000000000000000f, -0.18390144407749176025f, -0.78337287902832031250f, 0.00000000000000000000f, -0.85753005743026733398f, -0.00000000000000000000f, -0.00000000000000000000f, -0.16745506227016448975f, 0.00000000000000000000f},
  {0.05669353902339935303f, -0.48222273588180541992f, -0.75669068098068237305f, 0.24988450109958648682f, -0.50526320934295654297f, -0.00000000000000000000f, -0.32955801486968994141f, 0.12181860953569412231f, -0.65303283929824829102f, -0.72724026441574096680f, -0.45810419321060180664f, -0.41169655323028564453f, 0.58361732959747314453f, -0.00000000000000000000f, -0.03538673743605613708f, -0.00000000000000000000f, -0.19884005188941955566f, -0.00000000000000000000f, -0.00000000000000000000f, -0.00000000000000000000f, -0.64400255680084228516f, 0.16400820016860961914f, 0.00000000000000000000f, -0.00000000000000000000f, -0.00000000000000000000f, -0.12028983980417251587f, 0.28846403956413269043f, -0.09279337525367736816f, 0.00000000000000000000f, -0.00000000000000000000f, -0.00000000000000000000f, -0.22674794495105743408f, 0.00000000000000000000f, 0.28672674298286437988f, -0.11938639730215072632f, -0.20118175446987152100f, 0.00000000000000000000f, 0.00000000000000000000f, 0.05049949139356613159f, -0.09455430507659912109f, 0.00000000000000000000f, -0.05043138563632965088f, 0.22275097668170928955f, 0.38614270091056823730f, -0.13091608881950378418f, -0.20210583508014678955f, -0.00000000000000000000f, 0.00000000000000000000f, -0.00000000000000000000f, -0.00000000000000000000f, -0.22424092888832092285f, 0.19467090070247650146f, -0.56297761201858520508f, 0.00000000000000000000f, -0.00000000000000000000f, 0.00000000000000000000f, -0.14894451200962066650f, 0.36158108711242675781f, -0.00000000000000000000f, 0.36651939153671264648f, 0.00000000000000000000f, 0.00000000000000000000f, -0.07870837301015853882f, -0.00000000000000000000f}
};
static const float tensor_network_4_bias[2] = 
{-0.23126864433288574219f, -0.28914734721183776855f};
static const float tensor_network_2_weight[64][128] = 
{
  {0.00000000000000000000f, 0.00000000000000000000f, 0.01159055344760417938f, 0.01133061293512582779f, -0.00000000000000000000f, 0.00007043273217277601f, -0.04805221408605575562f, -0.00000000000000000000f, -0.01789732649922370911f, -0.01852028816938400269f, -0.00423349952325224876f, -0.00000000000000000000f, -0.00000075867666282647f, 0.01411324180662631989f, -0.02932166308164596558f, -0.09341152012348175049f, -0.00875975936651229858f, -0.00000000000000790800f, -0.01017671637237071991f, -0.00000000000000000000f, -0.00000000000000000000f, -0.01569801382720470428f, -0.00000000000000000000f, 0.02942096069455146790f, 0.00458093779161572456f, -0.00000000000000000000f, 0.00343834352679550648f, -0.00000000000000000000f, 0.01182455942034721375f, -0.00000000000000000000f, -0.00000000000000000000f, 0.00000000000000000000f, -0.00000000000000000000f, -0.00264300685375928879f, -0.00000000000000000000f, -0.00000000000000000000f, -0.03054707311093807220f, 0.00193343253340572119f, -0.00000000000000000000f, -0.00000000000000000000f, -0.00000000000000000000f, 0.02111054398119449615f, -0.00197484600357711315f, -0.04667691141366958618f, 0.00000000000000000000f, -0.00000000000000000000f, -0.00827606488019227982f, -0.01061055436730384827f, 0.01733128353953361511f, -0.00000000000000000000f, 0.00000000000000000000f, -0.00000000000000000000f, 0.00395561289042234421f, -0.00000000000000000000f, -0.00000000000000000000f, -0.00000000000000000000f, -0.00000000000000000000f, -0.00737306801602244377f, -0.01510185841470956802f, -0.00000000000000000000f, -0.00468672439455986023f, -0.00000000000000000000f, -0.00000000000000000000f, -0.00000000000000000000f, -0.00000000000000000000f, 0.00001374149360344745f, 0.00000000000000000000f, 0.00589389679953455925f, 0.01543669868260622025f, -0.06235771626234054565f, 0.00000000000000000000f, 0.00000000000000000000f, 0.00000000000000000000f, 0.00000000000000000000f, -0.01293930411338806152f, 0.01004862040281295776f, 0.00339116528630256653f, 0.00109245523344725370f, 0.00909620989114046097f, -0.00000000000000000000f, 0.00032779853790998459f, 0.03744198009371757507f, -0.01262871362268924713f, -0.00000000000000000000f, -0.00000000000000000000f, -0.00000000000000000000f, 0.00713041098788380623f, -0.00000000000000000000f, 0.01146805193275213242f, -0.00000000000000000000f, 0.00000000000000000000f, 0.02001389116048812866f, 0.00095858913846313953f, -0.00000000000000000000f, 0.00381100527010858059f, -0.06210528686642646790f, 0.02547491900622844696f, -0.03533062338829040527f, -0.00000000000000000000f, 0.01180790271610021591f, 0.05239830166101455688f, 0.00000000000000000000f, 0.00444249901920557022f, -0.00000000000000000000f, 0.00072039535734802485f, 0.00000000000000000000f, 0.00497871218249201775f, 0.01138959638774394989f, 0.00417945766821503639f, -0.00000000000000000000f, 0.00639085471630096436f, -0.00930709764361381531f, 0.01942226663231849670f, -0.00000000000000000000f, 0.01934080570936203003f, 0.01985781081020832062f, -0.04740690439939498901f, 0.00000000000000000000f, -0.00000000000000000000f, 0.00254281843081116676f, 0.00000000000000000000f, -0.05274803191423416138f, -0.00000000000000000000f, 0.00000000000000000000f, -0.07631435990333557129f, -0.00212612375617027283f, -0.00772189674898982048f, -0.02182438224554061890f},
  {0.00000000000000000000f, -0.00000000000000000000f, -0.07576133310794830322f, -0.01323587913066148758f, -0.00000000000000000000f, 0.02184995822608470917f, 0.00545705715194344521f, -0.00000000000000000000f, -0.01609819196164608002f, -0.00060224480694159865f, 0.00491744186729192734f, 0.00000000000000000000f, 0.00000013749297522736f, -0.01357007212936878204f, 0.01940352655947208405f, 0.06186081469058990479f, 0.01921251043677330017f, -0.00000000000004901798f, 0.03449326381087303162f, -0.00000000000000000000f, 0.00000000000000000000f, 0.01339618023484945297f, -0.00000000000000000000f, -0.13406282663345336914f, -0.00978082697838544846f, -0.00000000000000000000f, 0.00479649612680077553f, -0.00000000000000000000f, 0.05772124230861663818f, -0.00000000000000000000f, 0.00000000000000000000f, -0.00000000000000000000f, 0.00000000000000000000f, -0.02444937452673912048f, 0.00000000000000000000f, 0.00000000000000000000f, -0.01555654406547546387f, 0.03047139011323451996f, -0.00000000000000000000f, -0.00000000000000000000f, -0.00000000000000000000f, -0.08288437873125076294f, -0.02427351474761962891f, 0.02718508616089820862f, -0.00000000000000000000f, 0.00000000000000000000f, 0.01256638672202825546f, -0.03122649714350700378f, -0.08667419105768203735f, 0.00000000000000000000f, -0.00000000000000000000f, -0.00000000000000000000f, -0.04049140959978103638f, -0.00000000000000000000f, -0.00000000000000000000f, -0.00000000000000000000f, -0.00000000000000000000f, 0.00787147600203752518f, 0.02689696662127971649f, 0.00000000000000000000f, -0.04266953840851783752f, -0.00000000000000000000f, -0.00000000000000000000f, -0.00000000000000000000f, 0.00000000000000000000f, 0.00047004755469970405f, -0.00000000000000000000f, -0.14242981374263763428f, -0.24107016623020172119f, -0.00305884517729282379f, 0.00000000000000000000f, -0.00000000000000000000f, -0.00000000000000000000f, -0.00000000000000000000f, 0.03261942416429519653f, 0.04137123376131057739f, 0.01763463020324707031f, -0.17724852263927459717f, -0.03889464959502220154f, -0.00000000000000000000f, -0.00447926670312881470f, -0.07150250673294067383f, 0.01436838973313570023f, 0.00000000000000000000f, 0.00000000000000000000f, -0.00000000000000000000f, 0.02814014442265033722f, -0.00000000000000000000f, -0.01500126533210277557f, -0.00000000000000000000f, -0.00000000000000000000f, -0.07427387684583663940f, 0.00503324670717120171f, -0.00000000000000000000f, -0.02159450761973857880f, 0.03204350918531417847f, 0.01212965045124292374f, -0.00084068183787167072f, -0.00000000000000000000f, 0.03432161360979080200f, 0.01013508625328540802f, -0.00000000000000000000f, 0.01281275134533643723f, -0.00000000000000000000f, -0.03078596107661724091f, -0.00000000000000000000f, -0.11768978089094161987f, -0.11409074813127517700f, 0.01892790012061595917f, -0.00000000000000000000f, -0.01104941871017217636f, -0.05418451502919197083f, 0.00587889458984136581f, -0.00000000000000000000f, -0.20910878479480743408f, -0.00015092168177943677f, 0.03387178108096122742f, -0.00000000000000000000f, -0.00000000000000000000f, 0.02300204336643218994f, 0.00000000000000000000f, 0.06937712430953979492f, -0.00000000000000000000f, -0.00000000000000000000f, 0.07427927106618881226f, -0.01350522134453058243f, 0.04336912184953689575f, 0.04354025796055793762f},
  {0.00000000000000000000f, -0.00000000000000000000f, -0.06778313964605331421f, 0.00196713558398187160f, -0.00000000000000000000f, 0.02542262710630893707f, -0.01238210126757621765f, -0.00000000000000000000f, -0.03493452072143554688f, -0.00040705429273657501f, -0.03854394331574440002f, -0.00000000000000000000f, -0.00000053259077503753f, -0.02949299477040767670f, 0.03389358147978782654f, 0.06270193308591842651f, 0.02443405613303184509f, -0.00000000000002584449f, 0.01964352093636989594f, -0.00000000000000000000f, -0.00000000000000000000f, 0.00955631118267774582f, -0.00000000000000000000f, -0.23709616065025329590f, -0.01229459233582019806f, -0.00000000000000000000f, 0.00557855563238263130f, -0.00000000000000000000f, 0.07639271020889282227f, -0.00000000000000000000f, -0.00000000000000000000f, -0.00000000000000000000f, -0.00000000000000000000f, -0.04591051861643791199f, -0.00000000000000000000f, 0.00000000000000000000f, -0.01494793221354484558f, 0.05804226920008659363f, -0.00000000000000000000f, -0.00000000000000000000f, -0.00000000000000000000f, -0.20352248847484588623f, -0.07252607494592666626f, 0.06097716838121414185f, -0.00000000000000000000f, 0.00000000000000000000f, 0.01359967701137065887f, -0.05104842036962509155f, -0.12572109699249267578f, 0.00000000000000000000f, 0.00000000000000000000f, -0.00000000000000000000f, -0.05648363381624221802f, -0.00000000000000000000f, 0.00000000000000000000f, -0.00000000000000000000f, -0.00000000000000000000f, 0.00939999427646398544f, 0.01521933358162641525f, 0.00000000000000000000f, -0.06245044246315956116f, -0.00000000000000000000f, -0.00000000000000000000f, 0.00000000000000000000f, 0.00000000000000000000f, 0.00093601702246814966f, -0.00000000000000000000f, -0.22379970550537109375f, -0.33334314823150634766f, -0.00208180607296526432f, -0.00000000000000000000f, -0.00000000000000000000f, -0.00000000000000000000f, -0.00000000000000000000f, 0.05521804839372634888f, 0.03823618963360786438f, 0.01988824270665645599f, -0.28563138842582702637f, -0.04931335151195526123f, -0.00000000000000000000f, -0.00922726094722747803f, -0.15524387359619140625f, 0.02165490947663784027f, 0.00000000000000000000f, -0.00000000000000000000f, -0.00000000000000000000f, -0.00856372155249118805f, 0.00000000000000000000f, -0.01106553804129362106f, -0.00000000000000000000f, -0.00000000000000000000f, -0.16224673390388488770f, 0.00769811356440186501f, -0.00000000000000000000f, -0.02556939050555229187f, 0.02207889221608638763f, 0.03011929057538509369f, -0.01716953143477439880f, -0.00000000000000000000f, 0.04158378392457962036f, 0.06329078227281570435f, -0.00000000000000000000f, 0.04100562259554862976f, 0.00000000000000000000f, -0.05921637639403343201f, -0.00000000000000000000f, -0.12604655325412750244f, -0.22150216996669769287f, 0.03135528042912483215f, -0.00000000000000000000f, -0.01823815330862998962f, -0.06855681538581848145f, 0.00436989311128854752f, -0.00000000000000000000f, -0.30726501345634460449f, -0.02720177918672561646f, 0.01126177608966827393f, -0.00000000000000000000f, -0.00000000000000000000f, 0.04825057089328765869f, -0.00000000000000000000f, 0.08402584493160247803f, -0.00000000000000000000f, -0.00000000000000000000f, 0.11474480479955673218f, -0.01656292937695980072f, 0.05438150465488433838f, 0.06233053281903266907f},
  {-0.00000000000000000000f, 0.00000000000000000000f, 0.01844529807567596436f, -0.02395817078649997711f, 0.00000000000000000000f, -0.02091206796467304230f, -0.04218295961618423462f, -0.00000000000000000000f, -0.03884935751557350159f, -0.06988394260406494141f, -0.01268219947814941406f, -0.00000000000000000000f, 0.00000083070386835971f, -0.00805703736841678619f, -0.02665906585752964020f, -0.37150910496711730957f, -0.01655444130301475525f, -0.00000000000000283702f, 0.03709588199853897095f, -0.00000000000000000000f, 0.00000000000000000000f, -0.02743449248373508453f, -0.00000000000000000000f, 0.08666716516017913818f, 0.00017982182907871902f, -0.00000000000000000000f, 0.00914404261857271194f, -0.00000000000000000000f, 0.00841414369642734528f, 0.00000000000000000000f, 0.00000000000000000000f, -0.00000000000000000000f, -0.00000000000000000000f, 0.03318459540605545044f, -0.00000000000000000000f, -0.00000000000000000000f, -0.09887130558490753174f, -0.00636893790215253830f, -0.00000000000000000000f, -0.00000000000000000000f, -0.00000000000000000000f, 0.14371076226234436035f, 0.02008650638163089752f, -0.03508289903402328491f, 0.00000000000000000000f, -0.00000000000000000000f, -0.01830912753939628601f, 0.00869429484009742737f, 0.06179880350828170776f, -0.00000000000000000000f, 0.00000000000000000000f, -0.00000000000000000000f, 0.01415547914803028107f, -0.00000000000000000000f, -0.00000000000000000000f, -0.00000000000000000000f, 0.00000000000000000000f, -0.03255834430456161499f, 0.01040256395936012268f, -0.00000000000000000000f, -0.03624329715967178345f, -0.00000000000000000000f, 0.00000000000000000000f, -0.00000000000000000000f, -0.00000000000000000000f, 0.01252179685980081558f, -0.00000000000000000000f, 0.00922288000583648682f, 0.05693188682198524475f, -0.26716464757919311523f, -0.00000000000000000000f, -0.00000000000000000000f, 0.00000000000000000000f, -0.00000000000000000000f, 0.04314583167433738708f, 0.00550053222104907036f, 0.01363554690033197403f, 0.10006821900606155396f, 0.01100403722375631332f, -0.00000000000000000000f, 0.03271484002470970154f, 0.14730218052864074707f, -0.01093990635126829147f, -0.00000000000000000000f, -0.00000000000000000000f, -0.00000000000000000000f, -0.12828898429870605469f, -0.00000000000000000000f, 0.00954529643058776855f, -0.00000000000000000000f, -0.00000000000000000000f, 0.02348111569881439209f, -0.02668339386582374573f, -0.00000000000000000000f, -0.01597389392554759979f, -0.22205719351768493652f, 0.09328969568014144897f, -0.12813377380371093750f, -0.00000000000000000000f, 0.02171919308602809906f, 0.03970980644226074219f, -0.00000000000000000000f, -0.02404526248574256897f, -0.00000000000000000000f, 0.01934580877423286438f, 0.00000000000000000000f, 0.02280328236520290375f, 0.00739226862788200378f, -0.02065532840788364410f, -0.00000000000000000000f, 0.00043925511999987066f, 0.00142569385934621096f, 0.03464436531066894531f, -0.00000000000000000000f, 0.12172155082225799561f, -0.00311919371597468853f, -0.20877890288829803467f, -0.00000000000000000000f, -0.00000000000000000000f, -0.03644182533025741577f, -0.00000000000000000000f, -0.27016547322273254395f, 0.00000000000000000000f, -0.00000000000000000000f, -0.41658622026443481445f, 0.01005572173744440079f, -0.06415481120347976685f, -0.06260137259960174561f},
  {-0.00000000000000000000f, -0.00000000000000000000f, -0.02580507658421993256f, -0.03434905782341957092f, -0.00000000000000000000f, 0.01059730630367994308f, 0.11671205610036849976f, -0.00000000000000000000f, -0.01354887709021568298f, 0.00023900848464109004f, 0.02351273410022258759f, 0.00000000000000000000f, -0.00000520305002282839f, 0.03823750093579292297f, 0.04724394902586936951f, 0.04941230267286300659f, 0.00685019930824637413f, -0.00000000000002848705f, 0.03546174988150596619f, -0.00000000000000000000f, -0.00000000000000000000f, -0.00556043023243546486f, -0.00000000000000000000f, -0.22615832090377807617f, -0.00284426147118210793f, -0.00000000000000000000f, 0.00661725364625453949f, 0.00000000000000000000f, 0.02383421361446380615f, -0.00000000000000000000f, 0.00000000000000000000f, -0.00000000000000000000f, -0.00000000000000000000f, 0.00102356763090938330f, -0.00000000000000000000f, -0.00000000000000000000f, 0.00000000000000000000f, 0.01361425034701824188f, -0.00000000000000000000f, 0.00000000000000000000f, -0.00000000000000000000f, -0.20556421577930450439f, 0.02246898598968982697f, 0.02089778147637844086f, -0.00000000000000000000f, -0.00000000000000000000f, 0.02008815109729766846f, -0.01362743135541677475f, 0.02279466576874256134f, 0.00000000000000000000f, -0.00000000000000000000f, 0.00000000000000000000f, -0.02262031286954879761f, -0.00000000000000000000f, -0.00000000000000000000f, 0.00000000000000000000f, 0.00000000000000000000f, -0.03294638171792030334f, 0.02238096296787261963f, -0.00000000000000000000f, -0.04123954847455024719f, 0.00000000000000000000f, -0.00000000000000000000f, -0.00000000000000000000f, 0.00000000000000000000f, -0.01317079365253448486f, 0.00000000000000000000f, -0.15051171183586120605f, -0.11211722344160079956f, 0.11527530848979949951f, -0.00000000000000000000f, -0.00000000000000000000f, -0.00000000000000000000f, 0.00000000000000000000f, 0.04246929287910461426f, 0.03704511374235153198f, 0.01563120074570178986f, -0.16206716001033782959f, -0.02066197432577610016f, -0.00000000000000000000f, 0.00306925154291093349f, -0.12195877730846405029f, 0.02486245892941951752f, 0.00000000000000000000f, 0.00000000000000000000f, -0.00000000000000000000f, -0.11829607933759689331f, -0.00000000000000000000f, -0.02684337645769119263f, 0.00000000000000000000f, -0.00000000000000000000f, -0.26003110408782958984f, -0.02337777800858020782f, -0.00000000000000000000f, -0.00129322451539337635f, 0.02405737154185771942f, -0.00068659940734505653f, 0.06517992168664932251f, -0.00000000000000000000f, 0.02005034126341342926f, -0.00894240196794271469f, -0.00000000000000000000f, 0.03767475858330726624f, -0.00000000000000000000f, -0.02491110563278198242f, -0.00000000000000000000f, -0.02316601388156414032f, 0.00859522819519042969f, 0.03040076792240142822f, -0.00000000000000000000f, -0.00408723577857017517f, -0.06227578595280647278f, 0.00170700869057327509f, 0.00000000000000000000f, -0.02016465365886688232f, -0.09474556893110275269f, 0.03733526170253753662f, -0.00000000000000000000f, -0.00000000000000000000f, 0.03225643560290336609f, -0.00000000000000000000f, -0.03639627248048782349f, -0.00000000000000000000f, -0.00000000000000000000f, 0.01737528480589389801f, 0.00352658308111131191f, -0.00009655523899709806f, 0.01032993197441101074f},
  {-0.00000000000000000000f, -0.00000000000000000000f, -0.00000000000000000000f, -0.00000000000000000000f, 0.00000000000000000000f, -0.00000000000000000000f, -0.00000000000000000000f, 0.00000000000000000000f, 0.00000000000000000000f, -0.00000000000000000000f, -0.00000000000000000000f, -0.00000000000000000000f, -0.00000000000000000000f, -0.00000000000000000000f, -0.00000000000000000000f, -0.00000000000000000000f, -0.00000000000000000000f, -0.00000000000000000000f, 0.00000000000000000000f, 0.00000000000000000000f, 0.00000000000000000000f, -0.00000000000000000000f, -0.00000000000000000000f, -0.00000000000000000000f, -0.00000000000000000000f, 0.00000000000000000000f, 0.00000000000000000000f, -0.00000000000000000000f, -0.00000000000000000000f, -0.00000000000000000000f, 0.00000000000000000000f, 0.00000000000000000000f, 0.00000000000000000000f, 0.00000000000000000000f, 0.00000000000000000000f, -0.00000000000000000000f, -0.00000000000000000000f, -0.00000000000000000000f, -0.00000000000000000000f, -0.00000000000000000000f, -0.00000000000000000000f, -0.00000000000000000000f, -0.00000000000000000000f, -0.00000000000000000000f, 0.00000000000000000000f, 0.00000000000000000000f, -0.00000000000000000000f, -0.00000000000000000000f, -0.00000000000000000000f, 0.00000000000000000000f, -0.00000000000000000000f, 0.00000000000000000000f, -0.00000000000000000000f, 0.00000000000000000000f, -0.00000000000000000000f, 0.00000000000000000000f, 0.00000000000000000000f, -0.00000000000000000000f, 0.00000000000000000000f, 0.00000000000000000000f, 0.00000000000000000000f, -0.00000000000000000000f, 0.00000000000000000000f, 0.00000000000000000000f, -0.00000000000000000000f, 0.00000000000000000000f, 0.00000000000000000000f, -0.00000000000000000000f, -0.00000000000000000000f, -0.00000000000000000000f, -0.00000000000000000000f, -0.00000000000000000000f, 0.00000000000000000000f, 0.00000000000000000000f, -0.00000000000000000000f, -0.00000000000000000000f, 0.00000000000000000000f, -0.00000000000000000000f, -0.00000000000000000000f, -0.00000000000000000000f, -0.00000000000000000000f, -0.00000000000000000000f, 0.00000000000000000000f, 0.00000000000000000000f, 0.00000000000000000000f, -0.00000000000000000000f, -0.00000000000000000000f, -0.00000000000000000000f, -0.00000000000000000000f, 0.00000000000000000000f, 0.00000000000000000000f, -0.00000000000000000000f, -0.00000000000000000000f, 0.00000000000000000000f, 0.00000000000000000000f, -0.00000000000000000000f, -0.00000000000000000000f, -0.00000000000000000000f, -0.00000000000000000000f, -0.00000000000000000000f, -0.00000000000000000000f, 0.00000000000000000000f, -0.00000000000000000000f, 0.00000000000000000000f, -0.00000000000000000000f, 0.00000000000000000000f, -0.00000000000000000000f, -0.00000000000000000000f, -0.00000000000000000000f, 0.00000000000000000000f, -0.00000000000000000000f, -0.00000000000000000000f, 0.00000000000000000000f, 0.00000000000000000000f, -0.00000000000000000000f, -0.00000000000000000000f, -0.00000000000000000000f, -0.00000000000000000000f, -0.00000000000000000000f, -0.00000000000000000000f, -0.00000000000000000000f, -0.00000000000000000000f, 0.00000000000000000000f, -0.00000000000000000000f, -0.00000000000000000000f, 0.00000000000000000000f, -0.00000000000000000000f, -0.00000000000000000000f},
  {0.00000000000000000000f, 0.00000000000000000000f, -0.03344127163290977478f, -0.02857386507093906403f, -0.00000000000000000000f, 0.03406417742371559143f, 0.05879408866167068481f, -0.00000000000000000000f, -0.03470933064818382263f, 0.00295926746912300587f, 0.02576502040028572083f, -0.00000000000000000000f, -0.00000199867122319120f, 0.00466981716454029083f, -0.01080603897571563721f, -0.00847069825977087021f, 0.00884996727108955383f, -0.00000000000004780826f, -0.00277586863376200199f, -0.00000000000000000000f, -0.00000000000000000000f, 0.02718659117817878723f, 0.00000000000000000000f, -0.08361522108316421509f, -0.00771773559972643852f, 0.00000000000000000000f, 0.00483968248590826988f, -0.00000000000000000000f, 0.08008705824613571167f, -0.00000000000000000000f, 0.00000000000000000000f, -0.00000000000000000000f, -0.00000000000000000000f, -0.02128418907523155212f, -0.00000000000000000000f, -0.00000000000000000000f, 0.05050371214747428894f, 0.00503146462142467499f, -0.00000000000000000000f, 0.00000000000000000000f, -0.00000000000000000000f, -0.05312092602252960205f, -0.00898741465061903000f, 0.01254879496991634369f, -0.00000000000000000000f, -0.00000000000000000000f, 0.00076594989513978362f, -0.01157396286725997925f, -0.01816687546670436859f, 0.00000000000000000000f, -0.00000000000000000000f, -0.00000000000000000000f, -0.03940496593713760376f, -0.00000000000000000000f, -0.00000000000000000000f, 0.00000000000000000000f, 0.00000000000000000000f, -0.00160046585369855165f, 0.01841923780739307404f, 0.00000000000000000000f, -0.00526932580396533012f, -0.00000000000000000000f, -0.00000000000000000000f, -0.00000000000000000000f, 0.00000000000000000000f, -0.00918023101985454559f, -0.00000000000000000000f, -0.08152543753385543823f, -0.09748861938714981079f, 0.07619168609380722046f, 0.00000000000000000000f, -0.00000000000000000000f, -0.00000000000000000000f, -0.00000000000000000000f, -0.01411100383847951889f, 0.06707379966974258423f, 0.01971370726823806763f, -0.08241027593612670898f, -0.05091930180788040161f, 0.00000000000000000000f, -0.00477887317538261414f, -0.04556787386536598206f, 0.02225814759731292725f, -0.00000000000000000000f, 0.00000000000000000000f, -0.00000000000000000000f, 0.06857798248529434204f, -0.00000000000000000000f, -0.02292221225798130035f, 0.00000000000000000000f, 0.00000000000000000000f, -0.05091077089309692383f, 0.01595816761255264282f, 0.00000000000000000000f, -0.02527547627687454224f, -0.00797247607260942459f, 0.01325262989848852158f, 0.04235252365469932556f, 0.00000000000000000000f, -0.03448265790939331055f, -0.02367733046412467957f, -0.00000000000000000000f, 0.00717577198520302773f, -0.00000000000000000000f, -0.06093379110097885132f, -0.00000000000000000000f, -0.03298569843173027039f, 0.04985965415835380554f, 0.02148900181055068970f, -0.00000000000000000000f, -0.00532828411087393761f, -0.05895780771970748901f, -0.00700855394825339317f, -0.00000000000000000000f, -0.04691253229975700378f, 0.00575087498873472214f, 0.01628562621772289276f, -0.00000000000000000000f, -0.00000000000000000000f, 0.00744002684950828552f, 0.00000000000000000000f, 0.08276135474443435669f, -0.00000000000000000000f, 0.00000000000000000000f, 0.01186906266957521439f, -0.00691070500761270523f, 0.06228946521878242493f, 0.01689193211495876312f},
  {-0.00000000000000000000f, 0.00000000000000000000f, 0.00178780616261065006f, -0.03761634603142738342f, 0.00000000000000000000f, -0.01437134668231010437f, -0.15165238082408905029f, -0.00000000000000000000f, -0.02897253446280956268f, -0.03901229426264762878f, 0.02875120379030704498f, -0.00000000000000000000f, 0.00000164493792453868f, -0.00763898016884922981f, -0.04402506351470947266f, -0.10439968854188919067f, -0.01310936640948057175f, -0.00000000000000840591f, 0.05046827346086502075f, -0.00000000000000000000f, -0.00000000000000000000f, -0.03875674679875373840f, 0.00000000000000000000f, 0.05276928469538688660f, 0.01233346201479434967f, 0.00000000000000000000f, 0.00495102442800998688f, -0.00000000000000000000f, -0.02695164643228054047f, -0.00000000000000000000f, -0.00000000000000000000f, 0.00000000000000000000f, 0.00000000000000000000f, 0.00662281317636370659f, -0.00000000000000000000f, -0.00000000000000000000f, -0.05026803910732269287f, 0.01020121760666370392f, 0.00000000000000000000f, -0.00000000000000000000f, -0.00000000000000000000f, 0.00641393149271607399f, 0.03961985558271408081f, -0.01288750115782022476f, 0.00000000000000000000f, -0.00000000000000000000f, -0.01194228418171405792f, -0.00806417036801576614f, -0.01365123037248849869f, -0.00000000000000000000f, 0.00000000000000000000f, -0.00000000000000000000f, 0.06257478147745132446f, -0.00000000000000000000f, -0.00000000000000000000f, -0.00000000000000000000f, -0.00000000000000000000f, -0.02766097150743007660f, -0.01775336265563964844f, -0.00000000000000000000f, -0.01420196332037448883f, -0.00000000000000000000f, -0.00000000000000000000f, -0.00000000000000000000f, -0.00000000000000000000f, -0.00430619670078158379f, 0.00000000000000000000f, 0.09586403518915176392f, 0.03172503411769866943f, -0.07858999073505401611f, -0.00000000000000000000f, 0.00000000000000000000f, 0.00000000000000000000f, 0.00000000000000000000f, -0.01866978220641613007f, -0.00607407838106155396f, 0.00241325446404516697f, 0.03769983351230621338f, 0.04634657129645347595f, -0.00000000000000000000f, 0.00887323077768087387f, 0.02164323441684246063f, 0.00369897019118070602f, -0.00000000000000000000f, -0.00000000000000000000f, -0.00000000000000000000f, 0.03500724583864212036f, 0.00000000000000000000f, 0.00829812884330749512f, -0.00000000000000000000f, -0.00000000000000000000f, 0.05578425154089927673f, -0.04329508915543556213f, -0.00000000000000000000f, 0.06522788852453231812f, -0.11471292376518249512f, 0.00294935167767107487f, -0.15280514955520629883f, -0.00000000000000000000f, 0.01743779145181179047f, 0.04491900652647018433f, 0.00000000000000000000f, -0.01613017357885837555f, -0.00000000000000000000f, 0.04592064023017883301f, 0.00000000000000000000f, 0.00941882375627756119f, -0.05889323353767395020f, -0.02537499368190765381f, -0.00000000000000000000f, 0.00300089619122445583f, 0.00892839767038822174f, 0.04760700464248657227f, -0.00000000000000000000f, -0.00019379791046958417f, 0.04275233671069145203f, -0.15654550492763519287f, 0.00000000000000000000f, -0.00000000000000000000f, -0.06471185386180877686f, 0.00000000000000000000f, 0.00764261418953537941f, 0.00000000000000000000f, 0.00000000000000000000f, -0.05057848617434501648f, 0.01452286820858716965f, -0.04380619898438453674f, -0.03617672622203826904f},
  {0.00000000000000000000f, -0.00000000000000000000f, -0.08100536465644836426f, 0.00321272714063525200f, -0.00000000000000000000f, 0.04642002657055854797f, 0.00084489583969116211f, -0.00000000000000000000f, -0.02897510305047035217f, 0.00479145627468824387f, -0.03090535104274749756f, -0.00000000000000000000f, 0.00000391597359339357f, -0.04484678804874420166f, 0.01397662051022052765f, 0.06864070147275924683f, 0.02747055515646934509f, -0.00000000000008138609f, 0.03202253207564353943f, -0.00000000000000000000f, -0.00000000000000000000f, 0.05803349986672401428f, -0.00000000000000000000f, -0.11670428514480590820f, -0.01600295864045619965f, -0.00000000000000000000f, 0.01188450399786233902f, -0.00000000000000000000f, 0.08721957355737686157f, -0.00000000000000000000f, -0.00000000000000000000f, -0.00000000000000000000f, -0.00000000000000000000f, -0.02908638305962085724f, -0.00000000000000000000f, 0.00000000000000000000f, -0.00068722339347004890f, 0.04089515283703804016f, -0.00000000000000000000f, -0.00000000000000000000f, 0.00000000000000000000f, -0.10877414792776107788f, -0.09834808856248855591f, 0.06287149339914321899f, -0.00000000000000000000f, 0.00000000000000000000f, 0.01852263696491718292f, -0.02237726189196109772f, -0.12398288398981094360f, 0.00000000000000000000f, 0.00000000000000000000f, -0.00000000000000000000f, -0.07558640092611312866f, -0.00000000000000000000f, -0.00000000000000000000f, -0.00000000000000000000f, -0.00000000000000000000f, 0.00624489365145564079f, 0.06774993240833282471f, -0.00000000000000000000f, -0.06566280126571655273f, -0.00000000000000000000f, -0.00000000000000000000f, -0.00000000000000000000f, 0.00000000000000000000f, 0.00119012256618589163f, -0.00000000000000000000f, -0.24668748676776885986f, -0.29301097989082336426f, -0.00157479930203408003f, -0.00000000000000000000f, -0.00000000000000000000f, -0.00000000000000000000f, -0.00000000000000000000f, 0.05390811339020729065f, 0.04477025195956230164f, 0.03830970078706741333f, -0.17843329906463623047f, -0.07205089181661605835f, 0.00000000000000000000f, 0.01587129756808280945f, -0.09389380365610122681f, 0.04465515166521072388f, -0.00000000000000000000f, 0.00000000000000000000f, -0.00000000000000000000f, 0.07168006896972656250f, -0.00000000000000000000f, -0.02077111229300498962f, 0.00000000000000000000f, 0.00000000000000000000f, -0.03649580106139183044f, 0.01372241694480180740f, -0.00000000000000000000f, -0.05870965123176574707f, 0.03932577371597290039f, 0.05354432389140129089f, -0.01161224488168954849f, -0.00000000000000000000f, 0.03000746294856071472f, 0.02212522923946380615f, -0.00000000000000000000f, 0.01050262898206710815f, -0.00000000000000000000f, -0.04851172491908073425f, -0.00000000000000000000f, -0.13153485953807830811f, -0.17836907505989074707f, 0.00499952211976051331f, -0.00000000000000000000f, -0.01244516856968402863f, -0.06231331452727317810f, -0.00439694011583924294f, 0.00000000000000000000f, -0.34352111816406250000f, 0.01701457053422927856f, 0.04953320324420928955f, -0.00000000000000000000f, -0.00000000000000000000f, 0.03098065219819545746f, 0.00000000000000000000f, 0.08407481759786605835f, -0.00000000000000000000f, -0.00000000000000000000f, 0.08372896164655685425f, -0.02433839440345764160f, 0.04816996678709983826f, 0.04512644559144973755f},
  {-0.00000000000000000000f, -0.00000000000000000000f, -0.10728734731674194336f, -0.00741950236260890961f, 0.00000000000000000000f, 0.03964411467313766479f, 0.06328373402357101440f, -0.00000000000000000000f, -0.01001100149005651474f, -0.00000154189638124080f, -0.02313859760761260986f, -0.00000000000000000000f, 0.00000469821225124178f, 0.01625549606978893280f, 0.04709712043404579163f, 0.07783581316471099854f, 0.01397541910409927368f, -0.00000000000005875475f, 0.03883103653788566589f, -0.00000000000000000000f, 0.00000000000000000000f, 0.01230937335640192032f, -0.00000000000000000000f, -0.30125346779823303223f, -0.00773376645520329475f, -0.00000000000000000000f, 0.00866148620843887329f, -0.00000000000000000000f, 0.07812834531068801880f, -0.00000000000000000000f, 0.00000000000000000000f, -0.00000000000000000000f, -0.00000000000000000000f, -0.03747802600264549255f, 0.00000000000000000000f, 0.00000000000000000000f, -0.00145585951395332813f, 0.05719638243317604065f, 0.00000000000000000000f, -0.00000000000000000000f, -0.00000000000000000000f, -0.12557259202003479004f, -0.01206776220351457596f, 0.03086474537849426270f, -0.00000000000000000000f, -0.00000000000000000000f, 0.02168140001595020294f, -0.05629983916878700256f, -0.06468883156776428223f, 0.00000000000000000000f, -0.00000000000000000000f, -0.00000000000000000000f, -0.05204554647207260132f, -0.00000000000000000000f, -0.00000000000000000000f, -0.00000000000000000000f, -0.00000000000000000000f, -0.02947669662535190582f, 0.03986680135130882263f, 0.00000000000000000000f, -0.05873003602027893066f, -0.00000000000000000000f, -0.00000000000000000000f, -0.00000000000000000000f, 0.00000000000000000000f, -0.00120301893912255764f, -0.00000000000000000000f, -0.21843253076076507568f, -0.34699425101280212402f, 0.02244376391172409058f, -0.00000000000000000000f, -0.00000000000000000000f, -0.00000000000000000000f, 0.00000000000000000000f, 0.06103170663118362427f, 0.03831144422292709351f, 0.02779819816350936890f, -0.32067954540252685547f, -0.03607259690761566162f, -0.00000000000000000000f, -0.00628957618027925491f, -0.09846729785203933716f, 0.02706775628030300140f, -0.00000000000000000000f, -0.00000000000000000000f, -0.00000000000000000000f, -0.09502446651458740234f, 0.00000000000000000000f, -0.02072820253670215607f, -0.00000000000000000000f, -0.00000000000000000000f, -0.22993196547031402588f, -0.00245379214175045490f, -0.00000000000000000000f, -0.02967767789959907532f, 0.04825424030423164368f, 0.00387291098013520241f, 0.07603095471858978271f, -0.00000000000000000000f, 0.03431136906147003174f, 0.04672443494200706482f, -0.00000000000000000000f, 0.03036394529044628143f, -0.00000000000000000000f, -0.05461619421839714050f, -0.00000000000000000000f, -0.13321247696876525879f, -0.14634503424167633057f, 0.04092739894986152649f, -0.00000000000000000000f, -0.02069196105003356934f, -0.07799262553453445435f, 0.02039429545402526855f, -0.00000000000000000000f, -0.22886376082897186279f, -0.06262643635272979736f, 0.04592154920101165771f, -0.00000000000000000000f, -0.00000000000000000000f, 0.05968599393963813782f, 0.00000000000000000000f, 0.00433787936344742775f, -0.00000000000000000000f, -0.00000000000000000000f, 0.04412949830293655396f, -0.01244263257831335068f, 0.03655661270022392273f, 0.04532687738537788391f},
  {0.00000000000000000000f, -0.00000000000000000000f, -0.07156888395547866821f, -0.00363147933967411518f, 0.00000000000000000000f, 0.01170393079519271851f, 0.01669482327997684479f, -0.00000000000000000000f, -0.01586635038256645203f, -0.00001866182356025092f, -0.01647867821156978607f, 0.00000000000000000000f, -0.00000075682675060307f, -0.00265595293603837490f, 0.03693477064371109009f, 0.05651323869824409485f, 0.01310331840068101883f, -0.00000000000002660375f, 0.03822963684797286987f, -0.00000000000000000000f, 0.00000000000000000000f, 0.00596578745171427727f, -0.00000000000000000000f, -0.16546961665153503418f, -0.00505369901657104492f, -0.00000000000000000000f, 0.00477706873789429665f, 0.00000000000000000000f, 0.04221069440245628357f, -0.00000000000000000000f, 0.00000000000000000000f, -0.00000000000000000000f, 0.00000000000000000000f, -0.02317705936729907990f, 0.00000000000000000000f, 0.00000000000000000000f, -0.00678524747490882874f, 0.04138776659965515137f, -0.00000000000000000000f, -0.00000000000000000000f, -0.00000000000000000000f, -0.07819914072751998901f, -0.02789480052888393402f, 0.03081885911524295807f, -0.00000000000000000000f, -0.00000000000000000000f, 0.01529738306999206543f, -0.02474600076675415039f, -0.05839082971215248108f, 0.00000000000000000000f, -0.00000000000000000000f, -0.00000000000000000000f, -0.03755874186754226685f, -0.00000000000000000000f, 0.00000000000000000000f, -0.00000000000000000000f, -0.00000000000000000000f, -0.02271962724626064301f, 0.03846515715122222900f, 0.00000000000000000000f, -0.03550051897764205933f, 0.00000000000000000000f, -0.00000000000000000000f, -0.00000000000000000000f, 0.00000000000000000000f, 0.00199273228645324707f, -0.00000000000000000000f, -0.11326168477535247803f, -0.21130180358886718750f, -0.00629862165078520775f, -0.00000000000000000000f, 0.00000000000000000000f, -0.00000000000000000000f, -0.00000000000000000000f, 0.05721967667341232300f, 0.02407149598002433777f, 0.01465357746928930283f, -0.18824987113475799561f, -0.03207203000783920288f, -0.00000000000000000000f, -0.00529482867568731308f, -0.06883564591407775879f, 0.01316019147634506226f, 0.00000000000000000000f, 0.00000000000000000000f, -0.00000000000000000000f, -0.03559318557381629944f, -0.00000000000000000000f, -0.00468439515680074692f, -0.00000000000000000000f, -0.00000000000000000000f, -0.12755325436592102051f, -0.00156942650210112333f, -0.00000000000000000000f, -0.00815927423536777496f, 0.02971890754997730255f, 0.02822105400264263153f, 0.01884660869836807251f, -0.00000000000000000000f, 0.02098172344267368317f, 0.02169908210635185242f, -0.00000000000000000000f, 0.00860542710870504379f, -0.00000000000000000000f, -0.03603888303041458130f, -0.00000000000000000000f, -0.09272585064172744751f, -0.10991982370615005493f, 0.01954618096351623535f, -0.00000000000000000000f, -0.01734438538551330566f, -0.04731744900345802307f, 0.01312380097806453705f, -0.00000000000000000000f, -0.16930788755416870117f, -0.03282730281352996826f, 0.03353790938854217529f, -0.00000000000000000000f, -0.00000000000000000000f, 0.02765924111008644104f, 0.00000000000000000000f, 0.02518553845584392548f, -0.00000000000000000000f, -0.00000000000000000000f, 0.05210143700242042542f, -0.00932415761053562164f, 0.02775135263800621033f, 0.04229056462645530701f},
  {0.00000000000000000000f, 0.00000000000000000000f, 0.01745859719812870026f, -0.00268834480084478855f, -0.00000000000000000000f, 0.00805834960192441940f, 0.01697167940437793732f, 0.00000000000000000000f, 0.05205542221665382385f, -0.00000258690465670952f, -0.00721258064731955528f, 0.00000000000000000000f, -0.00000217992374018650f, -0.00660779932513833046f, 0.03178633749485015869f, 0.02760427258908748627f, 0.00900923274457454681f, 0.00000000000000007520f, -0.00764124095439910889f, 0.00000000000000000000f, 0.00000000000000000000f, -0.00119277730118483305f, -0.00000000000000000000f, -0.17166806757450103760f, -0.00575788784772157669f, -0.00000000000000000000f, -0.00335924257524311543f, 0.00000000000000000000f, 0.01787405274808406830f, 0.00000000000000000000f, 0.00000000000000000000f, -0.00000000000000000000f, 0.00000000000000000000f, 0.01630215719342231750f, 0.00000000000000000000f, -0.00000000000000000000f, 0.00000000000000000000f, 0.00913678947836160660f, 0.00000000000000000000f, -0.00000000000000000000f, -0.00000000000000000000f, -0.21771505475044250488f, -0.01820580475032329559f, 0.02516180463135242462f, -0.00000000000000000000f, -0.00000000000000000000f, 0.01721028797328472137f, 0.01765310019254684448f, 0.01562808267772197723f, 0.00000000000000000000f, -0.00000000000000000000f, 0.00000000000000000000f, -0.01764053106307983398f, -0.00000000000000000000f, 0.00000000000000000000f, 0.00000000000000000000f, 0.00000000000000000000f, 0.04383990913629531860f, 0.01875420100986957550f, 0.00000000000000000000f, -0.02852151729166507721f, 0.00000000000000000000f, -0.00000000000000000000f, 0.00000000000000000000f, 0.00000000000000000000f, -0.00015169971447903663f, -0.00000000000000000000f, -0.13918694853782653809f, -0.16839982569217681885f, -0.00317111401818692684f, -0.00000000000000000000f, 0.00000000000000000000f, 0.00000000000000000000f, -0.00000000000000000000f, 0.04921050742268562317f, -0.00563333742320537567f, -0.00842488370835781097f, -0.18420864641666412354f, -0.03114073909819126129f, 0.00000000000000000000f, 0.02508944459259510040f, -0.22004684805870056152f, 0.00783825013786554337f, 0.00000000000000000000f, -0.00000000000000000000f, 0.00000000000000000000f, -0.23183716833591461182f, -0.00000000000000000000f, 0.02616975456476211548f, 0.00000000000000000000f, -0.00000000000000000000f, -0.21170118451118469238f, -0.02960233017802238464f, -0.00000000000000000000f, 0.00118635431863367558f, 0.02686290256679058075f, 0.01124062854796648026f, 0.03308312222361564636f, 0.00000000000000000000f, -0.00239907368086278439f, 0.03306977078318595886f, 0.00000000000000000000f, 0.04021321609616279602f, -0.00000000000000000000f, -0.01275448128581047058f, -0.00000000000000000000f, 0.01231848541647195816f, -0.21569591760635375977f, 0.00244342815130949020f, -0.00000000000000000000f, 0.02111496962606906891f, -0.00146222335752099752f, -0.01243139896541833878f, 0.00000000000000000000f, -0.12566070258617401123f, -0.13620074093341827393f, 0.03387449309229850769f, -0.00000000000000000000f, -0.00000000000000000000f, 0.04344461485743522644f, 0.00000000000000000000f, -0.04171581566333770752f, -0.00000000000000000000f, 0.00000000000000000000f, 0.01730254665017127991f, 0.00439057964831590652f, 0.01967299543321132660f, 0.04544798284769058228f},
  {-0.00000000000000000000f, -0.00000000000000000000f, 0.01646186970174312592f, -0.03153254836797714233f, -0.00000000000000000000f, -0.03170641884207725525f, -0.15968772768974304199f, -0.00000000000000000000f, -0.00923490710556507111f, 0.00637209927663207054f, 0.04427373781800270081f, -0.00000000000000000000f, -0.00000467466998088639f, -0.01851437985897064209f, -0.00709962053224444389f, -0.21997730433940887451f, -0.00072272372199222445f, 0.00000000000003634114f, -0.00494695268571376801f, -0.00000000000000000000f, 0.00000000000000000000f, -0.01943834498524665833f, 0.00000000000000000000f, 0.00850290991365909576f, 0.00177538080606609583f, -0.00000000000000000000f, -0.00590582657605409622f, -0.00000000000000000000f, -0.01518590468913316727f, -0.00000000000000000000f, 0.00000000000000000000f, -0.00000000000000000000f, 0.00000000000000000000f, 0.01005458924919366837f, 0.00000000000000000000f, -0.00000000000000000000f, -0.02143477089703083038f, -0.00882631819695234299f, 0.00000000000000000000f, 0.00000000000000000000f, 0.00000000000000000000f, 0.00064252200536429882f, 0.04679219797253608704f, -0.00392436934635043144f, -0.00000000000000000000f, -0.00000000000000000000f, -0.00555989006534218788f, -0.00525448797270655632f, 0.02133275195956230164f, -0.00000000000000000000f, -0.00000000000000000000f, 0.00000000000000000000f, 0.01028920616954565048f, 0.00000000000000000000f, -0.00000000000000000000f, 0.00000000000000000000f, -0.00000000000000000000f, 0.01368037704378366470f, -0.08518117666244506836f, 0.00000000000000000000f, 0.01547642610967159271f, 0.00000000000000000000f, 0.00000000000000000000f, -0.00000000000000000000f, 0.00000000000000000000f, 0.00052456167759373784f, -0.00000000000000000000f, -0.00497043319046497345f, 0.01287092268466949463f, -0.30370888113975524902f, -0.00000000000000000000f, 0.00000000000000000000f, 0.00000000000000000000f, -0.00000000000000000000f, -0.00024399564426857978f, 0.05375543981790542603f, -0.02205483801662921906f, 0.01462599355727434158f, 0.02737815491855144501f, 0.00000000000000000000f, 0.02297151088714599609f, -0.01862214133143424988f, -0.00395484035834670067f, -0.00000000000000000000f, -0.00000000000000000000f, 0.00000000000000000000f, -0.23955266177654266357f, 0.00000000000000000000f, 0.02437890321016311646f, -0.00000000000000000000f, -0.00000000000000000000f, 0.00966279860585927963f, -0.01333940494805574417f, -0.00000000000000000000f, 0.00906636193394660950f, -0.14547175168991088867f, 0.02464117854833602905f, -0.11480198055505752563f, -0.00000000000000000000f, 0.01720854640007019043f, 0.00167609273921698332f, -0.00000000000000000000f, -0.04342013597488403320f, 0.00000000000000000000f, 0.00952515192329883575f, 0.00000000000000000000f, 0.00437024096027016640f, -0.28722900152206420898f, 0.04558460786938667297f, 0.00000000000000000000f, -0.01045428216457366943f, 0.00000000000000000000f, 0.02914967946708202362f, 0.00000000000000000000f, -0.03635137528181076050f, -0.05754396319389343262f, -0.17038203775882720947f, -0.00000000000000000000f, 0.00000000000000000000f, -0.03653570637106895447f, -0.00000000000000000000f, -0.25640270113945007324f, 0.00000000000000000000f, -0.00000000000000000000f, -0.25750735402107238770f, 0.01588219963014125824f, -0.00727799069136381149f, -0.03169533610343933105f},
  {-0.00000000000000000000f, 0.00000000000000000000f, -0.00000000000000000000f, -0.00000000000000000000f, 0.00000000000000000000f, -0.00000000000000000000f, -0.00000000000000000000f, 0.00000000000000000000f, -0.00000000000000000000f, 0.00000000000000000000f, -0.00000000000000000000f, -0.00000000000000000000f, -0.00000000000000000000f, -0.00000000000000000000f, -0.00000000000000000000f, -0.00000000000000000000f, -0.00000000000000000000f, 0.00000000000000000000f, -0.00000000000000000000f, -0.00000000000000000000f, -0.00000000000000000000f, -0.00000000000000000000f, 0.00000000000000000000f, -0.00000000000000000000f, -0.00000000000000000000f, -0.00000000000000000000f, -0.00000000000000000000f, -0.00000000000000000000f, -0.00000000000000000000f, 0.00000000000000000000f, 0.00000000000000000000f, 0.00000000000000000000f, 0.00000000000000000000f, -0.00000000000000000000f, 0.00000000000000000000f, -0.00000000000000000000f, -0.00000000000000000000f, 0.00000000000000000000f, -0.00000000000000000000f, 0.00000000000000000000f, 0.00000000000000000000f, -0.00000000000000000000f, -0.00000000000000000000f, -0.00000000000000000000f, -0.00000000000000000000f, 0.00000000000000000000f, -0.00000000000000000000f, -0.00000000000000000000f, -0.00000000000000000000f, 0.00000000000000000000f, -0.00000000000000000000f, -0.00000000000000000000f, 0.00000000000000000000f, 0.00000000000000000000f, 0.00000000000000000000f, -0.00000000000000000000f, -0.00000000000000000000f, -0.00000000000000000000f, -0.00000000000000000000f, -0.00000000000000000000f, -0.00000000000000000000f, -0.00000000000000000000f, -0.00000000000000000000f, 0.00000000000000000000f, 0.00000000000000000000f, -0.00000000000000000000f, -0.00000000000000000000f, -0.00000000000000000000f, -0.00000000000000000000f, -0.00000000000000000000f, -0.00000000000000000000f, 0.00000000000000000000f, -0.00000000000000000000f, 0.00000000000000000000f, -0.00000000000000000000f, -0.00000000000000000000f, -0.00000000000000000000f, -0.00000000000000000000f, -0.00000000000000000000f, -0.00000000000000000000f, -0.00000000000000000000f, -0.00000000000000000000f, -0.00000000000000000000f, -0.00000000000000000000f, 0.00000000000000000000f, 0.00000000000000000000f, -0.00000000000000000000f, -0.00000000000000000000f, -0.00000000000000000000f, 0.00000000000000000000f, 0.00000000000000000000f, -0.00000000000000000000f, -0.00000000000000000000f, 0.00000000000000000000f, 0.00000000000000000000f, -0.00000000000000000000f, -0.00000000000000000000f, -0.00000000000000000000f, -0.00000000000000000000f, -0.00000000000000000000f, -0.00000000000000000000f, -0.00000000000000000000f, -0.00000000000000000000f, 0.00000000000000000000f, -0.00000000000000000000f, 0.00000000000000000000f, -0.00000000000000000000f, -0.00000000000000000000f, -0.00000000000000000000f, -0.00000000000000000000f, -0.00000000000000000000f, -0.00000000000000000000f, -0.00000000000000000000f, 0.00000000000000000000f, -0.00000000000000000000f, -0.00000000000000000000f, -0.00000000000000000000f, 0.00000000000000000000f, -0.00000000000000000000f, -0.00000000000000000000f, 0.00000000000000000000f, -0.00000000000000000000f, -0.00000000000000000000f, -0.00000000000000000000f, -0.00000000000000000000f, -0.00000000000000000000f, -0.00000000000000000000f, -0.00000000000000000000f},
  {0.00000000000000000000f, 0.00000000000000000000f, 0.01191477663815021515f, 0.01498505566269159317f, 0.00000000000000000000f, -0.01300241984426975250f, 0.00694696605205535889f, 0.00000000000000000000f, 0.01402002293616533279f, -0.01249409560114145279f, -0.00337138469330966473f, -0.00000000000000000000f, -0.00000113277530999767f, 0.01095955446362495422f, -0.00200273841619491577f, 0.02081660553812980652f, -0.01254758890718221664f, -0.00000000000000585604f, -0.01962272264063358307f, 0.00000000000000000000f, 0.00000000000000000000f, -0.02461687289178371429f, -0.00000000000000000000f, 0.01860129460692405701f, 0.00880515389144420624f, 0.00000000000000000000f, -0.00204234500415623188f, 0.00000000000000000000f, -0.00789900124073028564f, 0.00000000000000000000f, -0.00000000000000000000f, 0.00000000000000000000f, 0.00000000000000000000f, 0.01580213196575641632f, -0.00000000000000000000f, -0.00000000000000000000f, -0.01205389946699142456f, -0.01042999420315027237f, 0.00000000000000000000f, -0.00000000000000000000f, 0.00000000000000000000f, 0.02039419487118721008f, -0.03229936957359313965f, -0.02719588018953800201f, 0.00000000000000000000f, 0.00000000000000000000f, -0.00914262700825929642f, 0.02187219262123107910f, 0.02939328923821449280f, 0.00000000000000000000f, 0.00000000000000000000f, 0.00000000000000000000f, 0.01058921217918395996f, 0.00000000000000000000f, 0.00000000000000000000f, 0.00000000000000000000f, 0.00000000000000000000f, 0.00757222156971693039f, 0.00743384659290313721f, -0.00000000000000000000f, 0.01188486348837614059f, -0.00000000000000000000f, 0.00000000000000000000f, 0.00000000000000000000f, -0.00000000000000000000f, -0.00345513061620295048f, -0.00000000000000000000f, 0.05221599340438842773f, 0.01915903575718402863f, -0.04422101005911827087f, 0.00000000000000000000f, 0.00000000000000000000f, 0.00000000000000000000f, 0.00000000000000000000f, 0.00929138623178005219f, -0.01060108095407485962f, -0.01047005876898765564f, 0.01012627128511667252f, 0.01047350279986858368f, -0.00000000000000000000f, -0.00734253600239753723f, 0.01517770905047655106f, -0.02498078718781471252f, 0.00000000000000000000f, -0.00000000000000000000f, 0.00000000000000000000f, 0.01945953629910945892f, 0.00000000000000000000f, 0.04180173575878143311f, 0.00000000000000000000f, 0.00000000000000000000f, 0.00492000952363014221f, -0.00919623672962188721f, 0.00000000000000000000f, 0.01802750676870346069f, 0.01323613990098237991f, 0.01940366812050342560f, 0.01235874742269515991f, 0.00000000000000000000f, -0.00672447821125388145f, 0.07544774562120437622f, 0.00000000000000000000f, -0.00003890173320542090f, 0.00000000000000000000f, 0.03200744092464447021f, 0.00000000000000000000f, -0.00094946799799799919f, 0.02748745679855346680f, 0.01719465665519237518f, 0.00000000000000000000f, 0.03847690671682357788f, -0.00187701510731130838f, 0.01380781456828117371f, 0.00000000000000000000f, 0.03094881214201450348f, 0.01774594001471996307f, 0.02501005120575428009f, 0.00000000000000000000f, 0.00000000000000000000f, -0.00671335030347108841f, 0.00000000000000000000f, 0.01809358224272727966f, 0.00000000000000000000f, 0.00000000000000000000f, 0.00180517672561109066f, -0.01033083628863096237f, -0.01328010484576225281f, 0.00523259770125150681f},
  {-0.00000000000000000000f, -0.00000000000000000000f, 0.00000000000000000000f, -0.00000000000000000000f, 0.00000000000000000000f, 0.00000000000000000000f, -0.00000000000000000000f, 0.00000000000000000000f, 0.00000000000000000000f, -0.00000000000000000000f, -0.00000000000000000000f, -0.00000000000000000000f, -0.00000000000000000000f, -0.00000000000000000000f, 0.00000000000000000000f, 0.00000000000000000000f, -0.00000000000000000000f, -0.00000000000000000000f, -0.00000000000000000000f, 0.00000000000000000000f, -0.00000000000000000000f, -0.00000000000000000000f, 0.00000000000000000000f, -0.00000000000000000000f, 0.00000000000000000000f, -0.00000000000000000000f, 0.00000000000000000000f, -0.00000000000000000000f, 0.00000000000000000000f, 0.00000000000000000000f, 0.00000000000000000000f, -0.00000000000000000000f, -0.00000000000000000000f, 0.00000000000000000000f, 0.00000000000000000000f, -0.00000000000000000000f, 0.00000000000000000000f, 0.00000000000000000000f, 0.00000000000000000000f, 0.00000000000000000000f, -0.00000000000000000000f, -0.00000000000000000000f, -0.00000000000000000000f, -0.00000000000000000000f, -0.00000000000000000000f, 0.00000000000000000000f, 0.00000000000000000000f, -0.00000000000000000000f, 0.00000000000000000000f, 0.00000000000000000000f, -0.00000000000000000000f, -0.00000000000000000000f, -0.00000000000000000000f, 0.00000000000000000000f, 0.00000000000000000000f, 0.00000000000000000000f, -0.00000000000000000000f, 0.00000000000000000000f, -0.00000000000000000000f, 0.00000000000000000000f, 0.00000000000000000000f, 0.00000000000000000000f, -0.00000000000000000000f, -0.00000000000000000000f, -0.00000000000000000000f, -0.00000000000000000000f, 0.00000000000000000000f, -0.00000000000000000000f, -0.00000000000000000000f, 0.00000000000000000000f, -0.00000000000000000000f, 0.00000000000000000000f, 0.00000000000000000000f, -0.00000000000000000000f, 0.00000000000000000000f, 0.00000000000000000000f, 0.00000000000000000000f, -0.00000000000000000000f, 0.00000000000000000000f, 0.00000000000000000000f, 0.00000000000000000000f, 0.00000000000000000000f, 0.00000000000000000000f, -0.00000000000000000000f, -0.00000000000000000000f, -0.00000000000000000000f, -0.00000000000000000000f, -0.00000000000000000000f, 0.00000000000000000000f, -0.00000000000000000000f, -0.00000000000000000000f, -0.00000000000000000000f, -0.00000000000000000000f, 0.00000000000000000000f, -0.00000000000000000000f, -0.00000000000000000000f, -0.00000000000000000000f, 0.00000000000000000000f, -0.00000000000000000000f, -0.00000000000000000000f, -0.00000000000000000000f, 0.00000000000000000000f, -0.00000000000000000000f, 0.00000000000000000000f, 0.00000000000000000000f, -0.00000000000000000000f, 0.00000000000000000000f, -0.00000000000000000000f, 0.00000000000000000000f, 0.00000000000000000000f, -0.00000000000000000000f, 0.00000000000000000000f, 0.00000000000000000000f, -0.00000000000000000000f, -0.00000000000000000000f, -0.00000000000000000000f, -0.00000000000000000000f, 0.00000000000000000000f, -0.00000000000000000000f, 0.00000000000000000000f, 0.00000000000000000000f, 0.00000000000000000000f, 0.00000000000000000000f, -0.00000000000000000000f, -0.00000000000000000000f, 0.00000000000000000000f, 0.00000000000000000000f, -0.00000000000000000000f},
  {0.00000000000000000000f, -0.00000000000000000000f, 0.00755717977881431580f, -0.02079802565276622772f, 0.00000000000000000000f, 0.03293220698833465576f, 0.02517084591090679169f, -0.00000000000000000000f, 0.00633783126249909401f, 0.00792611856013536453f, 0.03031502291560173035f, -0.00000000000000000000f, -0.00000255597365139693f, 0.03781677782535552979f, 0.00319326063618063927f, -0.00499612232670187950f, 0.00377470813691616058f, -0.00000000000004890318f, 0.02847390808165073395f, 0.00000000000000000000f, -0.00000000000000000000f, 0.01010806486010551453f, 0.00000000000000000000f, -0.00270444643683731556f, 0.00174737838096916676f, 0.00000000000000000000f, 0.00033754738979041576f, 0.00000000000000000000f, 0.01610148139297962189f, -0.00000000000000000000f, -0.00000000000000000000f, -0.00000000000000000000f, -0.00000000000000000000f, -0.01526779029518365860f, 0.00000000000000000000f, 0.00000000000000000000f, 0.02386924438178539276f, 0.00952222477644681931f, 0.00000000000000000000f, 0.00000000000000000000f, 0.00000000000000000000f, -0.02803953178226947784f, 0.04556941613554954529f, 0.04133836552500724792f, -0.00000000000000000000f, 0.00000000000000000000f, 0.00434813695028424263f, -0.01206842623651027679f, 0.01548566669225692749f, 0.00000000000000000000f, -0.00000000000000000000f, 0.00000000000000000000f, -0.03444978594779968262f, 0.00000000000000000000f, 0.00000000000000000000f, 0.00000000000000000000f, 0.00000000000000000000f, 0.01932490803301334381f, -0.01001082640141248703f, 0.00000000000000000000f, 0.00179706618655472994f, 0.00000000000000000000f, 0.00000000000000000000f, 0.00000000000000000000f, 0.00000000000000000000f, -0.02090610750019550323f, 0.00000000000000000000f, -0.04765236750245094299f, 0.00950876716524362564f, 0.04205219447612762451f, 0.00000000000000000000f, 0.00000000000000000000f, -0.00000000000000000000f, 0.00000000000000000000f, -0.01528761535882949829f, 0.05785223096609115601f, 0.00876909773796796799f, 0.01865878887474536896f, -0.00365259335376322269f, 0.00000000000000000000f, -0.00757001945748925209f, -0.01602082513272762299f, 0.01245805341750383377f, 0.00000000000000000000f, 0.00000000000000000000f, -0.00000000000000000000f, 0.01436116360127925873f, 0.00000000000000000000f, -0.00408437196165323257f, 0.00000000000000000000f, 0.00000000000000000000f, 0.00329023716039955616f, 0.02566423453390598297f, 0.00000000000000000000f, -0.00293788663111627102f, -0.00145703344605863094f, -0.00927456282079219818f, 0.01532502938061952591f, 0.00000000000000000000f, 0.00806492846459150314f, -0.00798329990357160568f, 0.00000000000000000000f, -0.00320433871820569038f, 0.00000000000000000000f, -0.02687997929751873016f, -0.00000000000000000000f, 0.01388100255280733109f, 0.00555097870528697968f, 0.04877868667244911194f, 0.00000000000000000000f, 0.01742357015609741211f, -0.03427951037883758545f, -0.02156494557857513428f, 0.00000000000000000000f, -0.00015957752475515008f, 0.00921514723449945450f, 0.01186308823525905609f, -0.00000000000000000000f, 0.00000000000000000000f, -0.00785665120929479599f, 0.00000000000000000000f, -0.00833904277533292770f, 0.00000000000000000000f, 0.00000000000000000000f, 0.00155459064990282059f, -0.00640774983912706375f, 0.00244460930116474628f, 0.00257556792348623276f},
  {-0.00000000000000000000f, -0.00000000000000000000f, -0.00000000000000000000f, -0.00000000000000000000f, -0.00000000000000000000f, -0.00000000000000000000f, -0.00000000000000000000f, -0.00000000000000000000f, 0.00000000000000000000f, 0.00000000000000000000f, -0.00000000000000000000f, -0.00000000000000000000f, 0.00000000000000000000f, -0.00000000000000000000f, 0.00000000000000000000f, -0.00000000000000000000f, -0.00000000000000000000f, 0.00000000000000000000f, -0.00000000000000000000f, -0.00000000000000000000f, -0.00000000000000000000f, 0.00000000000000000000f, -0.00000000000000000000f, -0.00000000000000000000f, -0.00000000000000000000f, -0.00000000000000000000f, 0.00000000000000000000f, 0.00000000000000000000f, -0.00000000000000000000f, -0.00000000000000000000f, 0.00000000000000000000f, -0.00000000000000000000f, 0.00000000000000000000f, 0.00000000000000000000f, -0.00000000000000000000f, 0.00000000000000000000f, 0.00000000000000000000f, -0.00000000000000000000f, 0.00000000000000000000f, 0.00000000000000000000f, -0.00000000000000000000f, -0.00000000000000000000f, -0.00000000000000000000f, 0.00000000000000000000f, -0.00000000000000000000f, -0.00000000000000000000f, 0.00000000000000000000f, -0.00000000000000000000f, 0.00000000000000000000f, -0.00000000000000000000f, -0.00000000000000000000f, 0.00000000000000000000f, 0.00000000000000000000f, -0.00000000000000000000f, 0.00000000000000000000f, 0.00000000000000000000f, -0.00000000000000000000f, 0.00000000000000000000f, -0.00000000000000000000f, 0.00000000000000000000f, -0.00000000000000000000f, 0.00000000000000000000f, -0.00000000000000000000f, 0.00000000000000000000f, -0.00000000000000000000f, -0.00000000000000000000f, 0.00000000000000000000f, 0.00000000000000000000f, -0.00000000000000000000f, -0.00000000000000000000f, -0.00000000000000000000f, 0.00000000000000000000f, -0.00000000000000000000f, -0.00000000000000000000f, -0.00000000000000000000f, 0.00000000000000000000f, 0.00000000000000000000f, -0.00000000000000000000f, -0.00000000000000000000f, -0.00000000000000000000f, -0.00000000000000000000f, 0.00000000000000000000f, -0.00000000000000000000f, -0.00000000000000000000f, -0.00000000000000000000f, 0.00000000000000000000f, -0.00000000000000000000f, -0.00000000000000000000f, 0.00000000000000000000f, 0.00000000000000000000f, -0.00000000000000000000f, -0.00000000000000000000f, 0.00000000000000000000f, 0.00000000000000000000f, -0.00000000000000000000f, -0.00000000000000000000f, -0.00000000000000000000f, -0.00000000000000000000f, 0.00000000000000000000f, 0.00000000000000000000f, 0.00000000000000000000f, -0.00000000000000000000f, 0.00000000000000000000f, -0.00000000000000000000f, 0.00000000000000000000f, 0.00000000000000000000f, -0.00000000000000000000f, 0.00000000000000000000f, -0.00000000000000000000f, 0.00000000000000000000f, -0.00000000000000000000f, 0.00000000000000000000f, 0.00000000000000000000f, 0.00000000000000000000f, -0.00000000000000000000f, 0.00000000000000000000f, -0.00000000000000000000f, -0.00000000000000000000f, 0.00000000000000000000f, -0.00000000000000000000f, -0.00000000000000000000f, 0.00000000000000000000f, -0.00000000000000000000f, 0.00000000000000000000f, -0.00000000000000000000f, -0.00000000000000000000f, 0.00000000000000000000f, 0.00000000000000000000f},
  {-0.00000000000000000000f, 0.00000000000000000000f, 0.00000000000000000000f, 0.00000000000000000000f, 0.00000000000000000000f, 0.00000000000000000000f, 0.00000000000000000000f, -0.00000000000000000000f, 0.00000000000000000000f, 0.00000000000000000000f, -0.00000000000000000000f, -0.00000000000000000000f, 0.00000000000000000000f, -0.00000000000000000000f, 0.00000000000000000000f, 0.00000000000000000000f, -0.00000000000000000000f, -0.00000000000000000000f, 0.00000000000000000000f, 0.00000000000000000000f, -0.00000000000000000000f, -0.00000000000000000000f, 0.00000000000000000000f, -0.00000000000000000000f, -0.00000000000000000000f, 0.00000000000000000000f, 0.00000000000000000000f, 0.00000000000000000000f, -0.00000000000000000000f, 0.00000000000000000000f, 0.00000000000000000000f, -0.00000000000000000000f, 0.00000000000000000000f, -0.00000000000000000000f, -0.00000000000000000000f, 0.00000000000000000000f, 0.00000000000000000000f, 0.00000000000000000000f, -0.00000000000000000000f, 0.00000000000000000000f, -0.00000000000000000000f, 0.00000000000000000000f, 0.00000000000000000000f, 0.00000000000000000000f, 0.00000000000000000000f, 0.00000000000000000000f, -0.00000000000000000000f, 0.00000000000000000000f, 0.00000000000000000000f, -0.00000000000000000000f, 0.00000000000000000000f, -0.00000000000000000000f, 0.00000000000000000000f, -0.00000000000000000000f, 0.00000000000000000000f, 0.00000000000000000000f, 0.00000000000000000000f, -0.00000000000000000000f, -0.00000000000000000000f, -0.00000000000000000000f, -0.00000000000000000000f, 0.00000000000000000000f, -0.00000000000000000000f, 0.00000000000000000000f, -0.00000000000000000000f, 0.00000000000000000000f, 0.00000000000000000000f, -0.00000000000000000000f, -0.00000000000000000000f, -0.00000000000000000000f, -0.00000000000000000000f, 0.00000000000000000000f, 0.00000000000000000000f, -0.00000000000000000000f, -0.00000000000000000000f, 0.00000000000000000000f, 0.00000000000000000000f, -0.00000000000000000000f, 0.00000000000000000000f, -0.00000000000000000000f, 0.00000000000000000000f, 0.00000000000000000000f, -0.00000000000000000000f, 0.00000000000000000000f, 0.00000000000000000000f, 0.00000000000000000000f, 0.00000000000000000000f, -0.00000000000000000000f, 0.00000000000000000000f, -0.00000000000000000000f, -0.00000000000000000000f, -0.00000000000000000000f, 0.00000000000000000000f, -0.00000000000000000000f, 0.00000000000000000000f, -0.00000000000000000000f, -0.00000000000000000000f, -0.00000000000000000000f, -0.00000000000000000000f, 0.00000000000000000000f, -0.00000000000000000000f, -0.00000000000000000000f, -0.00000000000000000000f, 0.00000000000000000000f, -0.00000000000000000000f, 0.00000000000000000000f, -0.00000000000000000000f, 0.00000000000000000000f, -0.00000000000000000000f, -0.00000000000000000000f, 0.00000000000000000000f, -0.00000000000000000000f, 0.00000000000000000000f, 0.00000000000000000000f, -0.00000000000000000000f, -0.00000000000000000000f, 0.00000000000000000000f, -0.00000000000000000000f, 0.00000000000000000000f, 0.00000000000000000000f, 0.00000000000000000000f, -0.00000000000000000000f, -0.00000000000000000000f, 0.00000000000000000000f, -0.00000000000000000000f, -0.00000000000000000000f, -0.00000000000000000000f, -0.00000000000000000000f},
  {0.00000000000000000000f, 0.00000000000000000000f, -0.00000000000000000000f, 0.00000000000000000000f, 0.00000000000000000000f, -0.00000000000000000000f, 0.00000000000000000000f, -0.00000000000000000000f, -0.00000000000000000000f, 0.00000000000000000000f, -0.00000000000000000000f, -0.00000000000000000000f, -0.00000000000000000000f, -0.00000000000000000000f, -0.00000000000000000000f, -0.00000000000000000000f, -0.00000000000000000000f, 0.00000000000000000000f, -0.00000000000000000000f, 0.00000000000000000000f, -0.00000000000000000000f, -0.00000000000000000000f, -0.00000000000000000000f, -0.00000000000000000000f, 0.00000000000000000000f, -0.00000000000000000000f, 0.00000000000000000000f, 0.00000000000000000000f, -0.00000000000000000000f, 0.00000000000000000000f, 0.00000000000000000000f, 0.00000000000000000000f, -0.00000000000000000000f, 0.00000000000000000000f, -0.00000000000000000000f, -0.00000000000000000000f, 0.00000000000000000000f, -0.00000000000000000000f, -0.00000000000000000000f, -0.00000000000000000000f, -0.00000000000000000000f, -0.00000000000000000000f, 0.00000000000000000000f, 0.00000000000000000000f, 0.00000000000000000000f, 0.00000000000000000000f, -0.00000000000000000000f, -0.00000000000000000000f, 0.00000000000000000000f, 0.00000000000000000000f, -0.00000000000000000000f, -0.00000000000000000000f, 0.00000000000000000000f, 0.00000000000000000000f, -0.00000000000000000000f, -0.00000000000000000000f, 0.00000000000000000000f, 0.00000000000000000000f, 0.00000000000000000000f, 0.00000000000000000000f, -0.00000000000000000000f, 0.00000000000000000000f, 0.00000000000000000000f, 0.00000000000000000000f, -0.00000000000000000000f, 0.00000000000000000000f, 0.00000000000000000000f, -0.00000000000000000000f, -0.00000000000000000000f, -0.00000000000000000000f, -0.00000000000000000000f, -0.00000000000000000000f, 0.00000000000000000000f, -0.00000000000000000000f, -0.00000000000000000000f, 0.00000000000000000000f, -0.00000000000000000000f, -0.00000000000000000000f, -0.00000000000000000000f, -0.00000000000000000000f, 0.00000000000000000000f, 0.00000000000000000000f, 0.00000000000000000000f, -0.00000000000000000000f, -0.00000000000000000000f, -0.00000000000000000000f, 0.00000000000000000000f, 0.00000000000000000000f, -0.00000000000000000000f, -0.00000000000000000000f, 0.00000000000000000000f, -0.00000000000000000000f, -0.00000000000000000000f, 0.00000000000000000000f, -0.00000000000000000000f, -0.00000000000000000000f, -0.00000000000000000000f, 0.00000000000000000000f, 0.00000000000000000000f, 0.00000000000000000000f, 0.00000000000000000000f, 0.00000000000000000000f, -0.00000000000000000000f, -0.00000000000000000000f, -0.00000000000000000000f, 0.00000000000000000000f, -0.00000000000000000000f, -0.00000000000000000000f, 0.00000000000000000000f, -0.00000000000000000000f, -0.00000000000000000000f, -0.00000000000000000000f, 0.00000000000000000000f, 0.00000000000000000000f, -0.00000000000000000000f, 0.00000000000000000000f, -0.00000000000000000000f, 0.00000000000000000000f, 0.00000000000000000000f, -0.00000000000000000000f, 0.00000000000000000000f, -0.00000000000000000000f, 0.00000000000000000000f, 0.00000000000000000000f, -0.00000000000000000000f, -0.00000000000000000000f, 0.00000000000000000000f, 0.00000000000000000000f},
